0.0035818275127976157,0.008067173966088033,-0.00493612193112311,-0.00035912101375484666,-0.0048472725367383895,-0.0003413549355827747,0.00551678009962499,-0.00841750236142626,-0.0031160486498457434,0.015129751523414057
0.020612294911428183,-0.011310561238095524,0.011766842728791724,-0.005784749476550977,0.011563668275696794,-0.003244991553004295,-0.008694819969797608,0.008290773789732897,0.004433303979256061,-0.0028056522400594025
0.004407643502451669,0.005716939428248431,0.01260209678026247,0.008505563701052545,-0.017415847269588676,-0.009140989632919348,0.00974371378205618,-0.007208848215322652,0.009250482254902605,-0.013946114454532005
0.007054464982809813,-0.0022438520881306848,-0.0012075026752629671,-0.009521468906648393,0.001924645723150638,-0.00023952102482484758,-0.0105152221881718,0.0010451533877294313,0.016268923028226658,0.008219027703165483
-0.007812535813796054,0.011891545071270571,-0.0016422917174367879,-0.001708843339963638,-0.0003769241109255777,0.004778742471456353,0.0032340092457581976,-0.01039117636029498,-0.010854754696574572,0.0008603730731533725
0.004688359008854289,0.016971768565589077,-0.01116501439007892,0.008540503497012747,-0.001018642812308571,0.0026721823163898656,0.010128024777372416,0.006831749447801016,-0.0032602082891941627,0.0031780295420789644
-0.009859074720178088,0.002563773087068369,-0.0013022586155543587,-0.008014162919991793,0.00048559149612053756,0.004621797789364891,-0.006317203661454552,-0.010563208544441528,0.022838316835481556,0.024126710277383792
0.00865608177764486,0.018034415817000944,-0.0015150558174143168,-0.0028861794990748453,-0.004094480075365327,0.008787806715745907,0.01569038391081365,0.003870478492933988,-0.0015563447247060533,-0.01347538957498881
0.008313223649154225,-0.020450319612289707,-0.010231207264081298,-0.004612161408386445,0.004518427587128038,0.0011372137205704642,-9.081581672329826e-05,0.0013016474208558553,0.0037703766816154496,0.0014403975132321746
0.003340378238338538,0.01769369078688257,-0.011908440099624341,-0.0038623999880653404,-0.0025437063595824096,-0.009658225223089597,0.0010949236447003149,0.004019418459105908,-0.006094041034747865,0.01030881535420191
-0.000886377901144554,0.007030769456880065,0.00596965027042075,0.004329387576363533,-0.004371109143256382,-0.0012265639993425672,-0.012066388911763981,-0.01775914319710025,-0.009713052211308661,-0.004047155954274141
0.004204405953607482,0.007481941561865191,-0.003004484975232727,-0.02043879004468008,0.001360249697340422,-0.005801883668985216,-0.0032269311298306308,-0.0076416800690930296,-0.005417353517914299,-0.011075224851173886
0.00583635395021202,-0.0006273003270759091,-0.008108631193589757,0.014627356648766077,-0.001342632766179029,0.005859291430239468,-0.01544279698831907,-0.017007231872667825,-0.018927138135463838,0.00931329383783825
0.006895422884655845,0.008864782601092634,-0.018553460646109427,0.006898001593931488,0.0030210950772799716,-0.006722256725358712,-0.012797104436349113,0.014335370973284889,-0.0003074779668390857,0.009287554482985816
0.0015595371576060185,-0.0019034012950703808,0.006669578411660591,0.003441752835967,0.02085801516350261,-0.003035713013224248,0.010475797260881959,0.020848996888720907,0.007184446872048064,-0.006915597781915604
0.014636897041161634,-0.005464892219348447,-0.012014567518215308,0.0004470116051108141,0.0032176130768221496,0.01295932036876749,-0.004838391866535205,-0.005814572986961162,0.00888470708649337,0.005025425006701233
0.01147737956106088,0.004972935528937894,0.0005505725969249775,0.023016064701944547,0.007393479627002586,0.013625524337806685,-0.00547920957139306,0.014887053852733598,0.005269483783644215,-0.012703840437098473
-0.0017327984895383589,0.027305779697190505,0.00024041179990364807,0.00694046552291251,0.00785982271297381,-0.005883623726936028,-0.005294858738956722,0.007501472464020338,0.009118536640563784,-0.013783230185107425
-0.008734100309516548,-0.00018511043546228856,-0.007992292517328789,0.012175647870016276,0.005641458412327044,0.0074385592827053825,0.008154578936264208,-0.01485584729082202,0.0007434339140604361,0.001614196070436621
0.016427038751768402,0.0017605259872279517,-0.007518890063767627,-0.0010976158552705763,-0.0035895850579233247,-0.007813036779145242,0.005632747296041463,0.0067933518130181905,0.004570196775106163,-0.001447461417571277
-0.01821553701282048,0.00050754155158572,-0.006770095950243501,-0.014920145342877989,-0.00617613298607042,-0.00147292637994514,-0.024883325203674558,-0.014520932476609795,0.01779899337641046,0.00014847997188822542
-0.0026488121724681356,-0.0022000015966113858,0.014128688397362192,-0.0032362721719167383,-0.005509537312874512,0.005493457697899647,0.008709939567348855,-0.02003710238796849,-0.019997846318944353,0.009217619420875109
-0.006851196035610767,-0.0011815474352611182,-0.017885288212481264,-0.0020723463165610097,0.005968475270000146,-0.009521724806589527,0.0022602531109891643,-0.010392710781759025,-7.215170080626547e-05,0.01894489416619774
-0.0020293511636640827,0.00019583244481466053,0.0077966187263928104,0.001178749854943565,-0.010021032219028187,-0.002396397720579516,-0.005230126895355411,0.003475573661718165,-0.0037212143936031675,0.013839888973414387
-0.0005346082327544388,-0.011440600984691716,-0.004925521283424769,0.014713012921855857,0.00402577662808841,-0.0013877263226205736,0.0003816908748380088,-0.0007920972638660013,0.008570947295230648,0.0018730925088295493
0.0004047751968157895,-0.011101824638595383,0.0011459801053800363,-0.002547548189450161,0.002907461541646789,0.009524284485151361,-0.005680595671510037,-0.0017676428356029812,-0.008551882824447155,0.013517260306223605
0.005636601451709352,-0.0009375514718825519,0.0005596379651374556,0.004817824656885265,0.009396679193763708,-0.004555986198702114,0.01238689204842589,-0.003325548013017454,-0.015194854307330813,0.009270733271376461
-0.0052509356742068735,0.012754316770099243,-0.017295597519450038,0.006866426632221824,0.004780460553600855,-0.008061834749113149,-0.004098555328180338,0.003759523372205447,0.003196584901125657,0.01340129962291682
-0.013361533245470526,-0.013199264723317075,0.01796068240738259,0.00580251255676718,0.021785549829037167,0.007154183262244499,-0.018244205269643095,0.007318199825796745,0.004891282847149625,-0.002502233886344531
0.005310259483527203,-0.009549539183730396,0.0018415551796543968,0.0056118549390477635,-0.0076874481488496986,0.009655097766221327,0.00373346196424918,0.02349650324138482,0.0003217363712708861,-0.005209646894316667
-0.012205533477204671,0.02690047728888862,0.007732183026349278,0.00022992282909650914,0.014476898526405397,0.0019491582551572752,-0.0003236994642893886,-0.005241923200631726,0.010386302646885597,-0.01907910088981216
0.0033541767391663973,0.008095939263642993,0.010403009780015024,-0.006244214422775003,0.00902033995850706,-0.014990565531776825,-0.0039509905387836285,-0.00986682529148418,0.01791886332701082,0.0070317590120282806
-0.015364266823078922,0.0024304187165047207,-0.0053657164818398705,-0.00014948347297174714,-0.002540350567644395,-0.0006444929366644192,0.0042496020589933075,-0.003646888237723302,0.003386762606657833,-0.012068669714765426
0.01881111291274919,0.005734934839294368,0.016385709253065373,0.003014446843240336,-0.016196712966085783,0.0029982229945756523,-0.010325900567452688,0.008633113234803001,0.002247699527465107,0.005300209349812092
-0.007831814655991552,0.003395688065064215,-0.0167956248433359,-0.014550467946778604,-0.006853690014038406,0.009569183942525749,-0.015873134994338185,0.026440802402244248,0.009682364380077807,-0.001102740665947945
-0.0009122071259036045,0.016045358788979353,0.009621604311031701,-0.004352594145515546,0.016467726418782396,-0.00029275769331446307,-0.0086509228181706,0.010097489477325415,0.013100109561659563,-0.015339126993753784
-0.0006415894794559886,0.01196197219705357,-0.012874718198325282,-0.021139728703391713,0.0031924122038361107,0.0002750511751165846,0.00728836887956202,0.013232581860035349,0.005780981185821932,-0.007906137036784696
0.0022005639197038673,0.013318512336567324,-0.009815538601018872,0.0037997823235315776,0.009896165977757712,0.015949520894987683,0.0007037905971967441,-0.020767276402616424,0.006178560618179316,0.00574561642371617
-0.0030442667235518056,0.008583081710184766,0.0026126970177946358,-0.011731887235611667,-0.004968779161891932,0.014284773206462154,-0.009106437773558225,0.012122488296064009,0.012590853118495886,-0.0004354505545679399
-0.001550184104567573,0.022535114318397907,6.663926618151633e-05,-0.03257934945229813,-0.011120235994605938,-0.0008105043570376158,-0.005937405576212037,0.004017034638950852,-0.0007586795439796914,0.008209473983567205
-0.006361106116522977,0.01178233643247099,0.004719758493350889,0.013089438861223336,-0.017886428134805347,0.0018414880662844318,-0.007308466936261146,0.00422389782648485,0.004867259847367247,0.008144626641951947
0.005775497266377241,0.012224224905996815,-0.011256802979686857,-0.007369957462078213,-0.0003916825200254995,0.011963302576650365,-0.00713378825393623,-0.016400231244619434,0.0027250033273960813,0.0037267468517076024
-0.01832597639363402,-0.005876757443965015,0.007092545302122193,0.00012419471662009272,0.011079379557281272,-0.007716228472138135,-0.0172672024723129,-0.012603285477075454,0.0018748281600550894,0.004846490632150114
0.003434927159886357,0.010179766135220114,0.002064116614368868,0.013025751282606494,-0.006482487059150355,0.004123263132237254,0.010784178423137303,-0.019790271094989723,0.007491684168802826,0.04209080740297409
-0.006364513837605604,-0.0037612629619547433,-0.008129662205107498,0.01086724861239762,-0.02769746012118221,0.0058593432865501685,0.005060546855076178,-0.013887616924484248,0.004228651031363371,0.04296787911189113
-0.003997977827753763,-0.09794441617000803,-0.004255446881926526,-0.0063291732247661376,0.07168939001087869,0.0015781887850131343,0.001638617902212003,0.002010699913457332,-0.013544402984531313,0.0638339793454599
-0.0016756242007536699,0.019086764033292652,0.013748457358093947,0.0038258769144077585,-0.004100727048360057,-0.009356690409926387,0.010370436743026897,-0.022227168933368242,-0.013899722353257073,0.02065734674076494
0.00042156159148493014,0.013309312863746703,-0.018214630333253868,-0.0013994765174474139,0.0037074548847317985,0.0004590790046237764,-0.006084625751919505,-0.0033961956932406162,0.014414169198787725,-0.004856800080311577
0.02044557693905402,-0.0063281728563935585,-0.006297327267269539,0.020153372195549343,-0.00308390987321332,-0.005451274763834612,-0.015880635299314005,-0.010564350945617022,-0.004344623178204921,-0.012253593981279896
-0.0008316082541762588,0.006109686504502017,-0.002664857033991499,-0.01625960283307799,0.01659942435276285,0.00048109888166153583,-0.01199916100953914,0.0009022385008666633,0.01226931055671994,-0.013677367987559839
0.009377391540974847,-0.022793224580527172,0.007729405307786823,-0.006054448081801472,-0.007129596310861658,0.014168494384402746,-0.008861512428186476,-0.00181764748398925,-0.009951629113607217,-0.02261431892517941
0.011062937423995865,0.012121130884320094,0.02142812422566959,-0.0069674576441721104,0.01712709042974423,5.6441265221311077e-05,0.021795541919910746,0.0039097265704884565,0.013807756768770208,0.0020176174735970294
0.0038856176276091513,2.0169753955296446e-05,0.012032886031058003,0.002255258132404637,-0.004705648221446024,-0.010825948425298316,-0.004250311940549194,-0.004280636268071134,0.010788629078026172,0.012652560596968248
0.010494262872108417,-0.02130237357756356,0.00452073024743531,-0.008215377540576016,0.011366639385562849,-0.0023200361797010064,-0.010474648876478318,-0.009835637760834131,0.004846553731280191,0.011342982363408775
0.013228606950443813,0.0036100533857451097,0.021595261017603288,0.008796335891527462,-0.015477242379671487,0.006498726273421632,-0.0065679013435950345,-0.008657960106351802,0.004536773114581016,0.01633146559166835
-0.0026322368534170315,-0.006650324225790774,0.001578461324747623,0.015675139341262984,-0.0018404711658693749,-0.010611158458461238,0.0075022163080153146,0.013648025840203738,-0.007354684339099285,-0.016558143378499753
0.007208030892136142,0.0007737457707827708,-0.0019790147286753985,-0.005298595262124887,-0.015047049702061326,0.013408972983493734,-0.012504431574373774,0.010722732491757434,0.0015048864324998176,-0.002693738810650272
-0.004845406960848367,0.0009699181025191009,0.008205206312201313,0.0015232862958344498,0.00987267430541898,-0.0020152778423111915,0.003951462744042313,-0.0017047867309332144,0.007099193273167004,-0.012596782254100084
-0.024589356701997377,-0.008077761945570116,-0.023278394963106255,-0.022210465651487266,-0.039158564611567505,-0.0962024632107837,-0.11561552804583562,0.3326155218781331,-0.026974597233524116,-0.027576574006395908
-0.1051519436449461,-0.01609275358429933,-0.3220102773601785,0.49219759255532913,0.15025181920448422,-0.1408676972416146,-0.16623146453298535,0.3387478048436791,-0.13311494710584368,-0.11652224101118071
0.13785474079701993,-0.14882576065070627,0.19347810335291832,0.056811405736387016,0.11032079980223784,-0.06374877898745326,-0.32479882185130277,0.4598165996548753,-0.2864438744540305,-0.13798518261238235
0.21894363960458232,-0.2170083280325461,0.04266026589976013,0.07470131425709303,-0.03605148977253538,0.27786158432846153,-0.21422239495724132,0.4858141830823509,-0.12507889045214376,-0.46570662636143867
0.34604335259712626,-0.7508111564261538,-0.21462029915977995,0.22749070583944575,-0.3368782109680801,0.1434198353876305,0.2629778896586794,0.28932860683461187,0.0771575465098362,-0.1105831257310862
-0.0005809396199975718,-0.7200154524350656,0.1326613049996308,0.22828203054199334,0.07966093548986765,0.04153074440808681,0.11225561293641574,0.42433726052464144,-0.13857203294039597,-0.17420148518517478
0.05266274977077279,-1.1041634625584036,0.09399788860002115,0.32401757096562234,-0.25524242021484056,0.07406689836792675,0.5248633600139823,0.3343897085868512,0.10319292037906502,-0.10703371457700739
-0.10204229057198053,-0.7029712184405779,-0.18551767608106676,0.2740104619193015,0.1620303197004922,-0.04515963665554062,-0.04073217859769237,0.4715047258008361,-0.08969470769395967,0.2780230785021187
0.018860440609476642,-0.37384273369649285,-0.1438251950662163,0.11476880797102115,-0.006061719522574528,-0.04823386250671873,-0.20980480250118122,0.3249926801491126,0.14265783578433705,0.15991807989376733
-0.04501461677034067,-0.29794348709176094,0.1474665157352971,0.030454098438635363,-0.1573638494855753,-0.11854909704433807,0.03435605814025543,0.14798646251151934,0.023383890034622924,0.17476368941356477
-0.05087578082505874,-0.35136603272884015,0.15104015106893373,0.048359071922547035,-0.2296076661381761,-0.1606109514200654,0.19949175158353807,-0.00016082959349123947,0.09518144508569559,0.2894287527357251
0.18583073498298694,-0.20344994327391805,-0.09510291746934746,0.09509639593964313,-0.07152275538932674,-0.08537290031750835,-0.10331905239314192,-0.029056204777214528,0.11879166563430617,0.20165727380565493
-0.09458443606656355,-0.36399099772059973,-0.12051247464223877,0.042640250595913406,-0.07182509059710013,-0.14337127144384146,-0.20719535591907293,0.33668979600653565,0.14060931636189558,0.4037941352717724
-0.050902102696783504,-0.2901046492002993,0.06673672738909785,0.06438008583559963,-0.024072294694267637,-0.11716259995384139,0.2112292275247704,-0.1473401475479192,0.022827115757298337,0.24438667726476107
0.15951750786129149,-0.5270049027595362,-0.0049158119586459655,0.05080658880031578,-0.05291482950521143,-0.06611010212737976,0.06739925180436704,-0.07933482644444578,0.19945610540824443,0.2738046480111435
-0.060515215972063253,-0.2631243278025144,0.1019332120704412,0.009295471481858233,-0.025687677670077555,-0.08362680590109094,-0.08133683366655403,0.0850943084265552,0.07365731903637113,0.21577003982008078
-0.13513180907078162,-0.5145448916572007,-0.048017297123151975,-0.004190513805634634,0.24570257087153355,-0.040506082937731384,0.05824879656512494,0.11251899464092933,0.07327218029107445,0.27036960353466555
0.22583332626492664,-0.36944656754436883,0.03644105484432255,0.06525581741065231,-0.06619536007005707,-0.04380591069646227,-0.2310364151458829,0.12187915090651891,0.13913544909990794,0.09687155514580581
-0.2533191445029965,-0.620626928175818,-0.2230579411058155,0.15331834211142126,0.2729530988183425,-0.03810051230796766,-0.09732302147535152,0.26947931643463013,0.18036635027946368,0.3654149096900212
-0.13866414830110804,-0.4638349614709669,-0.05555405672173882,0.1514605161770417,0.058698941592938224,0.1915678946674272,-0.16899063817983,0.17649844867490497,0.11225302753215494,0.14690152355803768
-0.07001080483761249,-0.7331452096691801,0.1594030078499559,0.08878022115895824,0.2609627644830677,0.12425044001006713,-0.3267430289604068,0.06057314287515878,0.275361464685603,0.12960124103089324
-0.07817093750672383,-0.4203594393890708,-0.025049962640191367,-0.32955277136053845,0.18208485029711938,0.19677986824946808,0.12747071644607622,0.2862804417965565,-0.06851608118727129,0.1698125845717674
-0.07770287463921977,-0.32515702239327954,-0.13193442413846318,-0.11808841370992657,0.2856591185049952,0.4098906867962306,-0.17655295761373022,-0.001236166486108104,0.4494486907748212,-0.3601374950135944
-0.38582073647707443,-0.15256953180448846,-0.34891773828589684,-0.060615044297437345,0.6339961747144073,0.4487404195648723,-0.4761872314425274,0.05061967994983553,0.2832773805025393,0.007228928482699564
0.006514661942216453,-0.09093384433458113,-0.024635526611466632,0.011440095656256111,-0.02413253106957027,-0.03353483193913452,0.02678970562901782,-0.0038264700299658495,0.1528352640982435,0.004560309130087633
0.01713771662604935,-0.005396579586034003,-0.016836843394898885,-0.0068985022353269575,-0.012863470604929775,-0.020834540892236127,-0.006131781801379505,-0.0022338848478170186,0.0030442170268822634,-0.002191645320397798
-0.0014640949302338652,0.008709383912648602,0.0041274194959711194,-0.003739701960834534,-0.00019311489480859103,0.002973624734995687,0.012959010613286586,0.011036521978710405,-0.0012796372756484862,0.010380308405987842
0.019329652705630737,0.012198130904399005,-0.0011006698971724204,-0.026872918499910615,-0.005106990063765558,0.0031163282741116533,-0.00931753005164742,-0.006593510398940266,-0.005292641136286821,-0.01162479934850155
-0.046293533875735426,-0.09042060548508744,0.09298626807032075,-0.1865566455243025,-0.032538961574929096,0.14824940710489076,-0.049613578292295256,0.44792324085622015,-0.33975978688983455,0.06326262586108232
-0.12164601148657189,-0.023739463449575938,-0.008354491712799629,0.5364643481350906,-0.33475058790455026,-0.01523856754624087,-0.05884536379944909,0.7960536495665709,-0.5572462169934338,-0.23457554107485717
0.08743047978236552,-0.5148312759583077,0.0016957045979711972,0.43098968109324076,-0.09884777810368148,0.08403843521552086,-0.2739648585668254,0.7256695862646357,0.06965946186065881,-0.503923317341323
-0.1867761803324507,-0.5447560591552515,0.22466226574097486,0.14166455821725552,0.12915327865706977,0.2629466075594483,0.13129864231684263,0.17116352496055023,0.14459705905389483,-0.4984017582779773
0.11503778241667556,-0.4778834305180004,0.1149538551681502,-0.17002062241556318,0.21310400184302036,-0.2583300391034806,-0.07389852029157704,0.45937262903332815,0.03641987953535184,0.037344702097614195
-0.030587397378011798,-0.4417188676671797,0.10763195618963217,0.24961883031122412,-0.2396402268227039,0.09558878553754711,0.050432411612667004,0.31143882899838066,0.021857670724075958,-0.0642913515941153
-0.19214953838961277,0.07397771904532725,0.055720747277683814,0.204311529387868,-0.03194428500289953,-0.0780938837758145,-0.16532292372696247,0.36799329541202136,-0.08775389752233988,-0.09105499873662735
-0.12395225688767696,-0.28675379680462837,0.32008588166342083,0.1257295125113665,-0.1119441957283161,-0.1459960517351895,-0.08111728854460909,0.42632065693596904,0.040986825258970586,-0.11761861402011498
-0.04936479396419981,-0.23201229329895004,0.011195699802335334,0.06175121417446393,-0.05427094736243583,-0.0682808069316681,-0.2798335953235593,0.3240438969802654,0.10244892465928648,0.17660626335143406
-0.057427130233535816,-0.49063615086510326,0.09367208416559003,0.03691890076169693,0.004373498757254367,-0.09035011718838586,-0.20229619357748602,0.29348922462746285,0.03203645916861292,0.37079599306935945
0.0446191647612263,-0.5116079840667815,-0.10390313373922481,0.0917929373824984,-0.200225476382698,-0.0017631431188062244,-0.09250868365042483,0.30151813285233237,0.16387978452871088,0.32032988670184015
-0.18835503344141474,-0.19704803482743832,0.0898046417150145,0.18717675958783567,-0.12313672017819462,-0.21585756445908702,-0.2560233124390094,0.2900111569471183,-0.02001257348978919,0.4012266371075043
-0.11215311775982226,-0.4511326846034506,0.19450075903134606,0.23556329838483775,-0.2567665571170522,0.03986519140519267,-0.10285045858251124,-0.03459747873849532,0.05439453374075614,0.41009464730765277
0.09665078825117406,-0.23827402676865747,-0.09260852787123351,0.15220515461934547,-0.2735990718775869,0.13009563256494416,-0.2709244005767608,0.005166628588666779,0.14781159181316839,0.32628256390501864
-0.04660311251149048,-0.22639673515896655,0.15861019318342331,0.15676677260789953,-0.25829909851939586,-0.13792913667023046,-0.09840573032187386,-0.11139373505455567,0.11620461925808832,0.477185739962562
-0.1146146915312025,-0.41111990563976836,-0.21193831195930318,0.05052871106326631,-0.17128653759401696,0.013681724753286401,-0.22091374595936847,0.3094514277577941,0.10467980925671407,0.6537606591433749
-0.19584526024384455,-0.18741401857290346,-0.019383233269798718,0.1675571658952758,-0.319113126064695,0.10153091522605454,0.040299360192592164,0.25677762816765415,0.015465214499087167,0.16899736973260845
-0.016198873186886134,-0.31061865585768084,-0.06949203094944059,0.07363546257384207,-0.08619094495193276,0.0033760954813309846,0.005257580290804376,0.1922982349873928,0.039727597022080556,0.1597954876427322
-0.07536168123280422,-0.28684273354184536,-0.04044369336496406,-0.1887521617110571,-0.0005953457848536708,0.0647802688574008,-0.048360544542089066,0.29069666336292505,0.10584157011389701,0.1991464572140158
0.08059883626651856,-0.26011246313846187,-0.19985565207663136,-0.017584256997918303,0.07202514413064505,0.22317019090443063,0.02105128774058132,0.1488332384038391,0.006910565387327724,0.005341997132133994
-0.15882021521758344,-0.296681714821647,-0.19934498525263086,-0.039597300413090224,0.14263218698089908,0.25397203170827815,-0.03878553386250398,0.3590465689065559,-0.11634351302370162,0.1076580263101605
-0.38345017491233524,-0.27161986952910194,-0.3096467070039016,0.017156056223871112,0.2262487155257161,0.46821251736373415,-0.20183648209639934,0.251734358881493,0.17757384030005513,0.05019337634204288
-0.25715910714116974,-0.2262701993765133,-0.48606460444453947,0.133925032978901,0.38489226462329573,0.18347746973744844,0.08559399854129664,0.08327394752128461,-0.03211846332095864,0.09876656704097977
-0.4323914053959509,-0.40040203637484173,-0.5131844422568987,-0.2017425838389833,0.8891142662336375,0.479788206154809,0.03036379071228088,0.08715806799395313,0.009759155125508342,0.009969105151711979
0.0018272497529048467,0.006833084878406008,-0.01818163561479075,-0.010482455703455669,-0.015048400782985319,-0.0014581970946927997,0.0016925537831453121,0.011265581837535425,0.015705366385941378,-0.0022884082505406317
0.0031011955146620406,0.02383986234323813,0.00853964801445868,-0.0218195046102248,0.017102582209469874,-0.0015708550425866524,0.011341999943242087,0.0021449025300534423,-0.004793822603521006,-0.002004857404240419
-0.0014313734876233194,-0.006763856255127821,-0.018613378468828476,0.012591360980214593,-0.005266732817354398,0.0021971788509807305,0.006391235421360819,0.0005970385243239427,0.005599091485706884,0.011616490184263835
-0.0025448230379953936,-0.013416469351028765,0.008108624787636071,0.0002890334533575577,0.005066956529924079,0.005394290569544202,-0.002873311580312159,0.006120569431873414,0.005556351016454094,-0.0042660571771661075
-0.04320535316313387,-0.19717297318294244,-0.05104160590050102,-0.42186695125266627,-0.07325530769955561,-0.1788313232081722,0.08927016685361763,0.4598525855207509,0.018814376847780773,0.3972830617612361
0.10069289015754364,-0.05097374906329451,0.03987616630821809,0.026914220186102605,0.20860277426912235,-0.2468814645912452,-0.41389909652794016,0.37196898928486516,-0.00505453431078471,-0.04729626901529495
-0.31719940388144807,-0.44674627077484846,0.08002728218731592,0.05377575495151443,0.2589917128694182,0.246454930273131,-0.0602483456647623,0.2565552318780829,0.22178971363612823,-0.3142940869450954
-0.11383251311742443,-0.4224300520729037,0.1768276427671853,0.22254463436946245,-0.0016891224446598143,-0.1257850654177859,-0.0813858980082977,0.2957405824496319,0.0012498986798646654,0.03773278347407637
-0.0632467014401394,-0.5442339418990371,0.370310885491287,0.159247105245294,0.1213365026041581,-0.009379559558336154,-0.3291918373654995,0.31904935478204344,0.006950746656900883,-0.0276598271641746
-0.17228575715564762,-0.05637962844868593,0.13406043248731916,-0.07183546119841128,-0.2604808297721422,0.04037742091147902,0.017039719821414813,0.32153678264998314,-0.059906049977821445,0.08778549788793567
-0.009195233550836488,-0.30755081949561985,-0.1730452846181541,0.26670767165130316,0.1694690215886418,0.15311603530254497,-0.746294252491061,0.36623564374206813,0.20176761917899125,0.11843590127782491
-0.011861019674823154,-0.5288937266465865,0.21108649924996306,0.29302713235584055,-0.05748261584501354,0.015340451071909941,-0.04134340000941437,0.26926120388080377,-0.13648567085371538,-0.018971522611391997
-0.19756903071410759,-0.07112787135209833,0.013295511340886608,0.13975006326931042,-0.17555815606539565,0.005952082005244311,-0.24356869061582978,0.509113934090368,-0.03847087265489214,0.03450580064883122
0.23132792217293038,-0.18213623634314866,0.1765518549400585,0.21321965988788016,-0.11378399833055154,0.000667851972050244,-0.44186899029350896,0.17614015281847797,-0.0003733815562700942,-0.019983163429085307
0.07220262572397358,-0.5318206946803345,0.09584768631867889,0.36401181684180894,-0.27605388347474247,-0.058309111652777475,-0.1996706457359917,0.29192882776556406,0.0527779004781019,0.20997227268192087
-0.06379496340580766,-0.27718953695176995,-0.21498720335376953,0.3287811862433931,-0.2099162184249046,-0.08850648126119931,-0.35392709687231255,0.3484564637301111,0.19747894662621635,0.29362962767995876
-0.05505569138120993,-0.29111267148472486,0.025458823355449234,0.262263425150895,-0.1828044673058096,0.004866310790662284,-0.4622006493165488,0.04914663544934243,0.11529045340522946,0.48078820924512466
0.035733067912259164,-0.42107515696237746,0.0007008440466682661,-0.15618592854696337,-0.18172328848373423,-0.09707631726747187,-0.2379601846857262,0.40849881096360535,0.0644024293891555,0.5893285132467212
0.009068742061571922,-0.29606558994008525,-0.03677679073077421,0.2524247272099505,-0.39666535428967575,-0.038800793190067115,-0.22284638180902125,0.21045554308442602,0.09559371449222587,0.4301090484290604
0.012032347497685315,-0.317324845768685,0.049456789910741615,0.06096699928990147,-0.16885660486279322,0.0708072405892432,-0.3397879776731812,0.2974499520431666,-0.04890848549531921,0.3930404984432928
0.2138496398255886,-0.41695211769205126,0.0115311608406109,-0.07220070526137494,-0.045776335725115115,0.08638993687020763,-0.25920578140632466,0.3004521170190077,0.1293967912863207,0.08612230166488602
-0.026849948065558824,-0.12711729301663033,-0.029634107504846408,-0.10224483654510555,-0.07686025344428507,0.16087263029253684,-0.14545023562805237,0.14553800421413488,-0.014797529757464739,0.23005348603328857
-0.04286932702905636,0.05188410946680315,0.07831000536715763,0.018676603988079913,-0.11728787782794371,0.25308425590643396,-0.0075363737015454735,-0.05255917836751221,-0.011634562383115924,-0.21995184457006237
-0.0385298221183256,-0.14129172212136606,-0.10891736855945476,0.06842661436294928,0.018182506645510584,0.1690648505893659,-0.12611496527391747,0.2368913026019345,-0.06230374444765448,-0.003515170034293917
-0.1668362491840687,0.01660543659105409,-0.12066086877237528,0.06322181521359059,0.056037777821152344,0.09720313899770182,-0.22897630581041414,0.312122506856985,0.006846423758293395,0.019544856215915226
-0.043649677358776784,-0.1026023351092318,-0.407504789278333,-0.07572574448665605,0.3609457397163348,0.0901678427917706,-0.1268403100774333,0.2513308766828265,-0.19094190049481952,0.2585115204360513
-0.1379422642743317,-0.15404128255423946,-0.4615998237851244,-0.31419719982030453,0.4369139214520481,0.19235655444138308,-0.02299005748760396,0.4507462638842108,-0.08647835488847144,0.1139889900154048
-0.2407670164921354,-0.9145069399955418,-0.4129652135197683,0.2147001132318006,0.485210596777431,0.5587037508881239,-0.10862362182535612,-0.01085230052832745,0.17824799499038174,0.2560021847754955
-0.0443450512164243,-0.08032717130050086,-0.1305294948514673,-0.11811312771133285,0.18909946623120616,0.2600654739885507,-0.012937650945141025,-0.02491063386489272,-0.03378733756429288,0.005296057137373898
-0.008495112723085101,-0.00943260203915654,0.020331332251135096,0.010504010919611591,-0.0033053529041091735,6.518593105619385e-05,0.00796384961532185,-0.008460338550058386,0.012158400418709612,-0.0175118459541887
-0.0064495304975266616,-0.052057826936194804,0.12755212447675768,-0.02251420065215583,-0.0035226467834126615,-0.05016146846523997,0.007015521215129263,-0.003598637653413924,0.014106310977248852,0.009834612242061367
-0.012096267317522872,-0.053416125796270295,0.1158428188245013,-0.025933104374340047,0.013212439337988057,-0.05814965601741335,-0.006207508471758778,0.007151304085260844,-0.01428246354583224,-0.007108804081570796
-0.2734634142852714,-0.17985903342030982,0.2777984899155368,0.21576537208371532,-0.07448151365121324,-0.10128899622639424,-0.11499734452084075,0.35878565639107945,-0.14215132423342955,0.022067718101006772
-0.23244448337835505,-0.38291356394770587,0.19775348162426315,0.137027349252239,0.22237948983220027,-0.0266637568051129,0.14729064916016668,0.6705460477292448,0.17475359367001814,-0.9153728377605724
0.25197654559107585,-0.7191036272363864,0.16794887194608057,0.37952667707340515,0.007251361863247814,-0.11438445900392097,-0.29802673700179105,-0.11199196838641783,0.18394281285504469,0.2302209568783197
-0.2784330069788729,-0.3333990912512413,-0.1394129492622682,0.3256827679052991,0.07404019948885265,0.07963938325770502,-0.6314020828090211,0.6398538418567103,0.12331427119391365,0.19499640377526323
0.00024449664276181705,-0.5867297536662657,0.26878745534105514,0.15590582816817547,0.015174581449872727,-0.03431395139970937,-0.08544960146548929,0.16710487579336092,0.01282202092003629,0.06135728329771865
-0.08351741458134307,0.06684435763160942,0.14764834719339975,0.0796570143525468,0.017574951565224112,-0.07013687775725226,-0.4603063327953281,0.26587927339049766,-0.014279728017494246,0.0163555199229858
-0.07242307060821056,-0.1797581091427992,-0.14382174054709385,0.27229567180718534,-0.18650153847610906,0.10369706480307335,-0.195007832692825,0.22912759030293572,0.06731770908542206,0.06938265295513298
0.059827058663378056,-0.1048403136180598,0.06986086028870778,0.04499508534731241,-0.017980490380015982,0.0009254436616058691,-0.44886719893132243,0.41848566890845834,-0.00838342221645671,0.02919283935369424
-0.2468959338384036,-0.08902040299468499,0.040711857681998316,0.19141428714369282,-0.21208943813016898,0.046741430253085414,-0.08146969683259699,0.43095447861509123,-0.11263240183437374,0.014316167252150335
-0.025976730203687813,-0.07730649273614877,0.05847591714879617,0.2233743965614942,-0.047998890155110815,0.04952446261021742,-0.27504806723591163,0.12348925115579243,-0.0758665071177356,0.06456712234329111
-0.11353742088101385,-0.06641562395122175,-0.0015149125332013496,0.11835234735617467,-0.25366326683260854,-0.028232892620235244,-0.30914420324255,0.4147036646315036,0.07551016023136115,0.16927644982046838
0.03145529326369405,-0.3244266022316904,0.09212071999823054,0.28475941491502993,-0.20966974583341813,-0.08114279042645434,-0.17733465548903737,0.17189679117407683,0.0403168894595612,0.1678913142235228
-0.25246838102796204,0.010433337728375385,-0.09663387032867733,-0.03057263699837143,-0.14500947849146847,-0.11821725269811227,-0.21751235619403053,0.3820942310703946,0.0845888949794255,0.3552379659443084
-0.03334017806635277,-0.31742315637088964,-0.16357860927101844,0.07751270789333727,-0.06505909625917805,0.01124037527735125,-0.2664328645469628,0.41409661760287914,0.1002719810737209,0.23371339614008915
0.16688383081399102,-0.14972410654938884,-0.008260493319774366,-0.02352469873706315,-0.22039034261698834,-0.04972106358235581,-0.13876011184715956,0.2711154960404786,-0.024315702386662995,0.16749556211042146
-0.029613450417905463,-0.09704566942137925,0.01886129410097104,0.20827268682467093,-0.145281563905674,0.08167096163953044,-0.052171432582410804,0.07214357642806608,-0.024626243559810662,-0.06775000124444723
0.049135753724770984,-0.1805584040465717,0.04783486343689207,-0.08008137027620883,-0.0811863009908192,0.14812843024092567,-0.18591352250907003,0.19469312372012929,-0.0011712950282179373,0.06265576030807535
-0.12191012666625328,-0.09015925450017812,-0.12658552596695655,0.04040044349782038,0.03893322323462021,-0.004497393553714817,-0.10877274311174667,0.19380917857422286,0.07232746447310723,0.09894176760828197
-0.007662833883500113,-0.4191531392672253,-0.14538844736006237,-0.017438731659739953,0.10124892164886115,9.070684719370589e-05,-0.11724766871282369,0.2765161273076396,0.1370615624541265,0.14887190293204122
-0.1344620332792206,-0.19911351890322546,-0.04122615653064641,0.12869057704218367,-0.03684407390417295,0.1874149931430973,-0.4103527078989772,0.2687693000879667,0.10558924581355503,0.15087660512307147
-0.007586252353633196,-0.02265679895993679,-0.2799030509825387,-0.025595787180320604,-0.0014778691931947288,0.1618335454342618,0.013353716746539476,-0.1505132064827035,0.22397820328103207,0.09790576480037388
-0.00897164530677779,0.1529192677391539,0.02113003737254839,0.06426836676686808,0.0923497632715899,0.1758030511372475,-0.4537968053175852,0.0602402461707164,0.042076009468378264,-0.15047924940743299
-0.2555068061887303,-0.12772898196751753,-0.38754403648832325,0.1237867734083293,0.11415352909635007,0.16910084583272675,-0.09348385988438174,0.28913965044262896,-0.06601991182978759,0.24924429361351988
-0.10444129819157195,-1.4665072722481995,0.08711182449117412,0.649995966475663,0.24630584002951283,0.39458728323551123,-0.6105086729378139,0.10146089654520397,0.497486241783939,0.18854449658494143
0.08445219989409503,-0.14523183991494348,0.034836655430849385,-0.1128958162251402,0.1332678027456995,0.15821455662020992,-0.005682169750570019,-0.03535680805007347,-0.06243831312606256,-0.0009652473650702607
-0.02197959314038928,0.014741955162267959,-0.009018621289833712,0.01278083274996147,-0.0024347021679268434,0.02110889957355595,0.014887996935539003,-0.027591735334367425,0.011533265099843483,0.002199167903390653
-0.01682710517582743,-0.04486689767907314,0.11746487026892054,-0.01288351942742148,-0.01320744905724243,-0.051134989725093935,0.005274877953445606,0.004590171761388588,0.002276013143696954,0.0035849582054392794
-0.025009243628456277,-0.03609059309884041,0.11234735227503476,-0.12765524138960457,0.141926228702252,-0.05415044521666768,0.008550826609610537,-0.00323391006475647,-0.030412517857648563,-0.007950734699366411
0.6065886420844074,-0.442016138818186,-0.26265868084068833,-0.21578128340480085,0.4440722006070703,-0.39299281562143634,0.07442997677964468,0.4234831025449859,0.11797299849141468,-0.3999524862783506
0.15033284827828408,-0.41655413939600183,0.07628144760853546,0.00486563720296439,-0.1862771444148972,0.05843528112898385,-0.1110573387322802,0.592284029409501,0.14390914196264412,-0.3153852670169064
0.15998368056816423,-0.33103456298272466,0.0911975118778477,-0.10058920817343646,0.20701912583851956,0.09022053794653319,-0.5306273375515389,0.12833802140785025,0.12977528115233478,0.1395573047262384
-0.18124871395148573,0.11936509333407418,-0.24586802693756676,-0.10720832920166833,0.2772051689138639,0.24577219015467117,-0.22050018838275015,-0.006357668565269849,0.21491030507152525,-0.15090771624859411
-0.2570039571138433,-0.3199785041115573,-0.10351658603760025,0.19185968658513616,0.04125485125697252,0.28195424871081415,0.05093137940239317,0.013439987718911283,0.17357417649290155,-0.05015470012670906
0.035122691588976226,-0.13434713931709014,0.10071631924746434,-0.17428260215785227,0.037600206637343946,-0.008716994734968423,-0.267502500016071,0.14622442157175478,0.12231240547531898,0.10384786515176478
0.023329810325033538,-0.11777299661582025,0.058612476201861004,0.08203202126001453,-0.024878407600732712,0.07427782375667066,-0.14356504901964828,0.052585664156056075,0.0761639755208044,-0.05512592008816322
-0.03317990787940427,-0.16051423296038453,0.2028633305958277,0.07558530846931107,-0.02973259649194441,0.09481977265237103,-0.10996627584924458,-0.012524905319630627,0.031161699478052838,-0.04308648865825291
-0.004081258384226664,-0.18712658431095344,-0.01647900664454936,0.1299074140384943,0.05537444448750268,-0.029666764376000385,-0.3548901115423219,0.38428795981612957,0.04450908197548671,-0.03720467914455195
-0.11435900772082781,-0.11386448127427112,-0.0684179434571385,0.0366387106178819,0.026751436753123574,-0.009887531610370974,-0.2928302113439942,0.4442185009697464,-0.06466773426531534,0.1418414392019943
-0.20404414925914333,0.09529034119105209,-0.2106143938200723,-0.0733010084785149,0.03751821247287676,-0.04312584369746329,-0.3254674022263156,0.5094543153943197,-0.03163036316952935,0.24133468366394958
0.000263322053565535,0.05370122848761239,-0.026812459745142365,0.20557260378010128,-0.11847041218555604,-0.15391518093809212,-0.4227188865236468,0.4114196016190113,-0.030754035204221774,0.06502129978036049
-0.020834192798421924,-0.23524864685694163,0.05463343409325443,0.23918559452039231,-0.23821229587361595,-0.07998534587584315,-0.05433011797031682,0.15931579752688765,0.02112362047854077,0.14986657571479386
0.07121476698328576,-0.034047632710231895,-0.10042088196750251,0.04782042662234208,-0.04646688047852651,-0.002521517351946869,-0.4007187470995618,0.3197682329407511,-0.024005291843068648,0.15749037682918257
0.077846753512264,-0.17500905089805005,-0.10275571148687251,-0.0623563753782128,0.06295759799763165,0.04016275302699723,-0.24870647653912414,0.11947032302589103,0.04427453775881506,0.1919795636311915
0.017583640677974008,-0.16289091788085902,-0.05656565177184603,0.043762949938278874,0.03201250015379288,-0.045821181281440096,-0.1963971543708839,0.22928747100585245,-0.01159533957642652,0.10561937358052752
-0.06105141396086238,-0.13550374492206893,-0.12670643209778668,0.14609039074558883,0.11545113452092973,0.05270255843297408,-0.3449253661570834,0.2549524607977214,0.03673568885745735,0.04516439334616097
0.22901558254430485,-0.062093868293972836,-0.16439384149210637,-0.1596060974186358,0.19536075944585635,-0.03575605642747583,-0.3502457630869665,0.20084968258717123,0.054773529075300934,0.08539741182293163
0.06533289249454013,0.061452360668021754,-0.1473363952658669,0.10523076902253,0.05523660853396884,0.06481812619408994,-0.36345832611874723,0.13405508548050213,0.035680537283164254,-0.011486783478282291
-0.01233940863409179,-0.1314526010620839,-0.11476735335448555,-0.028000867343291134,0.18074145225006924,0.14685464481351254,-0.3981366991882383,0.24417145857400263,0.07148523247440587,0.0987109992412389
-0.19692807857470473,-0.14878243151003978,0.02986052770580214,0.007682041982845668,-0.01751202265974302,0.14519700942989353,0.025946958269913348,0.2231190151960674,-0.06050934520115231,0.030187407828762444
-0.020445080222704817,-0.28681784973407554,-0.05649809909660729,0.3733772698677269,-0.1825473751747842,0.05168877566834216,0.03020707369791853,0.15179358001642468,-0.14373109732397946,0.07990165253293299
0.20587134240286115,-0.123058545321711,-0.0958513919560601,-0.11253429859980446,0.1440345437360971,0.4244792523041792,-0.32058797628632185,-0.04292179033579095,0.10231791451357802,-0.18403036586635632
-0.22804751856182828,-1.7734009071012715,-0.18216724470708717,0.47494907316487983,-0.03808214519998153,0.35427070420776935,-0.11420995999526132,0.47533850184647114,0.36670896952429416,0.640121603696868
-0.06318470286395736,-0.01802381842082141,-0.03608594571557189,-0.11155702841449433,-0.026867233427819607,0.01273991470404168,-0.003848021637633996,-0.024458817561695125,0.24429130092549514,-0.02161400749114456
0.0044911357018006266,0.005526845185528788,0.0077640838075658004,-0.00825685331679554,-0.009071931792307239,-0.0062357202177746734,-0.0018991548171009146,-0.010603138865075863,-0.008667319890004225,0.004408150224508931
0.008080671767377898,-0.0598188922773655,0.10788665588716147,-0.0009261758814487834,-0.018135309485595615,-0.05965509881544944,0.01193517120478853,-0.020642153724146448,0.00034409107509440247,-0.00679922980714918
0.008865447364164022,-0.0497580054094559,0.16090577235899134,-0.14126953115690638,0.13221397170650062,-0.12878933228975128,-0.04828758584207228,0.10343058312507122,-0.022663252922903197,-0.010798173558890612
-0.10309682888776396,-0.7060293540333972,0.6024782263015602,0.5424157344132915,-0.10959001108271721,-0.1763129006576049,0.009354700986168682,-0.0510298853790508,0.19292487804678818,-0.1709952829139475
-0.12947356798479492,-0.8338230853591742,0.32741098481622394,0.0606468265172016,0.029829928133883802,-0.1103084508929607,-0.1559306525054528,0.015766383667789204,0.3478422904180024,0.46856668367884335
0.32006980180751354,-0.5380470428802236,0.1410952169516794,-0.1507619129446805,-0.041612688094431596,-0.05834592021804477,-0.18691595944219677,0.16716630891994907,0.16623665360625434,0.14488261932771823
-0.19755922556125907,0.23519183943007638,-0.019213586442670932,0.01350204372075461,-0.13848175842427723,-0.23220727529842178,0.03424418164007943,0.07718327232087593,0.12131377507202822,0.13966081485770265
0.39073963550368046,-0.09148451395343737,0.13882238925354812,-0.19514425270204774,-0.10757556276610089,-0.019359846965222777,-0.18592548256378522,-0.10868680106891941,0.15154517327142494,-0.04363433101948063
-0.08866653096065913,-0.3621382401841718,0.1869620464297144,0.12326534898005322,-0.04643105399185904,0.058016581827771196,-0.22317238797781103,-0.019239948708300418,0.1471130764285644,0.20133906251641576
-0.10609234848581549,-0.3538719462768558,0.1337021078981804,-0.04200309774783726,0.19600342665683967,-0.06141334902756236,-0.015855363045484325,-0.04874613088379277,0.15909664045625985,0.10466386403405079
0.10612963726037317,-0.16921389128817652,-0.05827035886362482,0.03723038328888112,-0.02040978810258144,-0.01316948008445206,-0.30967489602101494,0.042133921727364736,0.2590572263988278,0.1205466810234407
0.0007688046840461205,-0.051724545623010605,-0.03984809648166306,0.018805749292461597,-0.1595362473624367,0.01231104314549953,-0.07167580925035635,0.13022620722372286,0.009935393381282518,0.14012285265882068
-0.00529248746453533,-0.21211497968616247,0.087757163559237,0.027247244790971237,-0.12913806608408596,0.015132056684886205,-0.135357695777131,0.3143685175062092,-0.011301507148902806,0.0820450341766312
0.11398022932653162,-0.09100810229239957,0.12981731850311998,0.22125612483900806,-0.13708353488006794,-0.07705196815239576,-0.30046949138021056,0.31630402311461464,-0.10389246878580932,-0.07271221166073932
-0.03524508194627795,-0.13777476578099504,0.09665020615650635,0.10610536478300955,-0.26206746650903795,0.01215147173741503,-0.3930094032973758,0.5147395490515144,-0.09933146884740282,0.16388716405010623
0.11622003122745254,-0.001758537860351332,-0.06639392119475038,0.30625974384944865,-0.4349191369130287,-0.1666348714740786,-0.07982139819407401,0.5711081037441287,-0.19760006487037657,-0.041970119123855745
0.04343664549230092,-0.3123307542041677,0.1706739647388821,0.1539623474696926,-0.11766715972271749,-0.13103387466658825,-0.21808808484187794,0.35701266415172134,0.02055124259467105,0.08257372063735142
0.1199994406013626,0.030136954490233937,-0.12262141997042258,0.161587799122834,0.05043648342500281,-0.11557128039488329,-0.4849304730537493,0.23816818128858852,0.0443918621872886,0.055876877364555384
0.24647702217038828,-0.1589006187328416,-0.0802244213603018,-0.0025024689557440385,-0.19765096528824985,-0.013060381438651656,-0.00721079052023278,0.12670374933819725,0.06252313189036231,0.010089989118321124
-0.04395271480285591,-0.08758161924609445,-0.10012648391413433,-0.07261461085034894,0.07659773651553183,-0.1378926461979535,-0.0693832554162824,0.30878041114410965,0.015799966923052317,0.11033707722482945
0.033175178468876576,-0.08676238003028271,-0.22028315148627514,0.145568551731797,-0.0276375535027279,0.07516522718056139,-0.24806545747025935,0.21391530709555528,-0.006435322721184628,0.10387389511430564
-0.08054073172531058,0.018329925532278437,-0.15538888748930194,0.0470542431687189,-0.1509036063906792,-0.007168094057611356,-0.05953412031228648,0.201166702017151,-0.0025226275070480897,0.1762009497942793
-0.05030254185517555,-0.21003496208866698,-0.17164309233045968,0.3017535783642959,-0.09768523263783957,0.24696853720047224,-0.15572382573592308,0.10117612133812065,0.03123034319059229,-0.038255817439732866
0.04796617289163874,-0.024132313000100318,-0.19177925649751149,0.15607736840438832,0.06032373212273162,0.043059071363590905,-0.5113718833204225,0.30584366938388385,-0.14945893545029618,0.24765303572761965
-0.2291200408622633,-0.025258897941546555,-0.15879652313058829,0.13194502659356086,0.20980545603978062,0.2107169218190007,-0.42008693318394075,0.2949562449547818,0.05231782507941208,-0.018950305077138418
-0.12123935903344148,-0.2364993952663487,-0.06641584845796228,0.6875700099590136,-0.45720299252880997,0.5594690607733381,-0.6492550351007383,0.34431724114435863,-0.006702222811999531,0.0033402898785941534
0.2695858699459531,-1.4530015235547487,-0.14271533265480096,0.06689806854734412,-0.30695419121404593,0.7280984975432425,-0.04097514915146259,-0.011995143226920017,0.5027892646789671,0.3768506336186709
-0.10591902614297012,-0.12106193711117198,-0.051333746687858964,-0.09822595928843529,-0.12798293493871413,0.19719528409551296,0.0163393931535895,0.012408180880369943,0.2904605455192328,-0.00800020749105913
-0.009534153399030618,-0.013134432983984062,0.009298178393753862,-0.010706112415287255,-0.0025777877707164657,0.01419435168065882,-0.0010703686573101199,0.008978258838399238,-0.011150993427288175,-0.009998908264811477
0.007606089704910633,-0.04681264722867153,0.1149187928157671,-0.0023393684626150063,0.008311593986131577,-0.05646291306185804,-0.03061831172388785,-0.00495931435129817,-0.010485898567032751,-0.0030976637953287656
-0.019389928450006602,-0.015069257027953184,0.17537556562183207,-0.13098506741858987,0.2229008433760829,-0.1542606255165473,-0.005366404016285559,0.010456108443563454,-0.09967755538216708,0.005352574527608801
0.19253853580748906,-0.465152686956864,0.1357976562489501,0.3976199784647827,-0.42229312986998296,0.05728221764905366,-0.036795696802117,-0.015494286796996328,0.278917097855084,-0.13969302860342553
-0.10614563638829691,-0.48274152721266916,0.38613980002723786,0.6090320489292935,-0.5797043501679681,0.3517587262443133,-0.1865759705886887,0.175239554499867,0.23164566606877593,-0.41092588292194615
0.07089921800830877,-0.33561174658984755,0.11564950895252209,0.182103710876866,0.056481072986895045,0.10179060065173617,-0.3820100648905891,-0.2498242419647882,0.35288484258514047,0.12094914897155373
-0.119739598161881,0.021935481087990604,0.37381491159453983,-0.21625025820902957,-0.10153578763080268,-0.1261314180563601,-0.2998473861564177,0.023781698397602954,0.11198952790250062,0.3222417568973914
-0.4335439601846421,-0.5984471941884568,0.0643237633092191,0.06812805565422253,0.12580620063762485,-0.1309925694654563,0.00824766167637017,0.2866357518001779,0.22821506173290756,0.39848081616918596
-0.015772247805442854,0.2038797473741691,0.024848953198299703,-0.11246872156044598,-0.10486548382861556,-0.05725572336386185,-0.2505636862423869,0.03394685873359642,0.15635090335795473,0.13862845266005075
-0.1396490506009807,0.08900561277168766,-0.05930939025895465,-0.11661108519350588,0.02249316215094796,0.19992201972163606,-0.32910597081328247,-0.1067728652670874,0.18973469068884238,0.2848253548131661
-0.10197815993644133,0.049905043834252184,-0.03091927756186845,-0.1630083787521906,0.08977040149812798,-0.044986208536237686,-0.3740168385332592,0.18653311195525518,0.14583226637921134,0.272056563192917
0.14945479235027706,-0.08147063486091682,0.08494323639670102,-0.34390455431776024,-0.10200818237256445,0.10453033671637914,-0.2882836788764017,0.09070219767909195,0.1848064285926106,0.2106355279323787
0.0008809325367662769,0.17589803082619856,-0.06637197628008078,-0.028034561659001034,-0.19164259050723192,0.07281891598838496,-0.4232960737859947,0.16343554068805927,0.10283930953734118,0.17356905426613226
0.26069961472043646,-0.047372751744879635,0.043241183722683554,-0.16976766461756096,-0.32225148882450205,-0.017723552795115897,-0.1222190058453463,0.2197143168622862,0.09072651590188875,0.06267729528873285
0.24309139077859798,-0.04471150369966703,0.07741004166430974,0.07996863537016372,-0.41377708461640095,0.07349473398488945,-0.3086825881817733,0.13114546889685516,-0.06690389692219446,0.17168870448263443
0.28693527802510305,0.0016977976505843954,0.005339247840480944,0.21143482715555642,-0.5847751076958325,-0.05527762068472801,-0.07254451031153486,0.19134561400400663,-0.11633703850860941,0.10769187740365614
0.06898994724652142,-0.012800400676822931,-0.003059333840503927,0.23974325606235986,-0.10192626920054128,-0.18056675933630248,-0.1473583871366131,0.12770165720327123,-0.1120248767709253,0.06122290239802587
0.29577480298561104,-0.018488877460694133,-0.08273578023015474,0.1908275625045996,-0.0803636356580712,-0.20993690778365284,-0.2657141953535065,0.3024555718486321,-0.19268407401768542,0.11418253638580018
0.019530000441257783,0.0357620798212962,-0.040406887578365594,0.19073335877781059,0.054906012299575445,-0.31454687276764004,-0.619125394777903,0.4527395551286588,-0.06476999399656833,0.3001559257400371
0.21132925317837858,-0.15939900983062766,-0.09767963763870903,0.18966455157561493,-0.014349961788857533,-0.1834517598383249,-0.34994349189972485,0.20281214756957067,0.07221840839166954,0.09555345391090093
0.17560290071356888,-0.06635149547853468,0.18201596688573463,0.20554760686616821,-0.1773730013373192,-0.261380035653428,-0.37188324919269317,0.08938242611794063,0.09306617602892046,0.09529385655840963
0.2539784278189249,-0.01716415060388361,-0.03632771144957202,0.21665678784057804,-0.2204931996147154,-0.155652314460185,-0.38614905140054,0.16873574430987884,0.09158371400842641,0.08904149908200903
-0.0417733203508581,0.019481078644571305,-0.006308980045281874,0.2498886865930052,-0.08910724758394367,0.014046505631420432,-0.6852752721852762,0.19831292896144134,0.07465810653771499,0.2436407328532649
-0.061252426721930237,0.13837851772818693,-0.13391915473119795,0.20961529076655092,-0.0881702966805386,0.16548544976904833,-0.6940467462561263,-0.014859935276121533,0.24556727101370013,0.25308869439253884
0.1943977463748968,0.09728574855590226,-0.01860500376898309,0.4705142837569094,-0.41909435827383185,0.38358360349277926,-1.4014350084262868,-0.045529770837100365,0.18344559810582375,0.5164618225587909
-0.12084964044202323,-0.5311969236081394,0.06199870096191624,0.5617008412521174,-0.3618778297310439,0.9413057428880239,-0.814564663607389,0.011163674753569214,0.016638191456490994,0.2150752213045585
0.2380837620151135,-0.8759678543791803,0.22875943940381993,1.0122001713700244,-1.3076082248562062,1.0183387428530724,-0.3773762413950552,-0.1688486741273975,0.29447936524600443,-0.014690004305992118
-0.05241780054841882,-0.02788967850056885,0.07064885231725501,0.019626664800252106,-0.14467382064082124,0.26137359356860546,0.00316028436532703,0.0024998997669794464,-0.07301091161978292,-0.03192509696246538
-0.0053616187785600015,-0.0068120765591923385,-0.0032289898107548893,0.0024973245483113013,0.011664458240428069,-0.007784334098310973,0.012042975624731818,-0.002851989302767462,0.0037996689303961178,-0.004619378254675008
-0.024161161841324212,-0.04456854512327272,0.1327116872981409,-0.013518853681166437,0.004869852955498951,-0.06467165901028983,0.006527418620553894,0.019509185092583425,-0.0005371720518685695,0.013838451082987037
-0.002447197397326029,-0.10912583968000758,0.10890220753198433,-0.16891567283466186,0.26726126646697784,-0.1507063964564112,-0.028551984480653242,0.17426989050141095,-0.023245788421378356,-0.0921279371279406
-0.38278032615717833,-0.11069166871406329,0.21680378456801214,0.8721604615574594,-0.6223557821141471,0.11069074417442837,-0.10686402447309257,-0.6103429865138017,0.5067246217605526,0.10977447595871126
-0.06581503038877799,-0.14170139298726936,0.12247473783780245,-0.043861968374270276,-0.44111530818723493,0.36634631114422106,-0.1374355243900038,-0.10163674358448363,0.11168115999646296,0.33093411412396134
-0.20332481802174293,-0.3060781978775494,0.30702547810171926,-0.23433789986347298,-0.3912455565728182,0.2546996446118153,-0.038939436885037995,0.2582656815843939,0.1437589138354725,0.23557692860647234
0.15816908607809588,0.1369101726876317,-0.06735576381742152,0.1514994602772632,-0.09726275314662107,0.29828363954313786,-0.7402663505966368,-0.09369382896250143,0.2685673614140341,0.025076788600803927
0.03364618097395974,-0.1042249518491105,0.1961320067582258,-0.05869773114197846,-0.07845508865903145,0.30303334748778743,-0.34259422475013684,-0.06333210736806925,0.1972176465363403,0.002695421888304942
-0.04680876036843057,0.1626730881431321,-0.053519671398966115,-0.24948204994194295,-0.10670927472784154,0.16031942856206968,-0.5098987685750265,0.19646709879802546,0.1945822646470411,0.2508998192373289
0.09264750709143965,-0.06704122039903886,0.006615728287659531,-0.3157925332757791,-0.1245297631727142,0.11722239383777522,0.030369665266305097,-0.023801770989657803,0.20408879171326946,0.05186323657999893
-0.11370000274960913,-0.2100355750302188,-0.092195283222059,-0.3028238111418018,0.16367102455612445,0.23481616034055686,-0.016480313539549298,-0.06361482977444369,0.1425789227302583,0.27456864425343935
-0.043718008794934836,-0.3136369123988999,0.16647230800265972,-0.31121883350764806,0.14012204179596124,0.21263627532126356,-0.18999690926341978,-0.0011987172655227112,0.14507963138619998,0.18549564063334817
-0.06595186735609523,-0.06386692680181244,-0.088956865879451,-0.3221187958331918,0.24454068139706672,0.2371190525920654,-0.08455932320363198,-0.22123898916314744,0.1945631762715933,0.14594660999577125
-0.17111898868686418,-0.11274368409536972,-0.02448176048743868,-0.08421356780629743,0.01817844896203315,0.26979250819374895,0.11242223876880297,-0.39200865814428165,0.24259924636789928,0.11070286556873384
-0.08459920555973348,0.1962667533009354,0.02807663300582252,-0.014501476814473665,-0.15849916802527061,0.19756319579237624,-0.19699422799419097,-0.2371166292582681,0.121090660433746,0.12473656970491842
0.006071723404118551,0.19851629798162654,-0.289426007264113,0.1354566619935986,-0.05169568468400702,-0.013510478880315086,-0.244817332570274,-0.11033815656219867,0.07282016797757491,0.2931999291740686
0.0133380606130409,0.08052359190536873,-0.03747249469959637,0.15942810623828788,0.0072931954706363265,-0.06099334869371343,-0.2281252736593319,0.10721442867503427,-0.1008046143468327,0.08429186522230339
0.024003610201477704,0.0887806036005779,-0.031878028283430664,0.0970028325102364,0.11534096041468457,-0.16297787753625342,-0.2349047083293937,0.12037799571924068,-0.18031868989438501,0.14771053067338102
0.12820751267757347,-0.24749553476749298,-0.11559742478209403,0.1301496352714675,-0.010115955410355499,-0.07636089949001651,-0.2515593656372392,0.17257704035766266,0.042839738390427456,0.22417166793255014
0.009818400593663512,-0.04708301589280169,-0.0911844675063304,0.08854404689874373,0.03684758590416037,-0.15870762328420995,-0.5569941246087448,0.3336776860853191,0.07756612049814353,0.2878738351034332
0.1259942998193234,-0.17507409990046127,-0.05403890152917959,0.2227271768126883,0.025909538524977085,-0.24715212233472117,-0.37714567804778476,0.2824371445799494,-0.03390056320146554,0.23232236769333592
0.12285166370870211,-0.14457839094801356,0.18943042970040155,0.19672545126500854,-0.007105380239348402,-0.2856027777184665,-0.48750191573538126,0.07718149049834183,0.08850931737403549,0.2246067880364202
0.22205129661393877,-0.2139744870086712,0.12079220197840508,0.2552276637881556,-0.00873469037238164,-0.35458893976368433,-0.5056617185966098,0.16950126266605323,0.1092767370524911,0.2438095065616185
0.2522617785115014,0.05074972296353608,-0.0578001476696681,0.10081314859966808,-0.16463591166674685,-0.3633182394384301,-0.38699898157346385,0.21386944248498266,0.11833442084093808,0.23184655423521341
0.0007613754505996186,-0.3511986177392508,-0.006846013818053627,0.3497694190562705,-0.10428207889842907,0.10306136728660335,-0.6458015998876322,0.2055890019121047,0.09088484771004327,0.37245235132182813
0.20811823103366295,-0.7331305256534469,-0.04107984001813107,0.5237582172860362,-0.2626956719190521,0.9322938166135618,-0.8219666096492388,-0.18755721842936823,0.21558611131297517,0.17720216906739716
0.028796102017473728,-0.5108824650030516,-0.18286149779665098,0.5197013215050524,-1.2215680738819796,2.426486712163975,-0.7848425047997012,-0.38468182383504906,-0.18347435812944088,0.33551412238428274
-0.19726733936149765,-0.05269781336506919,0.007638565303529941,-0.023219249695382513,-0.20099136922121602,0.3883545032487526,-0.0010366008391107275,0.15731076594036636,-0.04947382121435414,-0.024664049982146222
-0.008672522707546303,0.004519986290205935,0.0059958113334255625,-0.006631286595460983,-0.017633800881000212,0.0523459639765452,-0.004815063194776887,-0.0034773144756584553,-0.006227430560842673,0.0011808727382546082
0.000779346430007229,0.014784900754272181,0.010622273328493366,0.004986575083154465,0.016165861378127137,0.006929247381267695,0.013986432816710396,0.007004219318013063,-0.000722220623755279,0.010650566664143282
-0.012985287413294702,-0.201563972462434,0.11784108177703086,-0.19686799666810834,0.11844999895972216,0.0804493137776066,-0.013974245731245704,-0.01248481439744765,0.13813458790060168,-0.004600684991013092
-0.22336008387169495,-0.2932424341170267,0.7029704350961524,-0.05394975788021003,-0.4102394241641805,0.2182380432792321,-0.18491210262880026,-0.17518039092508134,0.38195870369604523,0.02420190611432331
0.1695068645761108,-0.5762198229040523,0.7473211620111037,-0.12606261392029933,-0.2075487763377897,-0.030590637085718034,-0.04333727424105553,0.0567970772692245,0.3200212722664469,-0.3462817263547035
-0.3009238465949712,-0.46835357919271886,0.09620462123384138,-0.45253483480103357,0.3204517634149757,0.022455637836965827,0.1914980692308328,-0.058524716466843284,0.2844267576148843,0.3805090933519567
-0.013327840633168775,0.3011740358992508,0.3021546349448071,-0.6420538890314291,-0.02125492690089858,0.15150704874438092,0.07992328984670818,-0.07317046865002445,0.008020514196941497,-0.06932876717761986
-0.05542574077391911,0.011228526093187264,0.050777270334740526,-0.4428774459205826,0.06130963798386099,0.2574291517666888,-0.15612862488619203,-0.03358505513050424,0.1572984858370221,0.1965031945666212
-0.017083930126507052,-0.2027800936232428,0.057294324485624826,-0.3199430968910731,0.14449350983189088,0.08630098268810688,-0.08488754337127785,0.11804109257410057,0.1243318965144548,0.09542370871097412
0.1690255673348933,-0.5942160990076897,0.04794945523912822,-0.3520726022269376,0.15148124982191305,0.20142082881147375,-0.1777950007542074,0.22404494053822177,0.06958292283549931,0.27877932430931585
0.14833547051169108,-0.348403153959501,-0.059684112780514005,-0.12488311452576842,0.15185927838074093,0.05147677821439273,-0.012088050312390117,-0.05026815059668456,0.07802548062196332,0.12430430628350643
-0.014698801945753088,-0.23269877955756546,0.010729955852059193,-0.20489369502843296,0.22811021910741752,0.08272402450701241,0.011722744712946764,0.034994704723079306,0.00041382757129205085,0.040766694314911686
0.19805083985614313,-0.17909911551661908,-0.07955746683332615,-0.1398899231920863,0.1609145234534388,0.17007017287435383,-0.12662252772438404,-0.21114142579439932,0.1545156532970374,0.01988914823312744
0.11319149250535317,0.0797123948808711,-0.15270381185095364,-0.23642769157538177,0.45478791476162683,0.20704907462833905,-0.09468446369976372,-0.6698700510402145,0.22302327241765543,0.07418188749182086
0.008845561241082925,0.08335661768159634,-0.11430964987326214,0.06094466298308426,0.19412895166612837,0.15587846447592466,-0.32393628840338956,-0.513990511003399,0.2369121343638777,0.21799269684881933
0.05435136798891562,0.03733082720060092,-0.1352145739932411,0.07953545586771997,0.025328255366766673,0.012872153053047371,-0.19381648241145175,-0.21478633307011027,0.09399243674825611,0.23659019108473886
0.1332599378630101,0.024094966714320404,-0.0928113206634125,0.24877840828685957,-0.0011497483171602116,-0.10743421503836544,-0.3205209214365483,0.10151129229361203,-0.010736701487628453,0.05383662443997403
-0.009587697576024486,-0.048140052323679454,0.08749312927181774,0.054825585283826916,-0.0078205902743388,-0.1969405608373527,-0.088188990634796,0.06271246751209957,-0.0014009024089674657,0.1869900759905069
0.14060746945862593,0.04322935977524646,-0.09858873564689843,0.09004237774449518,0.004088519053731356,-0.27337544865242674,-0.36538939655715225,0.2965481696452105,-0.09493246471755568,0.2650366609492654
0.09950864300775086,-0.01331915391520717,-0.037190386835083536,-0.01996236722598291,-0.014141256740813363,-0.19093257415818587,-0.3811467712785888,0.21501399400995927,0.03432523140155194,0.31809842060238774
0.08740518551914253,0.1480091121869984,-0.18972507679275633,0.07426501919848161,0.08804401790210004,-0.17917625680968313,-0.39451436698019665,0.033119504556357926,0.0815145162523742,0.24267509373365292
0.049599088535155544,0.03547728816599915,0.0023332750877864436,0.1750645300573873,-0.08997782733822092,-0.2786525482722635,-0.40241865804773685,0.1710574873409991,0.12371680264272902,0.24482675084202413
0.23993023804115982,-0.24965347063813553,-0.06679785387961032,-0.05667696197620567,0.01789612924316242,-0.415367409532577,-0.23614590191163057,0.3547918425619857,0.07424477340473876,0.27774010605209176
0.23499573599716192,-0.05032085705418934,0.3346253653773581,0.104407904949811,0.1842178681119961,-0.8692388578521009,-0.1836785925326875,0.064968762261128,0.14297782822472074,0.0389144709996976
0.18807141387661702,-0.13620479014225345,-0.13502110545075485,0.10269109654355676,-0.052170989752755394,-1.3558525820288008,0.4095221355151521,0.7178588775583217,-0.067794869446141,0.39049481321735185
0.15868005145576042,-0.6178805534525695,0.0507199009641859,0.27343572167564234,-0.2580307242883331,-0.6077592555106854,0.02850580299792935,0.06575787320038126,0.3006039949344179,0.5869083381867304
0.20706346967399766,-0.27034039595953147,-0.22321340992469313,-0.11040216043529158,-0.3887730669175507,0.380256557182319,-0.1317539642453775,-0.07986007775499672,0.4134361405370821,0.13696859285529453
-0.045048678975879185,-0.02262211479275503,0.15833557652513333,-0.005813043620972319,-0.20407424819988812,0.1605653859951452,-0.008776810835703844,0.006748225557439094,-0.011816328384859489,-0.046583275583374835
0.013111510515005422,-0.01007246445282019,-0.0004637941517907773,-0.0056919715016737395,-0.008366059831156795,0.02158943803171983,-0.0073292475881998765,0.0006961561574988983,-0.01091303546664593,-0.0028704375516508556
0.007874918615315593,-0.0007214574829073417,0.004355835389424948,0.0009066365307262315,0.00045387320556085657,0.005820910191769878,-0.0047570513191892835,0.009125812021736145,-0.00043178982969880453,0.004913695372158761
-0.018680124336625612,-0.05195352593403951,0.2534292093925415,-0.19049345715414684,-0.07984961790246813,0.12749395583965348,-0.0008934640959087272,0.0020399837406216356,-0.020940794728257998,-0.00271224003108718
0.05499001136601134,-0.3627129723398311,0.5251595608159797,-0.36456152888533044,-0.114493520468463,0.14850277420708197,-0.20767622157309618,0.002766343761726133,0.1491263106262568,0.17557366331570273
0.12005642052738158,-0.5277469180792089,0.7423553839132297,-0.5608781581968704,0.1477029330043598,-0.022930822626748292,0.1883186770652663,-0.21745282781216138,0.30293550501793975,-0.1422683831570721
0.34011969490549554,-0.19241001715533543,0.30731723667343275,-0.45328219407314985,-0.023265605368399996,0.1375709532465887,-0.057469670167712025,0.00605239417943665,0.08293583224318549,-0.1722420206414659
-0.01181826626626258,-0.10924672193665066,-0.28615205943180616,-0.26634629202911003,0.28957791942070726,-0.03209117103972641,0.19117804203225436,0.188284962138428,0.07384438637882186,0.01706153806638705
0.06429830906027645,-0.6843533556885645,-0.027698562147959155,-0.3790047505166404,0.42682835837617383,0.04719794428926801,0.28697211245140114,0.08956916297368443,0.06621401979396052,0.10856882655535814
-0.04611478256298994,0.08278761258383471,-0.3805526425468987,-0.5061080972564019,0.40325857782719027,0.13565481517659483,0.2009983690124122,-0.05349893579788928,-0.02698685126658538,0.16472433254863628
0.03091696461140846,-0.22802803249553166,-0.49706295774084625,-0.13140027343377586,0.25414902748754997,0.13451891292175072,0.013803201271991682,0.03647083562082265,0.1380830592199894,0.2653921430834712
0.03572465651764425,-0.1938471860412277,-0.09223581475921658,-0.06646521721186262,0.24969990173056328,0.07264989494997598,0.019227054519468885,-0.09632520470858447,0.07805182233210774,-0.024878601860014643
0.03537353339897894,-0.25458172751124347,-0.4854735147378759,0.05912734366205102,0.3011740045105833,0.17790367577925553,-0.12292551096463368,-0.01596947481044851,0.25425399544381017,0.11788647869953667
0.08545000410683687,-0.06943771543819137,-0.3747589249667865,0.0131424559769874,0.445212519830523,0.12708557800941034,0.02329372602215113,-0.35745012620365085,0.1254169858557224,-0.05037715013492407
-0.10472298572993936,0.060968283447464196,-0.37920850566358694,0.02793883360378259,0.22991000112471274,0.21290623505063053,0.34186230608592644,-0.5840257198199649,0.1794036912430569,0.01086539798401242
-0.21954674200499594,0.09097217437344866,-0.36637267569506166,0.05154002669358996,0.2092968440281004,0.06809219205724953,-0.12187846245608068,-0.22997352987012595,0.23428370509036112,0.317426924092953
-0.2607459830533456,0.3075360296805482,-0.43715967370964504,0.022811614491736635,0.23974663309694177,-0.06086558337169189,-0.0978166631115273,-0.08174287099277452,0.2084826187907344,0.11950123898262356
-0.04392638938270111,-0.03430603414766799,-0.2123161382876244,0.21733487672059676,0.07306335412780843,-0.1175618066006555,-0.11792865780830555,0.07723941342952706,0.031016381338238797,0.15639129881739564
0.022686480795602797,0.04578889134546973,-0.3621427745331276,0.12439253337438458,0.23669921716538428,-0.16298552337599065,-0.3372289794335106,0.23282143716511747,0.1208704603630939,0.10995612962823684
-0.0018411086528561888,-0.008933710425279512,-0.03456536779363486,0.12402897593383638,0.12341381242853594,-0.09149817548503782,-0.17274589966870027,-0.16814895378481573,0.15660358157335322,0.07061281144451434
0.027154480089195025,-0.07434216839377654,-0.2175805554838979,0.15188431029505708,0.24401117636780795,-0.21211404505207151,-0.21924457557276822,0.011057763310862686,0.0647497652126307,0.25448423177463764
0.0551244952200797,0.12227784630003825,-0.18427676788082856,-0.04236075193095991,0.10673785275638542,-0.3270898307542382,-0.1835539343857084,0.21416546804911385,0.09373824129693956,0.11816553637318628
0.07670971596723514,-0.0680326904804171,-0.02522504075133247,-0.04784967538773536,0.1896921632524182,-0.3252579579541518,-0.09047281687720667,0.11449480667845997,0.03620572808732985,0.15185109127292498
0.15732318940430406,-0.08821451114556357,0.1386254059881715,0.104788212527503,0.08096473343864727,-0.47615761042913013,-0.15941373344005327,-0.010807762007537206,0.09955233345710482,0.13335166932242712
-0.15796539158383543,0.2639825320493607,-0.025444574795595518,-0.05188669788248924,0.12076224046336963,-0.8384215167215086,-0.395612700587632,0.48267190064535526,0.15572892974944866,0.41224682518176003
0.24336071185195698,-0.12238850628396979,0.10240626757914105,-0.33326927960987796,0.5339397042262012,-1.986798248663375,0.2314162730234889,0.3638237663130619,0.498507005552333,0.4618985999060861
0.4531258047117805,-0.3942323614084334,0.5218782304981897,0.04198947913280755,0.06139571002381371,-3.432355160170358,0.7991537999657683,0.8912584749994041,0.350817096299958,0.6885432475473703
0.5612185494995066,-0.06654105350709602,0.601215349331714,-0.21620111914351214,-0.26982313707533445,-2.298055787588768,0.49383857050775376,1.142729380869526,-0.06756456179767438,0.11607153530929523
-0.010488827654181031,0.0022069959952557713,0.1317153691027803,-0.006698669850439563,-0.18739840669053653,0.05308788152193038,-0.008892568416123577,-0.00473189992262023,-0.01287684073996456,-0.0008985538673129401
0.010034306300752381,-0.010218386413640361,0.013101127098752526,0.005481195245458759,0.0038776175149831805,0.005414939854500996,-0.0055399558698126595,0.017876870625817127,0.020292423287312466,0.001855455968826833
0.002506088572315712,-0.00360150717822465,0.011653024906087885,-0.013703053317630146,-0.02470733195878614,-0.004765863095480061,0.005598111127354595,-0.019735830910744503,-0.009437589609660324,-0.00835646508252952
-0.03674090026362726,-0.027599523313501694,-0.012407503696130293,0.012800453873600374,-0.021202360463637368,-0.03809000169480121,0.011240435958642932,-0.00278779459981769,0.13920459585240702,-0.010514324295884689
0.20113246990210415,-0.2967864128180397,0.040708024810385476,-0.6409972752947845,0.27842405970451467,0.04134404668089006,0.4465463900758281,-0.3548941976091119,0.5455036358406207,-0.25663557018752137
0.5525176206674205,-0.5593331010140387,-0.6970533331651894,-0.343393330450912,0.27506769942617865,0.36966419062433664,0.7974323434917066,-0.260491123365561,-0.15162387325458437,-0.023764551212097963
-0.14480177593337948,-0.1859418912713425,-0.9713767222214095,0.14214801542243952,0.5071114459846181,0.21333660465703047,0.007985588584385934,-0.11519293056445051,0.10040380142033656,0.3873061235899993
0.2195472765003125,-0.23957439732618527,-0.6948758797398539,-0.03986902682985572,0.2662394377008301,0.29124861511178674,0.020998264852024977,-0.021966860941867943,-0.054617607193631054,0.2804395895697999
0.1575759168601329,0.12572540549433436,-0.8109464218693291,-0.0055030526394387455,0.18200559518200296,0.20038411839503356,0.38767056489188706,-0.15779466804220244,-0.05239466155386128,-0.026373542822583168
0.22519613928421095,-0.28995149945461274,-0.6012627069695686,0.08072948412899768,0.35456034556159827,0.08432016558752953,0.10495909517811777,-0.09232891299857489,-0.00941377996589914,0.1517293041421292
0.005397167547049626,-0.265614494623192,-0.663698554292851,0.27984294441834884,0.28948884782597784,0.009159996231704893,0.02598589750115154,0.06990615094890594,0.021256420625937206,0.20866624769230055
-0.05540757228431258,0.08659777090755545,-0.6766835989892591,-0.0692486383419546,0.4459193278238497,0.2209781169221669,-0.050485829816932476,-0.10453227887192386,0.08433453327462523,0.11164658151438196
-0.05611904887151695,-0.04588856227927828,-0.45950848318086657,-0.15858343711954098,0.3967746654777979,0.031023775632527922,-0.03817367218505304,0.008641993079318589,0.026074674748536423,0.2788765553212392
0.05933538675046011,-0.053010870469874245,-0.04954234316322513,0.07618308078821612,0.28821204108525117,0.06984342487597779,0.14994650813823884,-0.6571063846277113,0.13732996479938867,-0.049201231135266386
-0.034915643451189846,-0.20223039567469878,-0.33264283710306175,0.13840138681892045,0.10679742693552012,0.08206450830715753,0.16353411700944903,-0.18392691818141144,0.182190598189621,0.049743090567778786
-0.04587474926239664,0.32337791485414447,-0.2426012483659265,-0.06516432914344703,0.18763279707365962,0.048063860321485415,-0.18812934176011184,-0.33442120195843417,0.16216424355869502,0.14946701482362024
-0.24752469121829704,0.12152051981683637,-0.24066505275400388,0.1253133713204341,0.11738370785258197,-0.05540369716075418,-0.06843067341492759,-0.07140481542492172,0.1480277486028566,0.15888807261763618
-0.16034420426732163,-0.0667526819755382,-0.22195041511938488,0.18137552640430438,-0.02462139272901177,-0.04588955199975744,0.09785454654534669,0.02298771831191054,0.08604841517521693,0.15965879335694977
-0.2751163869818329,0.018795257136895116,-0.28310243028173304,0.15938575869951854,0.266025636793108,-0.014658628177021668,-0.3898318358772303,0.007774475734226632,0.07953736664821759,0.4161717417865305
-0.12094013788984154,0.04765339100610154,-0.1367302020616188,0.22920317040148833,0.013947832226675234,-0.08409109961836099,-0.13298444183001085,-0.0060030494549943554,0.07009833470457066,0.09414053145076176
-0.2949689196576781,-0.08186491213116767,-0.08691291230962998,0.1505411756512343,0.1994339663105543,-0.1360693367918324,-0.35743148992458496,0.3887736946026305,-0.08102041726366974,0.29642346396843167
0.07719970802734391,-0.053034817542502756,-0.23950716423128784,0.21140151788502037,0.11632188666904028,0.03494470894380193,-0.17770036954787174,0.11773987132111761,-0.1126138389991371,0.03196734682843238
0.05578293528957937,-0.24080051692150592,-0.16380869747043464,0.14738796682789626,0.10013524145892731,-0.07240667923111321,-0.4150592200796906,0.28272165810039296,0.09518345196299037,0.20914653356927732
0.1845814847744416,-0.43205909938337145,-0.18768774265525257,-0.028257282766109903,0.178292848797958,0.07323537191239421,-0.03584510195134545,0.03946056983447678,0.13574021017135326,0.10696515035229252
0.31536498397911683,0.07516192580607767,-0.0883684769021376,-0.19991735698585564,-0.07637724680265007,-0.10731623882448585,0.020948959300274156,0.22735379901508787,-0.18056297112488234,0.02052752481920416
0.22633067329129905,-0.04769691588450291,-0.27386989690022107,-0.4142838282747755,-0.0860730460352492,-0.35527166968406715,0.02488464175390815,0.7121463635653974,0.03197866668143778,0.15417885502048112
0.3962832755074214,-0.1754766392169758,0.46082772590557586,-0.8699666208064118,0.2849080724572749,-1.5814542992821532,0.6175368275816656,0.18550869443246676,0.06686980285710249,0.5902736284006659
0.3903924471335653,-0.07903745083681668,0.01098156105566873,-0.7172846219532438,0.28094086862094597,-2.039335943473369,0.7687490302856551,1.13470784954434,0.19447212877868236,0.0898566234685575
-0.036207462186768985,-0.016288769904795494,0.3491244167704986,0.0010305921046837524,-0.2311846228443798,-0.005132136268515516,-0.0795842928816513,-0.00923991970576306,-0.011335790131937706,-0.009538035536309011
-0.009746983455785665,-0.007737911964583058,-0.00243514581790343,0.021597883273957813,0.0030316818062546763,-0.004958660972010694,0.004232105663952786,-0.00997444073614431,-0.008525907551877139,-0.016907722241996544
-0.009147217848577293,0.009104166968506605,0.011547722189405944,0.012224071468470932,0.013982110665986132,-0.003533309933599718,-0.013181304849156692,-0.0037730079954446495,-0.0005478882054283873,-0.014112936527316386
-0.03531601716655781,-0.03790628517869392,-0.012857697622090988,0.002012361034419277,-0.014591555947256439,-0.020467282644133437,0.0033131214442629927,-0.009704684523426602,0.11618871527456602,-0.01634225649004453
0.3359920723872734,-0.2231792191492013,-0.8194258956424028,-0.11304757837594205,0.5783599217227537,0.27049112897028876,0.04247366645709123,-0.4619488408721715,0.2077733411836517,0.1455468447348509
0.22591536895365502,-0.3399334434348037,-1.4052581602379373,0.05938506975158051,0.32308395003029555,0.4040518508693451,0.40340514396160865,0.276307470974782,-0.11955601050694196,0.21198057370970316
0.5032856739997414,0.04664794031339438,-1.2161908246846929,-0.23886901008961173,0.36291450732324615,0.21266609698342775,0.5109734777202658,0.14487007333999352,-0.31964002789826057,0.016769075271310573
0.2391543323303905,0.16942987512192573,-1.0826714369872699,0.002979436559771641,0.38461880941535925,0.1537271846300381,0.11494125825524229,-0.00811742854422741,-0.028122553575607005,0.12044955789825554
0.2678458630561296,0.058663544948430964,-0.6600452707668419,0.21753124857128348,0.24200726889605081,0.07061826549680984,-0.07519585002351416,0.0200611764463712,-0.1761028051892009,0.02611406357398865
0.048149478557010614,-0.0190633206042934,-0.3718059261642247,0.035662178205623556,0.2279991685042743,0.07206392136855998,0.022901065890853313,0.03480350685614606,-0.13923257994269025,0.036592013319807035
0.01681194700553361,-0.19533020617221786,-0.10437489695902814,-0.1745326911574079,0.22853863943217384,0.09452363528098776,0.14934898970426078,-0.06371671272779053,-0.012405338585918245,0.052328807857796894
0.036597691444088136,-0.14362358165708325,-0.05462264430554557,-0.1755166335389234,0.07073578030253336,0.018554140138963404,0.2099107346407377,-0.09361757978396258,0.06700467989311851,0.04915090733513668
0.12472129263886643,-0.14411882363778677,-0.3184494838628347,0.013828591591311468,0.3475504694690493,0.07032115046476382,-0.03643195566634527,-0.31952094966143846,0.2111754091844334,0.035813660631111154
0.2183016873831314,-0.09492299108060755,-0.1521050000131137,-0.007323337698907117,0.014569574414306488,0.18925747670599644,0.09449611756837481,-0.4920875298812665,0.1545918596383297,0.03354191733900015
-0.016096295908318396,0.08289443326153845,-0.03894368649378185,0.1631095293539802,-0.003498393668564707,0.029863024212774515,-0.06268093997933726,-0.11808032928203009,0.14774445766457603,-0.13060477658233813
-0.11880727508778957,-0.11070189037928735,-0.16892153916092514,0.07948208931709903,0.16928579569136198,0.01401173860288061,0.13493503893561873,-0.26915243359285995,0.3050332756079145,-0.01484772636504398
-0.13775888504859543,0.02181937666117862,0.05711400849174741,0.16332657940133818,0.10499264371432454,0.005122980880358396,-0.2362113117962246,-0.25038750846090346,0.13733735109623124,0.14312657655164146
-0.287567582611149,0.05219252558467087,-0.21819753960123514,0.42642265794097556,0.15603210698080805,-0.1811976717626047,-0.17485677638355707,0.040499463394790845,0.09352338272443314,0.07852382610059898
-0.0757197254626495,0.02223695543302718,-0.08667519030162624,-0.054313454149197964,0.1448274503387549,-0.08882830401266745,-0.12577517261171597,0.0651925661870507,0.0554621966114824,0.12703600746193838
-0.05775718078958252,0.00723516106656698,-0.24332978243800849,-0.05484674230439362,0.1904104722724738,-0.17229654243642678,-0.11218474755487826,0.25307263581798034,0.017965092509917093,0.1360830064274085
0.04306437781995884,-0.11211585026485371,-0.16401770074377534,0.06804423529511028,0.11290094335796624,-0.1410225906186982,-0.09355948865997178,0.09371115961428331,0.06429014949836709,0.1573302471815292
0.006035483031978707,0.12633948150032648,-0.12572222777369021,-0.06533102594806094,0.17373908799127144,-0.1802682793409855,-0.179128880586561,0.21500108012081745,-0.1150876580804203,0.09627055705099694
0.08452591292234461,0.1250314801102927,-0.17601533018279716,-0.17410432784921184,0.24159220956604718,-0.07298723195232638,-0.13953791129147192,0.2604038180747095,-0.2483171365547222,0.09758550974017516
0.06624475410809613,0.009273852461947741,0.08558040929774535,-0.09843162179359906,-0.04244732013317853,-0.10908347119304801,0.17346018384763523,0.24539678529880513,-0.22302143448177927,-0.0409465833240611
0.27315780767317926,-0.25491333664222887,-0.32852457529469675,-0.28180777199926355,0.1396352161228231,0.14310933148009827,0.20612280594501126,0.09582990043851011,-0.03258194934265895,0.0513741540052957
0.30775059471796706,0.08786888771464661,-0.07418798608630693,-0.06280952209370533,-0.014339102095541734,0.2453377930391663,0.3750536543937387,-0.049746063665822834,-0.43241752654664917,-0.36296270688334104
0.5204551493998005,-0.25858987593931865,-0.08930643323354845,-0.4739074322402294,-0.47472402940406633,0.20682802790809596,0.29576883563999357,0.14276701191218427,-0.07098974557525675,0.23515579566239073
0.6145638532740282,-0.27456605717555616,0.1705600611443245,-0.2649056667974522,-0.10170082769805304,-0.16629033596808207,0.15627822353421789,0.09963709986240443,-0.3787346924950165,0.08879932024799773
-0.005184315089016677,-0.10501501864759559,0.50915272742082,-0.020658125996578767,-0.3732960608183433,-0.01714485355696691,-0.011463627993074257,-0.004577940829476092,0.001910802137317031,-0.0005368024685212315
-0.012645546046237011,-0.0018481418896051942,0.0020356562847602218,-0.005333957127491126,0.0023652375325091584,0.003829094916460253,-0.010341835584264438,0.010325512291698643,-0.0029102665094947323,-0.0007936521610779457
-0.015062090582216674,0.020323454636515734,0.007477414033763559,-0.0051631234101173545,0.004920118108479294,-0.010865849003857158,0.009386497893086083,0.002349095616766556,0.001999234464030371,0.019248139854354602
-0.022472141920387247,-0.059432538387522015,0.024350270953660692,0.014897482888537235,-0.036490453849624335,0.105103866462828,-0.01648406550267846,-0.0003759921381853072,-0.011912153698746356,-0.013354481342595422
0.24847810702731218,-0.2535700625144399,-1.5660195359072617,0.31621246129606734,0.26988842780084954,0.4715514635865976,0.2748392990305229,-0.06949050228143153,-0.07481862642799185,0.3778312277581925
0.04148579756536935,-0.3230126893517457,-1.123193338786272,0.4894748392969601,0.30833076096578554,-0.011933969990146974,0.07839797449920619,0.6001072369359627,-0.6897498660681369,0.6040033619349051
0.2427775500472578,-0.2960758550783885,-0.5250354120704991,0.039706914390481275,0.24515126417853314,-0.03384126408820134,-0.22346951415847746,0.1617091227538605,0.20298134116673056,0.22183563758105465
0.15925974155364098,-0.042447788990390735,-0.0842144909906897,-0.0974436276082764,0.01681252547445183,-0.15163290394997075,0.28260824568957327,0.14062225102439993,-0.30113883030053923,0.10165079962888018
0.030983074283098877,-0.07500056280555138,-0.2814715894425732,-0.24432145883807693,0.47118616447002654,0.04088119538492517,0.04841814847044671,-0.1197205540759258,0.053343522282928775,0.08926605580616732
0.2798206897220009,-0.23025855111184448,-0.11694054618038745,-0.08008443739022435,0.03982889910550145,0.06898036401874749,0.27449030532265456,-0.22106939651530963,-0.04948755031414999,0.06489418570502772
0.1120174051541783,-0.16850231748034575,0.015766113547560592,-0.14305869942449456,0.06540215133185771,0.19717400303584418,0.09255111130285311,-0.14932355896160532,0.04143237911208172,-0.08578862622676783
0.21717197077555842,-0.2740925524065754,-0.16735691305407238,0.09796995107503295,0.20589942735156105,0.007394097769141566,0.18664187664029566,-0.3568308923744095,-0.03192829687570249,0.10739729235543463
0.30043510517453476,0.07029885118579356,-0.06062953679049445,-0.02465177073885714,0.09334913562888103,0.19276967086092686,0.18887674021162312,-0.7436609612052534,0.12925086999271784,-0.14512544897632676
-0.1578449200814372,-0.010281540239570433,0.1054894319392399,-0.09998970904892975,0.11684850909872276,-0.0694829036924993,-0.22116269542282996,0.15172410619501614,0.06475136847202881,0.08063212833652506
-0.14698799537611792,0.1845669680275741,-0.25095485437922105,-0.022014823274396793,0.04271000999780428,0.19238328866325013,0.0669573233420167,-0.22387620881174897,0.22626947855290858,-0.0519828708553282
-0.3527435218744598,-0.17180501599986558,-0.02436378743259837,0.1434410792603599,0.1291045299789341,0.07527265038582995,-0.05212223883111307,-0.10198019871319057,0.20442234398738798,0.17886313937643522
-0.7463491797260383,-0.004192303138096115,0.08648620477076707,0.03717130321321366,0.23947147193303042,-0.12453352571419382,0.01787044187482144,0.09651364321875086,0.1485023466021499,0.2127711704459707
-0.2711280429919138,0.12180821159304056,-0.03494206794948785,0.07431300903685281,0.022915136886434963,-0.09449568899497766,-0.05954980349748336,-0.08340744170308959,0.09812917197628666,0.15334676418290943
-0.008240375332479637,-0.044441947125267625,-0.004980462556275181,-0.024466829204113444,0.2742989039052375,-0.23932492492778157,-0.08686248324662338,-0.05644656963352327,-0.01364467772273536,0.17073930287956332
-0.3272880753910983,-0.14564789207816697,-0.1420247466155397,-0.0203674637909429,0.29790418216141784,0.005483248235399613,-0.032657526856874036,0.08097381228561497,0.11476363150480619,0.11743368442559689
0.08357272436458892,-0.322764358347006,-0.05542476488709939,0.04128627256806932,0.32349860509988443,-0.12399937089469837,-0.20402752159876467,0.18783085890924892,-0.017462424253145738,0.09634129807496233
0.18839599005389998,-0.0978319378308843,-0.1204338143573146,0.06507871282160292,-0.026813295154266704,0.025385157385505695,0.07020006888529348,0.10869903343835882,-0.17032736939253448,-0.033261379231456764
0.18952905769811612,-0.13115421449139605,-0.052246909942000555,-0.019488709160005387,0.12473188372920885,-0.005408514366232975,0.3212929956447245,0.10716009404121031,-0.20353485882342237,-0.317019737851938
0.05869805110565543,-0.2726061728766915,-0.08364384223040054,-0.12962785623859047,-0.11286875898141925,0.11179710353266835,0.18073366006558247,0.11585338488206917,0.04187010056711857,0.10428631060580869
0.14562693218691142,-0.30545391072342004,0.038067974380853443,0.17220655779080113,0.14957871015136096,-0.008671157377642359,0.22778684402099142,0.14571511887992009,-0.4208974634684131,-0.14903225465984382
0.15448238165489278,-0.1962961491144551,0.0608344880996153,-0.11033097961331885,0.04050075019034618,0.2619821844261008,0.132704191253356,0.05972514092892931,-0.40658978735906565,0.01706264228338341
0.0770275691806443,-0.23011373279709302,0.04396787733138742,0.47065092459136454,0.35656637515599904,0.4230714958663428,0.4316117137609393,-0.4952819658716523,-0.46523619652059406,-0.6390134875104165
-0.13679766487135941,-0.25134792186121657,0.34311128967552784,0.21223412405147649,-0.17980714420813404,0.0537242255821344,0.4985318714549126,0.14835808498876663,-0.34242446656199654,-0.35364110728696774
0.01931035658604961,-0.013668017379767038,0.13203139815389872,0.03350769753368068,0.029316064581203706,-0.1715119196438644,-0.02187523015765583,0.0012346849700268889,0.014286015358768767,-0.041247256234232046
0.0039658166180192465,0.005951746063844514,0.00543182421313015,-0.01205801387370696,-0.0034718920268162323,0.010940978698516209,0.006746832729618973,0.0027924269612668094,-0.0035079015915302275,0.0011573863338216468
0.014595964843490279,0.007010864571860899,-0.12164330932886802,0.009712157037600914,0.13954384449505985,-0.002318300212374064,-0.011984351035711813,0.013975906855723533,-0.028335999696111922,0.02608417848241376
-0.12774532474899802,-0.05814218573988893,0.15698713043652798,0.03419606495022129,-0.342099698351126,0.2666781680300254,-0.019884066597016137,0.16600390993911357,-0.04497340690732989,-0.03878052727502681
0.435459525570841,-0.4455311657929231,-0.5670311057731562,0.6093617393659909,0.37570998095653557,-0.1302231848673362,0.24498144256448512,-0.17543699159131218,-0.1557424591884362,-0.14302435555031462
0.39055898172409276,-0.3948914020585597,0.059342673713564525,-0.03273237319245284,0.000833027939669148,0.2095100914918913,0.3420889324414351,0.04899509320789573,-0.0727992896991278,-0.5278781017469341
0.35152581521756,-0.26459355552534175,0.35729774295391525,-0.48729205440076756,0.17428946290510716,-0.21372691110595635,0.4658718072209756,-0.03893528792751231,0.028224370998057968,-0.3281808489248058
0.09714761174127655,-0.1961439045591314,0.26275453192962583,-0.22901557593662858,0.19287131298128393,-0.029763019848058944,0.3357631378899892,-0.42335605101203005,0.12649864329911834,-0.130225251927249
0.21617926602482804,-0.28637288779975756,0.35720873440811723,-0.16823288633703973,0.08398316674291202,0.0192094431341988,0.11090503733422988,-0.1444167091694848,0.06519824682007705,-0.2608976989017931
0.22626737463960056,-0.13621880606916295,0.04428538103855203,-0.13427494696520936,-0.20817350939018656,-0.07360978633913366,0.3139916910621181,-0.1297107992805897,0.11229766736604005,-0.04121714387826599
0.16527701536816222,-0.22306735023039959,0.01974941438945996,-0.21384604537980795,0.333208373193693,0.026349944667589106,0.19255952907332527,-0.39693223636144176,0.046408992819654084,0.03209679812492529
0.18857819103806428,-0.19296778435502115,0.07847446634838132,0.15943990253624876,-0.11252358398212702,-0.010701763771584634,-0.002739815391557915,-0.16729229529227296,0.07841610586977238,-0.00820602912588947
-0.17067312852218003,-0.03099869807920923,0.19015930318909277,-0.29036693885207365,0.22280890899049866,-0.0381764191774638,0.17517524804744689,-0.11073669705984435,0.01665111894113569,0.009455165701642971
-0.055554403682312396,0.008345716063861273,0.15768419531653377,-0.007081924014639005,-0.017750673667194256,-0.10654704510808947,0.06900576917585262,-0.1009397086643972,0.11723718538998945,-0.0839885361919274
0.2765362483655111,-0.08763936959785676,-0.054998038683893725,-0.017644190882031913,0.030579750726600664,-0.13311962858425713,0.05544326795666879,-0.09759662730453658,0.15839237620357738,-0.09392951342565282
-0.09990578557894723,0.11488980747718357,0.18172117309172486,0.19570835740859943,-0.062447300765663065,-0.17507345933107904,0.06545603270035567,-0.18485099662262963,0.13000634590311352,-0.11974490013858077
-0.5969276690433185,0.13093691676721864,-0.09820564756337219,-0.014506255123781973,0.35270423932991674,-0.04735852740203369,0.017012494123152047,0.04002756882562745,0.0041406364958756535,0.17824902396150932
-0.23139921843737304,-0.008296753258596868,0.0570673497915049,0.10593370360480361,0.13294624465458083,-0.04487106217933146,0.12724536519643873,-0.10396843541546624,0.004052191755262745,-0.0338409314576438
-0.0075909643039545,0.04068969777060123,-0.003120404761743716,-0.10507012522353616,0.1439745325209207,-0.08559862907508359,0.07367469118195584,-0.116372714475241,-0.014646222542353067,0.0782679095274262
0.0035043037291164923,-0.18044755625377681,0.15410519679805657,0.08800044411258148,-0.06141719013959177,0.06352203460826918,-0.023757365502943596,-0.09544018619473656,0.020892396386747867,0.014323740568406781
0.085641540858949,0.19960525771929707,-0.0791698690892166,-0.13586758559796538,0.20741012255391894,-0.1125935091830959,-0.059771237315026884,-0.014906808881035306,-0.04344258916587999,-0.04716615553602485
0.2649235403711188,-0.22150033652065698,-0.02723721510230005,0.0009630211706577454,0.019464240499958065,0.011034687792125745,-0.09315971027703936,0.12405888586284344,-0.0872758661049947,0.029329791363030367
0.13330513173000993,-0.30306201750037365,0.03294177386171841,0.02498991548087408,0.0753498130565504,0.03213962316133456,0.059476807282652755,0.15246384878687136,-0.26813832958296635,0.04585550740738295
0.19067765898956773,-0.1648589057787021,-0.096501955037111,0.14739358020280935,0.1734348091420388,0.006025689706231604,0.1564706176377619,-0.017354580171941848,-0.1223400860694082,-0.2362096579191107
0.036623479277991124,-0.2085499111409038,-0.30587902111700804,-0.09118572711770055,-0.023305696748866053,0.23246012262606908,-0.036155188531479795,0.3629139581067335,-0.03796801706682418,0.027235394510919726
0.48037218042022223,-0.3104146593953338,0.07253053622953466,0.13609771241936966,-0.08721678138518142,-0.11749716305239331,0.114815227834896,-0.12444911158865629,-0.14101092755158842,-0.033931439376911086
0.158209990260482,-0.29380054855811427,-0.3730902775997957,0.5627666826485034,-0.2536516744275927,0.06868810180212362,-0.14188324597851984,0.36935813840345755,-0.0015524083897157405,-0.12411158169779471
-0.24504461190334648,-0.17910538022524955,0.031353446490654094,0.4542918066580526,0.22915016425737408,-0.13313674669922781,-0.3030462340540906,0.360448961560713,-0.14552171239849931,-0.039193560474644805
-0.059839572102743925,-0.011995643514100271,0.24460140734312474,0.1428111695501462,-0.034763849772562784,-0.13377098805571982,-0.12846090026663184,-0.004928651654324523,-0.0023379208518569203,-0.03835130180224473
0.007425872281666761,-0.007037059474317618,0.002414216575057701,0.02398618642427769,-0.0052780943200517304,0.0029738278624844515,0.010574179409628012,0.009682699144090628,0.0010907843445100748,-0.0014024039847080757
0.007604572526705789,0.009304759188288343,-0.12437794044033018,0.014397147506522719,0.15540920592049579,0.013058107180429842,-0.0007525322841914373,0.005642195592034947,-0.02857082271759444,-0.008436879104142937
-0.16911363263891352,-0.2301881062716099,0.47676169817307495,0.057139750740642786,-0.5098891752666472,0.5790442738063137,-0.19526526749954173,-0.02001347733133934,0.05607382945840421,-0.012307773846064227
-0.019600045912005468,-0.6108788618517236,0.9286186065545815,-0.12356695400530134,0.02874509107500888,0.3533620278137276,0.2570226653740771,-0.16476276535573,-0.5020737520769677,-0.14841062875569638
0.3020747682348239,-0.4655877699157806,-0.30060770173184637,0.007180704423622653,0.11202327412340485,0.08031692929990537,0.2279158743591103,0.03070534789560424,0.16709909003585655,-0.24335991771414583
0.23872837864399077,-0.31670662765768115,0.2770840225437161,-0.19484897197489556,-0.11971701464626434,-0.10379354975897954,0.008907343088725742,-0.2357937938895617,0.08008753998749255,0.3025488375962314
0.14741313340752638,-0.3172540120071129,0.2508763229908478,-0.2493427572003335,0.260545862310202,-0.26884225363374836,0.18447427470962982,-0.08920271729892444,0.13262580709108168,-0.031017154937799288
0.3406243628361858,0.10564961780262219,0.10804160587968785,-0.2771143203681224,-0.07762784163273662,-0.2563222522624429,0.25384672928781504,-0.2900667135709896,0.02062715131501814,0.08316321495626602
0.13725902468862122,-0.14241732368889418,0.19940557132547462,-0.18017799859753683,0.391209879530363,-0.0964110224313139,0.1314168124776166,-0.42854254287238797,0.12975249222856974,-0.13222742484368485
0.1815157702347365,0.12357084764826815,0.10475005419133544,-0.26748569072508055,-0.027679257737788236,-0.23242025837665414,0.12777925782439856,-0.20045109486328055,0.08564540892606083,0.13012434753964983
0.037734363651957606,-0.11849882022175223,0.23189031010937694,-0.2573988744898533,-0.05175970156185342,-0.08108315152432746,0.2843019961702168,-0.07594243083005049,0.10399552813441827,-0.0626857700419659
0.03132182257046019,-0.08928276470191816,0.15528569649773713,-0.160606173806799,0.1122844506278471,-0.15708774698555972,0.19798586387824332,-0.20291695185637776,0.1484491488386844,-0.03392460216757217
-0.05671372423519026,-0.16085761083049194,0.14088532663181008,-0.1509059107376354,0.1156227825258348,0.028631515121755956,0.02052065303403375,-0.05590804401548188,0.1428885663589038,-0.051078811107108005
-0.14192365743573596,0.06743153061641785,0.2629275924848542,-0.1403612718958977,-0.027612362409048633,-0.23716741729054727,0.23297724241308124,-0.09646272716311986,0.10946915337550227,-0.0455331769728309
-0.19249769513745563,-0.2364680875476005,0.05947557622848438,0.14986369033487335,0.19628229208921055,0.020976843242022838,0.21648019312234548,-0.19919453986787336,0.11875503163793885,-0.15256977104161404
-0.38674448856156785,-0.1780764349033902,0.24551698957046794,0.22246395655335563,0.10372576595759503,-0.09969544442596885,0.19783845583585435,-0.08001848571354692,0.0365474820736889,0.03019847321146773
-0.05802298887221558,-0.12537267530418092,-0.23998325143069432,-0.19634589734215885,0.14555643770642615,-0.04705878836344979,0.016663440793102523,0.15884211310959206,0.1303085746194213,0.20759330657319425
-0.2485871741686609,0.028400984240679793,0.03151548938999881,0.1048433576159437,0.10574308260474628,-0.10015599987255794,-0.09141850613999254,0.004994456719613869,0.09552485862368154,0.07056985501929328
-0.07003111003520163,-0.23418659128728725,-0.09511296877144854,0.06333400478564763,0.024392241013125232,0.02179521812706568,0.0994184513754486,0.062344411799804746,0.007073449222298989,0.1174301500585648
-0.04076151509692061,-0.38590706888810455,-0.17983751036796444,0.20996942984399686,0.2268731836157565,-0.04147382443829146,0.04536575821250947,0.18497112642105695,-0.1621031429471056,0.12201443977339767
0.15505915445705368,-0.13156459238417403,0.0046661011465819425,0.03362191877793369,0.004112837082585412,-0.03835299628276261,0.3714053350197638,-0.12275784955445018,-0.20624391011611226,-0.08729117954166363
0.10330992543225762,-0.4647720652268082,0.23697899230386182,0.15257603789022248,-0.06669403164262651,-0.046477668750331755,0.09876574752060883,-0.03986103054471799,-0.009205924672263562,0.031649198274807624
-0.03252835678733427,-0.0747335289116222,0.027352222747489396,0.1747114465157223,0.153271998330202,-0.0088222027428991,-0.06228891991277489,0.08781230997637668,-0.16512826923726345,-0.06196720435997607
0.14262725669121618,-0.1983115473154337,0.0004074436144013223,0.4285814638785779,0.14291912418051292,0.08152079848638712,0.27228988627166983,-0.39425720441423395,-0.13903956723794572,-0.3056753072216537
0.1905906250107155,-0.5403899260425957,-0.16840267972893933,0.3584917998338604,0.21234518278129347,0.060590636475281456,0.04827905718975498,0.26211857455940735,0.061221718105892144,-0.47803743561105916
-0.21385837155145251,-0.4260720305347063,0.15736677377907396,-0.12753526683866911,-0.20327873754052825,0.1644331867001803,0.09511912758605437,-0.015793424122306235,-0.13069399535873527,0.6807451002023962
0.17136417109323632,-0.26564414154055876,0.4062007251179711,-0.017696670300996423,-0.48525461206396037,-0.42227911191650125,0.028073150374981384,0.21049703717983406,0.2841118346301918,0.13053982483339527
-0.047545117033192114,-0.01992772747949483,0.6283605767021002,0.1526789788745383,-0.1218561166701033,-0.3321330546556591,-0.19561587685889723,0.0013842076789288978,-0.027868508736095247,-0.03853460189073512
0.00027886081951850544,0.0047610615443808655,0.003996967465059512,0.006438886407543579,-0.0036816664202001326,-0.001189604855697677,-0.006715202657361342,0.007796719174804943,0.006851945298834073,0.010442246044996368
-0.002715231384038779,0.0010291293185343234,-0.11585345238664276,-0.0023815744448876155,-0.0214387314313047,0.19739533810554535,-0.008632196587003378,0.0027691861136357227,-0.032455703454006814,0.0071418022504843685
-0.1922626586988782,-0.023377639668841314,0.5671176260253737,0.030460458887711147,-0.5673031979788794,0.4933452751473723,-0.12936613695764743,0.014743137688639028,-0.11535596064575819,-0.05263888983899487
0.1779521101835383,-0.6919983029898552,0.3617638207854721,0.1582776308386547,-0.25954541633290906,0.4232942294340482,0.07498089240946137,-0.025264425939658327,0.1278448818889544,-0.4407503595813341
0.09264387281230026,-0.9377561550964426,0.5159090818679776,0.30969832061199637,-0.2039614318618609,0.17772580842226954,-0.32144856866799354,0.287107292445321,0.03566145772571953,0.027572199631990913
0.15659350302373554,-0.8731459795208382,0.06748723884703131,-0.03052463298073642,0.16723791359702417,-0.0029559132260107445,0.4241480105726088,-0.4254193804923677,0.23627689302456334,0.3523961837000756
0.2330730859147703,-0.4579163711863865,0.28080127322317755,-0.09336795105054091,0.19244050247342187,-0.24176936685470896,0.27659579361309694,-0.3355327964141206,0.1165804705446911,0.04000366608208317
0.09307252552445355,0.03660407632285327,-0.09971357096617887,-0.3393184265872097,0.3521334291642772,-0.29806925277943547,0.16544170871114094,-0.16130791288373814,0.0412130878416507,0.23067912905806331
