-0.0054650771573401535,0.0013025775836824724,-0.008389689800904043,-0.002270503425211738,-0.009970885516989794,-0.003926838613874425,-0.0043750446543355664,-0.0074603514690528405,-0.003913365964396583,0.004450048699779014
0.00448500926537863,-0.014315682966988336,-0.007080183347432995,0.011791276141329958,-0.0027477685383250627,6.219457557003327e-05,-0.006827352073963412,-0.008396330782255762,0.001937915551618716,-0.003073617799815924
0.008687293888779705,0.008917218671021802,0.005298694370477451,0.001678131701844047,-0.018899428860065987,-0.0015755403893556875,0.012492999585382168,-0.00865338104271079,-0.003879447445589525,-0.00837054473587186
-0.02676371330367613,0.0024619912681438155,-0.000234249158454717,-0.01494388238960779,-0.01619413195327805,0.012492948194441886,0.002758029321923411,0.007884986535335717,-0.0007529211129896365,-0.01498758032586409
0.0021723128174159735,0.021239474864768872,0.013211687194926103,-0.010815405849919957,0.016369468492542106,-0.01793316934648269,0.01644476873948202,0.002261343687219654,-0.002561630168693766,0.013782902031330417
-0.008126013611033076,0.01442709897718655,-0.0012515595905107572,0.007077129620020418,0.00498086602106823,0.0033881471983671285,-0.0013564058564377748,0.005850211017033435,-0.008661901882426704,-0.004128427640313386
-0.017083163802187294,0.01655966491796703,0.0015244154829335713,0.018614312348173324,-0.0064226040894724825,0.005813214075297437,-0.013106689836608763,0.012045594043508353,-0.007716767992931115,0.0015786549194080058
0.0064661040357648514,0.01735080614274402,-0.0006263447617249003,0.009382633153930656,-0.001491761914259715,-0.00470102068161859,-0.00012499584660194456,0.02525986592586487,-0.002943109621754838,0.009693998338453056
0.013854674057188692,0.014550864622006984,-0.002843625392360179,-0.0027955705358630382,0.008368338992735818,0.0046912601760908095,-0.008342357711363305,0.0019450594063164914,0.005754089586114187,-0.006821136159239354
0.019370441679566627,0.022179921136805083,-0.008883713077425921,-0.00940819243114812,-0.0041168989932149755,-0.008542119131594292,-0.00687064284726658,-0.009014465358931769,-0.0031026732811948554,-0.0016376835804709248
-0.0015078380163245449,-0.0036973854366222055,0.007638729789780362,0.006745016417901206,0.011334728247462183,0.027806282948449935,0.002941537218023354,-0.00994968590782783,-0.007072459181398726,-0.0022122348110955466
0.01861092431691912,0.02050129749037854,-0.008079483416166003,0.0044664370156563184,0.00723095478299212,-0.00158440838754182,-0.01346718729125658,-0.007337341427126621,0.01841512563724315,-0.003914314605634779
0.003395564026607241,0.0033129793917083383,-0.011698612160780997,0.003978326696803001,-0.0039038838600763594,0.0037101598106806756,0.013325740855964363,-0.0011537306661663126,0.01647319065533371,0.004088975975322381
0.0016428541963676101,-0.004647536859914387,0.007860996179901453,0.006762330983543239,-0.03441195187013021,0.00469993273114147,0.02436532190191533,0.003503825444441374,0.003174869369388444,0.006603837523449703
-0.001362852019052859,0.0017752597086906833,-0.010477655388995942,0.008782747292429905,0.011374092031404055,-0.017182872026691068,0.005959377073285483,-0.015971442314869338,-0.016938741904601845,0.0016495669776134866
-0.0027487572482464613,0.01510670295320873,-0.0064800164817454394,0.010433714004993398,0.0034099829499184865,-0.002442907700014432,0.00041869348792468626,0.0012424179835778446,0.0034865838479216454,0.0031676991631290076
0.000732289844119724,-0.011252626633396915,-0.016473525556845166,-0.00819388480457144,0.005517980786967341,0.010450878855736217,0.02496079238934913,0.0049460663646492325,-0.004468975373040997,-0.010216110952370357
0.0042751718653257,-0.014957998476465813,-0.007140759754972485,-0.0006607409498666125,0.002741561168828298,0.004853098123125514,-0.010766348941901262,0.009152814957540082,-0.00058788617308903,-0.007370459899419067
0.004743638388036509,-0.02063416149972049,-0.010595021351327208,-0.010697703462429485,0.012001960634991649,0.006938272019652064,0.008259768139966596,0.0016660980014342108,0.006011000161309435,-0.0014103891292066204
-0.0074489818666000655,-0.0003653452553793414,-0.0018708745340340518,-0.014789102532176662,0.007749382780200175,0.004604606696722497,-0.003741975347058858,0.00812536157444063,0.0073456647936940705,-0.004429263715134637
-0.0013097195629470668,0.003963845457142269,0.0049163207638264934,0.00772825796089399,-0.006404756152826794,-0.0008497106548899279,0.0035276271460162084,0.004540399540977704,-0.003994932729479593,-0.013451779907057407
-0.006830052721792372,-0.002467844157422116,-0.007447818568175619,0.009503373819727082,-0.008531151952706883,-0.001990734664929094,-0.0017206175936512935,0.0002463449650524779,-0.012125111504864332,-0.001838461729453924
0.018233707726598082,0.010350610594388656,-0.008385324691140292,-0.0024494752198125132,-0.0036706382981979368,-0.0006461381074282056,0.0004919917844999269,-0.005683208505667114,-0.001469680712110189,0.0007420195681348408
0.001070909137185408,0.005474315816587223,-0.0049738723679090815,0.008129810581258187,-0.005019470228369131,-0.003567530695164257,-0.017544682539252728,0.01004916082118609,0.0007555861675798111,7.686916864111218e-05
-0.002209354549464375,-0.008186184990853737,-0.01270641328396529,0.0021054579077342942,0.006176418629600243,-0.020272033340363562,-0.002274081015476018,-0.01725002809163514,0.006784545424161326,0.012568496465760769
-0.006958439326561961,0.004210312046936851,0.010427823676681562,0.01154555265162575,-0.007665786580858435,0.0009620488026253834,-0.003828021178637021,0.0051841118977656985,0.017903013093659183,0.0012403745594044484
0.0013343962172194395,-0.0011420347139684227,-0.008485990309107383,0.002521126468915812,0.004365548351212639,-0.0035785674825749526,0.008538734257361222,0.0015953737629422246,-0.005835603290515367,-0.013131061767508998
0.006849778798099838,-0.006874056370307399,-0.005175606429176772,-0.0027469051978882743,0.0038736179591473074,0.0036300967954128512,-0.011631907032562618,-0.00529488860654755,-0.0009591611035035672,0.00366368794024624
-0.011039019868413822,-0.006663379526951655,-0.02037967040291937,-0.004440567028540491,0.005426906545379176,-0.008892886472632878,0.00808106578467147,0.012310562537146954,0.0032389176253162615,-0.0025385784276424294
0.0003601293573669438,-0.012574458753782342,0.007189118071284694,0.020478952126297703,-0.00385758681751298,-0.005321716489209908,-0.0035001269978742738,-0.0095705780412532,-0.0038004816046379912,0.005567680599609799
0.0006313748675034589,0.0038851331468907568,0.018009324737314904,-0.004086626617831795,-0.03107464004842602,0.007349513982257996,-0.0016606087819977448,-0.004362662123983252,0.0019988637420481617,-0.010076234466939006
0.00256614371659887,0.01943255609798096,-0.0020381065032871334,-0.0032734795289719393,0.010481421497956512,0.00025712870082727514,0.01977786961760993,0.008854520563892153,0.0063840806345212865,-0.009501504269608621
-0.006158878623301577,-0.0011555122297987213,0.006711490752359411,-0.0003699003407073706,-0.0009870086693959585,-0.017521768905416863,0.0073309023588163744,0.006761290330994675,-0.005580987576333066,-0.005618165286718124
-0.00465493268541875,-0.006260250740289954,0.020447837491489634,-0.005131248341141596,-0.008223070425530755,0.00020773943419502664,0.003287393587618608,-0.003868828599857315,-0.012195169532057253,0.015712606911781404
0.007247803027944895,0.004665817814224345,-0.0026109182128853763,0.012852459737607335,-0.08362571382359917,0.004657320775198351,0.08198871039726911,0.008984473068719339,0.005726360563521252,-0.0023370104628264183
-0.010620946728270575,0.009639441319217592,0.017930939450473585,-0.005100657557321238,-0.18981716431011544,0.012691847609702421,0.19665285938158375,0.0048572465714558305,0.011853932938052696,-0.0006925042381830671
0.015559007399040852,-0.005526916899674434,-0.020007017812880494,-0.012372878727310507,-0.2255631678352882,-0.010450147639280295,0.23644989479259879,-0.003661648282500035,0.007739048048856021,-0.0008032591058796241
0.005370918383141344,-0.0042523745798895085,-0.040468246724194475,-0.000696041715322838,-0.08144805098366878,0.0036151159878519135,0.1296202829918891,0.0005909815956166847,0.008203538808999062,-0.011724987716638716
0.011060033471641324,0.0008559077480199253,-0.049882345732946594,-0.007758576404973213,-0.0719466768634989,-0.012232851315838254,0.11867498510254185,-0.0018880130226664458,0.0032151292742374,0.0007007851439851426
0.06122334981691406,-0.0009113111362402983,-0.03690282868504211,-0.0009575561991204361,-0.14392140604089762,-0.004622791015419301,0.1654316707212087,-0.01301799991730075,0.015109550800819164,0.004024687182858233
0.11725123500534032,-0.015051451334946401,-0.055879923511616074,-0.00465590444945252,-0.27904796235482304,-0.012171710677088162,0.32687916211461054,-0.06613033898608128,-0.005328678039442606,-0.04083010421083649
0.057869662889929153,0.009207050088425041,-0.05022352094081959,0.0063613471724598076,-0.1471914303725564,-0.01559425608234822,0.17301730195112897,-0.0075852822838694475,-0.011205967114526625,-0.015826691132515194
0.0053001945937032535,0.039784905716479704,0.015179202497918995,0.008353537798254861,-0.04280054647306898,-0.024172077225673324,0.007825833480981134,-0.01611992173954704,-0.01858858972151645,-0.00752052397481565
0.045853949621543794,0.043524389597254576,0.12640050337543812,-0.014824577229574356,-0.25566934295523863,-0.0073717869983026315,0.06810892544084594,0.002118170240367712,-0.016916357480777668,-0.0010704309837217302
0.1400702256938574,-0.035488339978547966,0.23933301291880246,-0.008915561563861803,-0.2780368070792528,-0.009247503297914109,-0.01433694975337474,-0.0020242153261238295,0.005386123449278404,-0.0344948851740017
0.0668914597262189,-0.003647607587347648,0.009250666514415723,0.002647240093371778,-0.09746205593018711,0.00810856604035858,0.08207081607017268,-0.006670064838079406,-0.007896843165589328,-0.03946286082254445
0.0037586281723485937,-0.014571536305862727,-0.033587440573714517,0.0005753077148507922,-0.025817647061552138,-0.01920553890511326,0.09003702730007221,-0.0008505329916231114,-0.009421967996997902,0.0019982799671139726
0.010444210540414047,0.011936066989682805,-0.01525683924987516,0.007966514526619622,-0.07081625277067492,0.0104650678418948,0.0944662525251421,-0.0033994389865743685,-0.019766244713941436,0.010304685989553601
0.002398500906721819,0.01344860407824013,-0.008197031209049603,0.003097317196095696,-0.056819083304475375,-0.009995700882120836,0.07649034911416867,0.0013605290604725288,-0.010596904507874708,0.0046694418823298766
-0.015254874374967368,-0.00526324693239018,-0.014486673482960922,0.0067571793921530005,-0.05542652876781567,0.015552370918706888,0.06601472910821887,-0.003838340351450917,-0.015336505211475686,-0.004441665588181683
-0.0048705792356720295,0.011611476563583991,-0.009091609832330478,0.007798035168954715,-0.07324333032084988,0.0043315615921589706,0.07043688786198482,0.0026993231108345885,-0.01156434179464067,0.007733084411479778
-0.0032799025625804296,0.0056259907843336215,0.0042281230563133276,-0.0025990526618568034,-0.044682681945474846,0.0012799249631886955,0.03588293969768067,0.0066946979228548215,0.009820548564806976,-0.0037697775211406126
0.007855397463549218,-0.0004671129071454341,-0.007902185767825956,-0.007454009602722605,-0.006851199955271023,0.0014964903653035952,-0.008318275547693077,-0.006379348951275472,-0.003742902398335849,-0.00824818229097467
0.0066672692615532885,-0.008460159996585332,-0.004261251308561363,0.028458395861385526,0.005231318757481867,0.010506157347585794,-0.006306484758209279,-0.015258508912884316,-0.008932095993382797,-0.00018740530446186853
-0.001849328057115474,0.003814921008504531,-0.019764804590720046,0.009132970722792191,0.019509253272972035,0.0005333420842679341,0.01836942379857073,-0.011317204526565155,-0.0021811424124234076,0.0005347939620142282
-0.00961238660336942,-0.006643319486070385,0.003076499965699044,0.011010709420492726,-0.0027901137812158163,0.0044530193815814105,0.017778617582543194,-0.004130057162460494,0.015235764206474224,-0.0106485974245288
0.02301532046692277,0.006910171084820358,0.006936262830526884,-0.0004318191991201804,-0.0032601170434525197,-0.02186000092688464,-0.0018677817544399333,-0.013328295946112734,0.006711950298315609,0.005303333373943711
-0.018203163718231545,-0.005205223599980535,0.01989032464510373,0.004957114727878009,-0.012430968712955499,0.006339144740849475,-0.0004918798376409712,0.0003954953459099395,0.004474938146756508,-0.005404625736688374
-0.005743706492146656,-0.0044491696061822955,-0.006661261693223484,-0.0022386938173589934,-0.0037577820418742912,-0.00021776658698183162,0.0010948870835160826,0.0047501165985483935,-0.0010268636337214016,0.007230446795392996
0.00048197029554744326,0.027939911825029144,-0.006174491480049664,0.0030487577035619323,-0.01369024638738005,0.0029522851361296824,-0.00289264340584077,0.004445901289721835,-0.0016165448445927186,0.006510194365948034
0.013625066249803386,0.0009055579261753595,0.005604341750740428,-0.005632726378514487,0.0008819256541744948,0.02020803897013503,0.019117033283817208,0.011953241584302884,0.005808587451316975,0.0026801860552162424
0.00015494866311261115,-0.00844723891081029,-0.007660610002562435,-0.005901602103238085,0.01243063065226202,-0.010560770006149847,-0.005596466823889066,0.006913755990618101,0.008123767579716543,0.006333708304134088
-0.04981733145536389,-0.005915196650956392,-0.007030890378461479,-0.016570864450154137,-0.07678781366366165,0.007890538415665034,0.15125430338489265,0.008960685346162543,-0.0003872558054057821,-0.007495419304171238
-0.053270127963142004,-0.007318366052822312,-0.024941643043846072,-0.015896659065902444,-0.26958426211121794,-0.01177029268644497,0.36847655890995457,-0.00019569951732417834,-0.0038468333730793417,-0.0029396937823882156
-0.025654654285732027,-0.06284900230246517,0.03521781409537235,-0.02128996809834126,-0.34922415927547484,-0.010450842746704053,0.45093530505667584,-0.007203534945680673,0.006573037463278968,-0.009401021607329502
-0.055794067829097696,-0.1230783944952038,0.2079140973784908,-0.029753293514750482,-0.26301519335996126,-0.014842760081267881,0.3189720020587587,-0.02293928128749436,-0.0024419677138972163,-0.009994973692034545
-0.04599540633692789,-0.0703349843061437,0.11872181364373596,-0.02137811752628294,-0.45571841103143446,-0.08497372548750214,0.639841887908712,-0.016573197754375265,-0.039766700229889415,-0.026110050519368055
-0.051027413813459654,-0.0843500412368382,0.25259447661916756,0.084054550464267,-0.4271816183252751,-0.1967414476673572,0.6220321632526432,-0.06787878177420714,-0.06442381936167202,-0.04385098697542282
-0.05937998455674388,-0.014921283025261708,0.27600017393544185,0.11845622509207147,-0.5634553314492834,-0.19809932636348365,0.6601574309313413,-0.05921194988324086,-0.083162092498859,-0.05422512656693561
-0.12676581780655088,0.30414632352943216,0.13736896186258088,0.007521196304835811,-0.3727954778961061,-0.20503684191621452,0.46076365300657635,-0.043859254245125684,-0.10947584660533002,-0.07868434438885981
-0.22647944504603126,0.22051161928977625,0.13040819678926133,-0.011687917582992476,-0.18099770273067842,-0.23995326210643034,0.5334013364172199,-0.03730878317227029,-0.114816083040843,-0.04024384542149238
-0.2560008118560648,0.4617904034144508,0.262526987713202,-0.11034518311017781,-0.3119120251715835,-0.14027763600901091,0.3276831523567192,-0.04771178030756349,-0.11601604206344172,-0.058708289857880486
-0.21288214496911032,0.30914926909946827,0.2523396340763816,-0.06894460961034793,-0.39076521598707015,0.019748043247106384,0.31817279206668314,-0.010968365609745168,-0.15503599977913085,-0.0484458211824915
-0.17469088889719292,0.08762014293492189,0.05932711970215299,-0.11354908048370335,-0.24095629866478543,0.15766747126847455,0.38699056351710254,0.0024866825547622366,-0.09577664695685566,-0.04823517221443265
-0.10942112723856097,-0.025247178358048985,-0.025972830760743405,-0.15684018100051297,-0.23212363506596614,0.16320781070104962,0.4121812297773065,0.0022679191149256716,0.007538131261109843,-0.017832974303568977
-0.04723255253267998,0.08447091078982705,-0.17269212009122276,-0.07301645629714995,-0.15403781846851577,0.03110899961910464,0.4623487123906623,-0.015119257922262751,-0.08870809805418654,-0.0161515924939907
-0.052798481976917805,0.006848235699348428,-0.03187930941037534,-0.012837580760244688,-0.16250952186968873,-0.12441470365402756,0.41169683116590056,-0.009908896395936445,-0.036745976121574604,-0.014981894065690475
-0.027625394510808032,-0.011764441542150469,-0.014085433523688578,-0.008463158567916268,-0.1638855848038258,-0.16030174457598811,0.4363831622539144,-0.006025330600067941,-0.026598539296133636,0.007384241562663121
-0.01980149295194474,-0.011227874015471146,-0.05254204194920921,0.0032638406050338577,-0.1301978065693015,-0.08272312258143388,0.36422125442324504,-0.0002458945482863816,-0.013390402218356637,0.010438341716591186
-0.024859737691567508,0.007175576827775472,-0.012864345000887154,-0.0053517484508842335,-0.09897417673439969,-0.06788775336389723,0.1890526233157668,0.004038231909642654,-0.030500407542057396,-0.017795598374310304
0.012852524330701734,-0.01730923712535024,0.07320579711321548,0.003571267307242861,0.00757866379641881,-0.038310388488803956,-0.027134264841239333,-0.009419702974783895,-2.0187777848363183e-06,-0.0023705174578653237
0.000501861391834529,0.00939103254292871,0.054683129887336916,-0.003401470415935551,-0.006774112063208476,-0.01600110787629171,-0.05129252557943977,0.015137579094382658,-0.0037180336256819766,0.0016886726557765338
0.018839967849381557,2.8980710073392897e-05,0.008318720526629424,-0.010721934454425566,0.01132697693603987,0.019581683344059814,0.005232160909834692,0.00750197553831726,-0.0038704215653814628,-0.00565027771027515
-0.00494265181907744,-0.0009477859283240626,-0.01639894669369196,-0.004158909257194396,-0.0022285924881592025,-0.014977380434894768,-0.015026026779702677,-0.0033959782984784997,-0.014051847052697623,-0.009012643265645772
0.0213172573863147,0.016756115153007328,0.012411866557745451,0.012384553503429561,0.010601357975168906,0.0032018866502997274,0.0030334818374809515,0.006662602091563088,0.01573874092568974,-0.009098684841594212
0.0023647254247801523,-0.006778414059356038,-0.004870771680761492,-0.002883403278798919,-0.0017043513219384913,-0.0007839616944343936,0.015231482437790652,0.012037107403184104,-0.0021046789124989198,0.006659141322266047
-0.013882412949817121,0.003260582313262251,0.0020018107719196147,-0.010083199068663527,0.008357246175575603,0.003320419626125562,-0.00713991976986759,-0.005085937407791319,0.007176376828039536,-0.0014728764880229664
0.022912618250308908,-0.015609188055210828,0.004979801080115696,-0.0033906050048898087,-0.021466341279909627,0.0019025098297456011,0.016491346184787523,-0.006138167457006273,0.01869297839238688,0.00847372908098523
-0.016297366536765067,-0.012867457520967272,-0.002563120406468232,-0.0026078981626314907,-0.0036523699757789983,0.02055240463350717,0.01217425551775033,-0.001971773629690281,0.003029489247546908,0.004384623420971289
-0.10449829739518593,0.0001586423848643108,-0.00964715995317061,0.22082892611568747,-0.015163443945050918,-0.10444751252147325,0.04644647795955526,-0.00040236171777620155,-0.005332932041925375,-0.009882792934801744
-0.17717946882330735,-0.004646141202501121,-0.006275718832701865,0.16614240810915348,-0.1725654103838885,-0.06709065719765202,0.2682694139745594,-0.007520869089670511,-0.01378501655915119,-0.01492422957376558
-0.21493520883497447,-0.024636236212235797,0.07449341906139512,0.2249136648381691,-0.25070324097901187,-0.06823293806477994,0.33658421694289153,-0.026004189174908376,-0.023268792140770926,0.017404760874740934
0.004859905724851764,-0.11662348803803335,0.1682181697816151,0.3440350977291124,-0.5170902116570489,-0.08497997096973985,0.41170611625366405,-0.10417097800489973,-0.05130835426597574,-0.016545387138263718
-0.09049749359740823,-0.20896833902921805,0.6312474057875569,0.1361829646632094,-0.6683785888184587,-0.09324562629506425,0.4282614767719092,-0.10642996564471732,-0.005569036059657697,-0.04638841844599424
0.006112305780492305,-0.3603990496957783,0.5075331713276837,0.3397033594374339,-0.5613850824888653,-0.0563983637557045,0.4319237249491671,-0.18971463528063312,0.0031266594110345132,-0.08367902474480683
0.06072452676054027,-0.4948737439849496,0.6431965744100993,0.6335077420803369,-0.6405815880095721,-0.21847687847277042,0.4828663998640621,-0.3014338017364083,-0.0273047533417912,-0.12793313012093097
0.0027470039744429656,-0.10049992684640222,0.4392682525289549,0.770675839925712,-0.9461655887462734,0.07763665408016211,0.29508628792738406,-0.21500451604215085,-0.08952740666766613,-0.20091515205936067
0.25056707532121664,-0.008607643701037955,0.6903959488416638,0.32212794267616085,-1.2208085730608105,0.02010442303876767,0.39079091599326804,-0.21495937649198543,0.047959349055065506,-0.27452405289123377
0.3155367631120863,-0.18818127737767912,0.37917158896359043,0.6852472161553812,-0.7338550535715405,-0.02894747104914922,0.25631224742614456,-0.19270021762141548,-0.13581122417870942,-0.33959947838781257
0.11192186703132505,0.11181871217940842,0.1760854313746745,0.48042025517015424,-0.6563346792680518,0.15533323453191236,0.3106398536842137,-0.1932748188846552,-0.08642165962197969,-0.3743092800104309
0.16233164806603842,0.23033974012767627,0.3396413016565027,0.3706563845090175,-0.5678005841698615,0.002129132750020632,0.008695598142139823,-0.14451458967032985,-0.09394525299593916,-0.30307369875768786
0.17496393787073844,-0.1319171388032069,0.20974055753356594,0.32288026874090464,-0.3933704699537298,0.12215416171139197,-0.08808459533368813,-0.0808715526419322,0.06431279900222914,-0.17135928141840817
-0.1463263469911931,-0.3655000623683446,-0.09603760954081775,0.41681255319641614,-0.4057497582332357,0.25918081501204526,0.2751269928518073,-0.06287594112492077,0.19862911425303706,-0.03315289346360675
-0.2107345694576959,-0.12584726741713287,-0.13621257881287954,0.3240576616232902,-0.136601150745216,0.25545093067345614,0.3840776901627429,-0.036995815889696734,-0.19844723388617294,-0.11560712238711907
-0.11962269261362238,-0.1394765088135735,-0.22198974299731167,0.5484753267818127,-0.07039573034774833,0.386214828551304,-0.03931187778525642,-0.04300185363955195,-0.14067770121515955,-0.1310955603168726
-0.2844723973760943,-0.21570424991256965,-0.10066413823011534,-0.10055431253971103,0.003480246894277963,0.46656512121462873,0.1998311471213455,-0.03991684076344804,0.13640384771416225,-0.05782818829815791
-0.19085352850972345,-0.198140636237083,-0.17356269533625213,-0.25745179309008515,0.020290572929806707,0.28184112662826644,0.38490715079414745,0.015762935355268678,0.2110164677549864,-0.01580630310322206
-0.08011691047046247,-0.16416049503224042,-0.20406104993249918,-0.169775243264529,0.024976186316138183,-0.06722815406807568,0.4362513590218971,0.00028784406362857186,0.19326901988661907,0.0038724629072886397
-0.029660520896974796,-0.1382499448779027,-0.012772273927865136,-0.04285760846658881,-0.026236555380175934,0.05203141026637044,0.17269999723072293,-0.005921843100859679,0.031934302668774665,-0.009839648554054184
-0.0022633714273886246,-0.036024827928113005,0.04507938162224799,-0.0039224464016263645,-0.005002534244484871,0.12295958914581989,-0.13594054651720142,0.0044145998094382854,0.006070613163978709,0.0008769567823054081
0.004150185770970665,-0.05456516884406823,-0.0004970193643853176,-0.016900863936894987,0.008036884826610483,0.016125694107752192,0.04486109215541663,-0.008031976959048984,0.0017174170784908733,0.008861837801861535
0.008991942661589732,-0.007820605804646743,-0.005212371461723596,0.0024712396361008027,0.005074475356172899,-0.004217438466660804,0.011431230642109548,-0.0064859447376363275,-0.00290103917423817,0.00024819593787967235
8.03151929745044e-05,0.003944901185154085,-0.016958232966600637,0.0012026966226945466,-0.008293951425766884,-0.0074092410435655735,0.0067809909023850016,0.008636712359560263,0.0010367226447646856,-0.009897280586722299
-0.014826186801563501,-0.006257025095134049,-0.0012012740009378054,8.645554864613326e-05,-0.0012985451009027442,-0.0062473458947252215,0.007088864771094336,0.0007268368948632592,-0.014499179169994988,-0.003565768340782254
-0.00965586205942258,0.00471406210692603,-0.0036859448826553525,0.001953833772606641,-0.008667922997538867,-0.003676740560510534,-0.020959769188146495,-0.0018161161866456458,0.003072461748086398,-0.00844461110902235
0.006127073225555352,-0.0016806100573666597,-0.010772482453512896,0.051741028015778526,0.005609818541443393,-0.01468913078158436,0.015497393536482081,0.008498283239021331,-0.003035718264299533,0.013820426154937561
-0.04443861707229567,0.015630751038333883,-0.10654545712940272,0.11502703405479275,0.054008450988050856,-0.0831611086149315,0.05225422577984424,0.00016672066756467127,0.0003760786015817101,-0.011813066668989517
-0.1728360738470793,0.10063911397424938,0.012560540593973515,0.4707119765592217,0.02515446836833252,-0.3423984891215103,0.0859050106205176,-0.06379597301088706,-0.09313473260161283,-0.015556770357238715
-0.21879580814237432,0.08126839531678147,0.35974094492785225,0.4134854768576188,-0.20497667220865146,-0.31109993338365205,0.09929325503834484,-0.11807239074944584,-0.12150414489692124,-0.010233576577681591
-0.050057731715417435,0.0019484633737606252,0.2585578448998886,0.28679347611150446,-0.08896970944933583,-0.11901590658856612,0.025835073915084154,-0.20202886327586503,-0.05292531418029878,-0.03661063778505346
0.062107549553213445,0.07113282974988389,0.23005865554434257,0.5070123182051093,-0.35433517792927344,-0.4230047974045946,0.0896166841094167,-0.27826603967860564,0.14518726220114814,-0.1268540198668524
0.22670503260097394,-0.0981480710190578,0.5968916174145643,0.35072008945497324,-0.37801809315553353,-0.2797282923928777,-0.11014348385594576,-0.4278810293471163,0.3551793665888797,-0.24204930223724247
0.066581392275357,-0.041336465870894776,0.35842063592149137,0.5964788457597624,-0.4696599361825196,0.008075893825731918,0.05388627454865555,-0.6033287826815587,0.2737558511272995,-0.2668111192502305
0.37035924523203284,-0.23614128679498125,0.33914537670738554,0.4827140024725393,-0.4006626792103963,0.3090030329727524,-0.15743332371753116,-0.6147759643410944,0.2350032712783262,-0.34182159168771437
-0.039668317722868406,-0.12080343887925937,0.3787100021466276,0.4200670067613466,-0.28264207144258946,0.19115874676749373,-0.22109560543472404,-0.44655556587000017,0.48733240699484587,-0.4081818949441127
0.25190560417599955,0.29632128925514106,0.1309511251387746,0.5215291578296621,-0.017189922497516223,-0.34692272390569956,-0.09288414646000764,-0.4242876674403907,0.04336783248983014,-0.34224529280034255
-0.03574315685123951,0.08294330269160002,0.5142998722767913,0.24861457936656203,-0.32124645962851434,0.015098971725570039,-0.09714511225143069,-0.5191747987182633,0.4989089168818334,-0.398914102341155
0.22274131242444836,0.00493459231776045,0.17714140173775814,0.33111257427814633,-0.42110626555679137,0.47344130870893014,-0.2345471915810726,-0.5494681776129122,0.362383872895892,-0.3524688663908682
-0.14185051715101574,0.1134776172952544,0.18739756616327605,0.505813230425205,-0.14515077898251436,0.026957020424293227,0.11080276221007317,-0.5347730709192436,0.4134947016667583,-0.5505030062543276
0.2639817749215608,-0.07367688454194067,0.14965805613294933,0.11837960206726815,-0.08681624997407325,0.19876604751591373,0.14401058954207172,-0.45029220282333765,0.20417143023315681,-0.445980492962931
0.06847317861818114,-0.18588508893584144,0.09645223042044497,0.4237804237520399,-0.20847023529244274,0.48197146075017766,-0.19156964771268076,-0.3338749973996737,0.2882771893220485,-0.42641819014029336
-0.013319444578957711,0.22709810981157832,-0.07897638158017913,0.1274373116682531,0.2622017619115191,0.23423188048288107,-0.043212062860972705,-0.21168878437070252,0.10444422028710057,-0.5823084648120256
-0.028139689862865025,0.003226041792636526,-0.13237977648912275,-0.01773995016278041,0.5455380475248877,-0.3011595400050647,0.09403830272845073,-0.16237874871318633,0.28998005839517293,-0.3794452362467665
-0.1669785090377517,-0.04374234385578808,-0.4052172299721973,-0.17842715520105587,0.5846255517576628,0.3630183648438839,0.11812779735379589,-0.027333072754042804,0.09955830447973511,-0.36329533677840165
-0.019779560487221383,-0.2358784866359173,-0.5696221417176502,-0.10738245560846157,0.6138546594257743,0.05156239992605772,0.317506285016197,-0.08432474195789691,0.2017303824848204,-0.18272480781557643
-0.06460097001463658,-0.2560887954096129,-0.46145841527280484,-0.4189120878895284,0.4727122219842697,0.3954113825780211,0.38493518344886696,-0.029260385018612448,0.08629778435733794,-0.07557798309337542
-0.21798797202882295,-0.5018134690676376,-0.2597313931428669,-0.05036698500399734,0.35892016710732244,0.75404283516747,-0.3251359339575641,-0.003965375252496841,0.31838498277636845,-0.0260297105786282
-0.06709688748541362,-0.28429062780684355,-0.01426020911023055,-0.024757595982004204,0.01692369949028745,0.34541469847052303,-0.19157955239942157,-0.00802278978782213,0.22403816351224107,-0.006277413584508117
-0.016349425925081023,-0.031240874329879646,-0.0015440972937288038,-0.005003558934110319,-0.05593364853451746,0.048441538097598325,-0.02590741464198587,-0.013121523338539907,0.056958165684614766,0.01103199638630892
0.003837039684079535,-0.021646381750370577,0.003005492529487271,-0.0036056951173591935,-0.02040301052408036,-0.015968357224244955,0.0305389371543433,0.015762703913783933,0.005264715061180587,0.010494267137071066
0.0009372390557735301,-0.007710466974278518,0.00468174656891465,0.0017308652269646197,-0.002517969717883927,-0.005112585356540018,0.012981144605538888,0.011150222819632636,-0.006314101421639004,0.004829177392805301
-0.011874143488205478,0.0009184516170872223,-0.014153112908372954,-0.006151631662584909,0.0034254451097399936,-0.009503048773114694,0.015200654211805383,-0.019328894334926013,0.010719024213434876,-0.009375043982690276
0.012008738229541547,-0.0016043534343160395,0.007703920003590223,-0.01415336185137731,0.002126455678628397,0.0018294138309717094,0.010515118894702427,0.00569935574838726,0.016359351628550473,0.0036005215726226773
-0.00719886838943677,0.014416943671532349,-0.018126892355269212,0.2075936684278571,-0.00336542173443175,-0.10073901816951643,-0.08123512549269377,-0.017725977183712282,-0.010373529259339341,-0.0005651709059664486
-0.07072395037478801,0.05957876537396135,0.02884812002566202,0.41063530874689286,0.062327538746836005,-0.3946171126464751,0.05961365292800826,-0.06582360911175889,-0.07383711991039475,-0.012825708628543469
-0.29452579739590734,0.24426338400962525,0.10753977650234167,0.6398773528798163,0.10806869698946517,-0.392971539728333,-0.24016923091768372,0.17425989185084992,-0.26822331931097804,-0.04695857113913342
-0.0022777557689715607,0.20639505429175473,0.08073788231017646,0.4873469873819717,-0.07531354586979563,-0.45848110430896677,-0.07484442893291025,0.13895717821358233,-0.19195382515690362,-0.1410672434838995
0.014538310771610219,-0.016800109582608958,0.05680771827281297,0.3429646797077925,-0.08623304351842252,-0.10631370986004482,-0.23540915687488312,0.1834765715683303,0.04455409957409786,-0.20276042718382542
0.15521521280320055,-0.3876857209064372,0.1936278903214242,0.056463635317113965,-0.06577764887911702,-0.13320967573682613,0.14321046510513466,0.3630800847415664,-0.06467991014737004,-0.258716400985178
0.06357152737412645,-0.4060305720906809,-0.04708209105289748,0.17268612607512154,0.09489687996994986,0.006891263100697276,-0.016929357596743962,0.3646108429871592,0.14218270795839485,-0.3447085466291888
0.36101813894752227,-0.2981821289174119,0.05984615974883067,0.14935595516945174,-0.07503243151517418,0.22719154734972644,0.22965178065516556,-0.11097004392514076,-0.24664971617282402,-0.28325399030290394
0.15364471733726823,-0.5530029093235348,0.26703668840803674,0.17082466450897438,-0.044413148838006795,0.06889083984715359,-0.5551991384375403,-0.2294367681621921,0.34131557955880226,0.40999976494793305
-0.2026061719806045,-0.46874511917453393,0.1894054060915197,0.1434446513829838,0.15903290526462743,-0.1148165353462287,-0.25324548034789823,0.07593078663127334,0.30790494281738123,0.17459680754952842
0.19324670942563077,-0.0613420719485242,0.16503412232204281,0.17376082901647416,-0.4279952952180014,0.025496215845870487,-0.382830201722605,0.015307334621765433,0.04490747587720521,0.2635171332727034
0.26554161001243387,-0.18388904062194486,0.11654087455785274,0.020526705871339496,0.09964820113677092,-0.11199080035643963,0.07105739816508598,-0.19539163217076622,0.2740338631306113,-0.34434773744972713
0.07710139656502425,0.23327222763628622,0.03194933289459196,0.17627652448543463,0.09284410702074194,-0.26533632512102223,-0.33372265872317847,-0.2688169244960554,0.07902656930796292,0.21465838415110763
0.10232043968364522,-0.15756620279778033,0.37718451715002266,0.456611795119351,0.06612822929971822,0.07241640916234943,-0.2987068430795891,-0.19045916675920607,0.14650797172029734,-0.5330338235562789
0.2618636955111527,-0.37589708584953596,0.10915022945750076,-0.13761457062304058,0.037481795407753954,0.2295063103697484,-0.004535799501125917,-0.4743939528866171,0.5070044336355326,-0.1926680479212865
0.3545077324113473,-0.05754600611005629,0.11130739790430413,0.03852656976203941,0.15180434802055093,0.16269010857867824,0.237190968364956,-0.41013522891335913,-0.24171384754543554,-0.25949382260272447
0.13549038563368418,-0.09395582140205037,-0.03419019719822595,0.26542553351136117,0.22721856623445566,-0.13806897771748364,0.36072009487957984,-0.7128210924578233,0.12116715722917129,-0.1683687393064349
-0.13463712153974675,0.03782484768839298,0.15614443209993661,-0.030483571235000954,0.05897471985889601,0.4724246297241295,0.12404526020765108,-0.7540935108320805,0.3216618872000629,-0.21783783694176412
0.009566703763090377,0.34122682570504653,0.11538882265138224,-0.13142579911208804,0.03430610516755772,0.06808486876486891,0.2185888968779944,-0.42575741024128394,0.1233320688449645,-0.34548857802871036
0.07009166451441201,0.30862649877618664,0.001147656690276097,-0.08644250381462376,0.24847635320620742,0.3218916558951377,-0.16323257005778774,-0.24830857516022084,-0.03227261623577289,-0.4882761157871717
-0.2413851890068581,0.1383425961330848,-0.22851265402075435,-0.30362818178419976,0.6029302540903931,0.2767332204408382,0.4547415052044995,-0.1670531934882646,-0.2581841358888698,-0.32787771053736
-0.28563433049081877,-0.10154482069279029,-0.34796386190558815,-0.14826580762956657,0.16233665463593128,0.539155829180421,0.15446195549924177,-0.038899129336908894,0.17627004562834372,-0.12694600774627815
-0.20310327173632756,-0.3454856492253416,-0.07491824080970101,-0.023082825983056016,-0.10060348615746545,0.48657503531947516,-0.0675085549353217,-0.01657777411241652,0.39650726204264447,-0.05100671690274671
-0.05093707625748526,-0.05932368755791199,-0.04180002392493626,0.016965992332698316,-0.05950162327405619,0.1391631002792546,0.12686384327259564,-0.008880618919539618,0.01778152455501393,0.002091324608186748
-0.008783951680338943,-0.02227208008869337,-0.021421345061317217,-0.006014206201929707,-0.008346401031568954,0.00891029813236736,0.040218666702896186,-0.004468262882042984,0.0011069657249646,-0.01391503117985739
0.024360565742921576,-0.0002625521057720942,5.686134900840216e-05,0.0182310089957705,-0.005542571479288324,-0.012355673250673138,-0.003281617881672394,-0.0038408762314982117,0.010583486975375292,-0.01694970315612332
0.008802227401849338,0.006459662402390561,0.006075021730336961,9.585197719878935e-05,-0.005186428920575127,0.0004376057712952252,-0.003424366514645625,-0.0037593320993901383,0.004801704289811368,0.00912618370387002
0.0019120781875360533,-0.04944585618469513,-0.02776649086758115,0.031896024147857055,-0.019201222235292248,0.0071628677358057755,-0.018652801859338566,0.05740652029761338,0.001194140645252907,-0.005415992629875888
0.011202680867292406,0.025180952161981292,-0.027956054471583884,0.23811808836183915,-0.09826648027536806,-0.26966159876219853,-0.07117525941753937,0.26513466431473737,-0.060341824370752334,-0.05660544027937441
-0.13379237570073424,0.034716362382114764,0.2357797256360257,0.22723053311075214,0.11935128999874794,-0.36076188712893564,-0.020111900729066188,0.14511744187597633,-0.1531663914221631,-0.1216489953522285
-0.06209093774913636,-0.024326970497200326,0.08566738416312311,0.16347703789463575,0.3022732584527108,-0.053787611732345794,-0.17664502774823815,0.39287114682991264,-0.1698905962676778,-0.4492544634567725
0.05989828576381267,-0.046134104025786556,0.14961983351873862,0.34038434180141913,0.06031962049050554,-0.09361923198785818,-0.34940318149676725,0.5290418692138186,-0.2037872200606386,-0.37926108412044596
0.12681758636312487,-0.2987691521096021,0.1660573064939706,0.04325814094346346,0.006221500453422903,-0.0034471126514827584,-0.10126070558707197,0.42959037721849536,-0.05583683560919768,-0.30290833760936164
0.0076063511148006585,-0.3969958731196532,8.277052637667587e-05,0.14745746904113727,-0.0074977644597386765,-0.033202765487272815,-0.09206555254812356,0.5212618805678588,-0.03996678908050995,-0.11330627573143677
-0.4793944576927193,-0.4421000140288798,0.2119112620679751,0.3313936847612264,0.15993783028123126,-0.07547117520524145,-0.18219323188617298,0.27266302826249594,0.04657856589810133,0.17817997196738014
-0.030388404000161892,-0.18186030559088676,0.3525772426359352,0.3943850239572985,-0.20983200242723282,-0.08207867557873481,-0.4964934776994275,0.36494770746172034,-0.05979925125682033,-0.06143132890626446
-0.06271499082989157,-0.011680915088394589,-0.15697875934352862,0.14849960324861028,-0.32955086858603777,-0.09404638861441368,-0.28611107603132085,0.5512005107171273,-0.09953930447295975,0.3128204474984298
-0.29754558671689807,-0.29771261887226586,0.027402920045912795,-0.057078880526462275,-0.22938095250884788,0.08550978440028728,-0.1949115410276687,0.3377504609272997,0.4602819936452157,0.17073912407979258
0.40348374024836337,-0.30298071236743773,-0.0499395995575594,0.5136879054630683,-0.4378503711713035,-0.1361888632988365,-0.43729633958863995,-0.0341798422732909,0.05766398916102837,0.42460040048924813
0.27170771950965167,-0.30739603690302997,-0.02009946551050251,-0.0032318954216488237,-0.43697206568294067,0.2626622631481686,-0.2824763285429297,0.03249119344224545,0.03043488647794452,0.4376605608340495
-0.09160619543483788,-0.35449565497334706,0.16514760753785085,0.17080238184877802,-0.5636270342332533,-0.020265865566718836,-0.0181740373316853,0.09503841549953802,0.40880886915337,0.24901825558609808
0.21480200580293116,-0.263097082321832,0.17211163857790288,0.27838093758443316,-0.4439178569503234,-0.10313963592037202,-0.3334688840770395,0.10545834993013282,-0.010474895482217517,0.42486824391438965
0.07093416912692145,-0.5038217216270646,-0.0796696350360815,-0.08983019610683722,-0.23395773492035726,-0.0007172360076207365,-0.17166789701701465,0.21598725882923478,0.3113740302619738,0.438050070358183
0.25081698154255994,0.0029170770610643785,-0.013516501231588792,0.47007555740957446,-0.499342784365202,0.056743011929599664,-0.5024498098873618,0.08936168952333537,-0.2712550561383771,0.4219048974110597
0.0027807275152702663,-0.29218887514938247,-0.11430023138499892,-0.24176388495459822,-0.10474228770419475,0.42006629150698105,-0.2814469028330154,0.026248512699205064,0.5342707917655044,0.08462006351602122
0.093857140347929,0.005553184120183357,-0.19563436629138323,0.0953700417638175,-0.1873885878891658,0.22746077680326668,-0.1993422411608705,-0.13528458409128244,0.08309942787354252,0.21639346952859498
0.4425666511220404,-0.017654679559533433,-0.14512501950845136,0.17577657232779004,-0.24836660640036137,-0.12398211668716441,-0.08252807997229458,0.12132898472212436,-0.08266461796208055,-0.03155950055437666
0.5228400247613606,-0.01972970741453122,-0.22189142141005264,0.007878553016443803,0.06719789376186769,0.268961909631412,-0.1046457648913236,-0.09330458246128047,-0.09196394153060196,-0.3330277096980277
-0.07078047266023188,0.12204163922101455,-0.644389908241369,-0.06791284946445908,0.6231392146654229,0.18500007073145613,0.2763962684883521,-0.43895097760260776,0.3399643185664075,-0.34236624690334344
-0.49582190129119186,-0.05978851915440901,-0.469640255916261,-0.07758816923874709,0.10152470370859909,0.9420447156147677,0.27071481357337435,-0.15380631888912077,0.1498033550919391,-0.2609085243573856
-0.49082393964761367,-0.25205851838902665,-0.08045879640289678,-0.07618715425440384,-0.026369830671072042,0.617340705691338,0.03812804416444319,-0.05521095903112277,0.45317395048849,-0.09416413975427199
-0.2301526850854833,-0.041989441007123894,-0.01689228485845836,-0.009364567994557468,0.04202656346748814,0.26847734406723744,0.014055082713667951,-0.010396833476871118,0.01906016971417049,-0.06619555372832099
-0.06754608494349638,0.001944684119805525,0.004158702989019103,0.0027954495469712758,0.004557633573617571,0.05643645168001175,0.08490600794919133,0.0015281795865789846,-0.022159790699889576,-0.002921395116586667
0.01035957192172736,-0.00038052503755031344,0.002587614916725512,-0.005039367862079469,0.005457006150888886,0.011402326217417246,0.007405921101467298,0.0035818234617529835,-0.013241308758355882,-0.011687290006363944
0.0045826795238335955,0.007509278127000452,-0.006853318140194804,0.07469096012438052,-0.011723067431802858,-0.016009689453108045,-0.014152242451896674,0.00020662987392719534,-0.008385593296225135,-0.04008252444428152
-0.01036288678528172,-0.08734989164009029,0.09350846425969052,-0.05091114474230923,-0.02152288673457465,-0.027635813706510335,-0.01754073400273902,0.1487453392906517,-0.006992362329967262,-0.019119684210033946
-0.021554627996920553,-0.03075631705429583,0.07334253811855498,0.10987658688694589,-0.04485298334193503,-0.28328554426902164,-0.13083675064564532,0.5181126063309365,-0.05911946315941668,-0.13332522171088296
-0.14655369269131635,0.014666991172905968,0.49339763208888804,0.40014500427340005,0.10430673272485486,-0.7968831926879519,0.019140901721134664,0.30376684643844104,-0.05048741967014001,-0.3685311033682982
-0.00871523134512177,-0.2689716017432814,0.20523896352636664,0.49241781145424646,0.47379985445313294,-0.26689434350784963,-0.04898355219940725,0.05595156413640266,0.010053360610409878,-0.6342958378890032
0.2024866340206768,-0.44959221977103647,0.3666537970692322,0.27885285051350045,0.14443367334866586,0.0663177213985921,-0.4664932903103525,0.3097800467834563,-0.2034513830122395,-0.21526425418381515
0.02698150858809513,-0.25659321752482683,-0.11563833991593715,0.11772422186019835,0.10595966990706855,0.05375195185191501,0.045490170196728894,0.4530547254499397,-0.08848471206110255,-0.3347812647894436
-0.2994737125248024,-0.6388857388447566,0.3286080626464268,0.21650489982265783,-0.02660841571044989,0.4547650776634191,-0.1979827174425241,-0.13830532098523587,0.3569384530200008,-0.01957703140230854
0.1506382987979172,-0.25622094738922147,-0.07928464509547482,0.1741044892175454,0.09792444597104898,0.01070812011704446,-0.10543566359142999,0.24842776259547789,-0.08666690581913462,-0.07301248456372982
0.11628771213316931,-0.10728431641628894,-0.17252765883571394,-0.01618572308842392,-0.30548935841139147,0.33624083660316423,-0.23020283732370161,0.31379101547616545,0.13213845458050344,-0.026570246769662003
0.19360173426475963,-0.30930023775244286,0.21537002249832066,-0.09098229202070761,-0.029236859095375458,0.09900403967457673,0.01108111446824859,0.14029881441361697,-0.2229183368057215,0.03808767667525486
-0.06877542091730239,0.10243594846142791,-0.19329144997892997,0.2530270228910509,-0.5443398740822002,0.15441852058045627,-0.1441269883428872,0.2684890170242985,-0.219879234511238,0.3649908572035906
0.18742885379271224,-0.30205331663138724,0.41299664019702365,-0.15353631039674473,-0.2889277218599881,-0.2916073381048459,-0.48207859719321755,0.3204131413381894,0.04756302171416077,0.5778193196049218
0.043517130812715084,-0.006648683551117288,0.05311961551548936,0.4402192064729386,-0.4158376011493727,0.2748518438561456,-0.07153644343485542,-0.1965332139715504,-0.46387483598400514,0.36547661770261763
-0.08657607891370009,-0.45992127535204114,-0.1656364986167288,0.22600678132536148,-0.30642006167634706,-0.34465622920282746,-0.12127021832064584,0.24262023931740828,0.4122183897637943,0.6028249428198086
-0.1088065353140364,-0.10162358592587528,0.08201185242011602,-0.025299673894479686,-0.4077266856901248,0.17990036124163267,-0.45051026586072507,0.2803567031267567,0.026119472371399076,0.5683973781249142
0.41167024832625787,-0.2572229115051023,-0.45889210493777705,0.2111985778546857,0.002223455198317935,0.011469519535681191,-0.24645814954114176,0.3133781725930787,-0.23202928720731147,0.253118049217054
0.3456767010061627,-0.29465264533465774,0.023939775081101053,-0.2370210958645287,-0.2332141852760641,0.0561651842665152,-0.3325766857037241,0.4063390992119017,0.1764120934757463,0.08503186735901536
0.14506244483192565,0.04002769861256203,-0.1860295525802518,0.1948979378041384,0.03225688656741681,-0.04914218509763216,-0.34975934085375887,0.09673852614895928,-0.054269922244658535,0.12362342611845345
-0.0048520154232852015,0.17831212958549555,-0.3065215224712387,0.03543962144872298,-0.028021455356630347,0.04938577414147685,-0.4270644332820336,0.43784128137297923,-0.1794429962021348,0.20707283219351658
-0.09325010912632817,-0.013924923134798817,-0.018282397373427826,-0.49100000565067187,0.10654655333541944,0.173205360125156,-0.14834676745627703,0.226323479779588,0.25077506534423233,-0.004126263394848918
-0.1266808819028212,-0.10136910415485305,0.3530418857553866,-0.21063565035545465,0.13881824540199028,0.32401941363824116,-0.3984680528282802,0.09765522941151544,0.059715628975953776,-0.1588919851643577
0.3355551561200234,-0.18388413405196116,-0.8877623691783406,-0.18672885642880604,0.4523642496954292,0.3501153413855156,-0.11212828402478532,-0.0620619675015133,0.44378896612469515,-0.1151592831117692
-0.07414749976042112,-0.5538381826434431,-0.6062274182782295,-0.21371379657217573,0.2551077745058504,0.7683390341422822,0.2938173254637772,-0.07715320945271775,0.40368983938507097,-0.2147193531238313
-0.5052008624634808,-0.3318900866522487,-0.10577188853836565,-0.09950011995899703,0.1338931764297937,1.0828866540631628,-0.1495727294851503,-0.09988265396351581,0.2053238854771104,-0.1540071072809232
-0.2655301027861495,-0.026275119584457135,-0.024804350930774727,0.005205022639306452,0.16881946493182523,0.16316769990668906,-0.01397977628130502,-0.011734292699332717,0.05780945077647979,-0.07357294950087383
0.0029550948137914454,-0.013878513718867974,0.005450690814566436,-0.014174342712841598,-0.011583751097610048,0.022791624796646384,0.047882228461333484,-0.0054553932513012075,-0.0191078597591536,-0.006326388490711817
0.026799241358817574,-0.0033610573344207864,0.00794836658285412,0.010610206222902903,-0.007150306003094275,-0.016041521549958977,-0.018037642654923792,-0.027858130996565172,-0.01577567671440997,-0.0033805895881773
-0.005113538288000789,-0.006571551359910225,0.0016792882208378102,-0.02490871817814544,-0.014048173227766005,-0.008933671707389255,0.00310552068543011,0.09927857327111919,-0.03241418863908457,-0.0581038333527591
0.0014825476605720134,-0.06261226091087564,0.021331500962796474,-0.03350217426796105,0.06038002152072485,-0.013302829078376141,-0.0028209693391990772,0.17229487453465064,-0.01226282535916882,-0.07900346527967714
0.015647299878827257,-0.008210732495233092,0.028435031926652227,0.09870932001782104,0.014396784591576057,-0.28149681155149275,-0.09852412899885615,0.5781506960286165,0.03269715553728733,-0.3774746501310194
-0.15190483257251217,-0.044497123681866195,0.5691803744860476,0.4594394721757771,0.05915000381140085,-1.052171378361379,0.07420130191078886,0.4230496218931852,0.06409281490774286,-0.42416785027118015
-0.05778399228260843,-0.2684811654067793,0.10762998696368922,0.13282926647341148,0.3641228624430215,-0.28023202035591166,-0.07775002003992636,0.24841732333649288,0.11042244885688066,-0.3012524810410909
-0.040453518897117687,-0.4226178371576307,-0.030881239566961986,-0.029133065519754864,0.12538452795698773,-0.04208985732607579,-0.2846184556860725,0.26211059855064184,0.33869354446988525,0.12379877331024156
-0.09588686198981514,-0.17675385342529817,0.0945109587737484,0.06151762867031773,0.19453871159847513,-0.354937753960809,-0.27534871826900825,0.7573301066728684,0.27013376973490116,-0.47676922541364397
0.08666558757997167,-0.40781887919783577,0.06497792900116947,-0.18766281501876222,-0.2347687402580781,0.13446633165676503,-0.25601997290583,0.45805564258900966,-0.05416818708678861,0.3919035697911481
0.30274179563635467,-0.5769130425870939,-0.11590452413157563,-0.27443520139474387,0.1749131104746967,0.14239540567659917,-0.05360400996001016,0.31396188960802307,0.17359879980635093,-0.08286102487462847
-0.0774151735844249,-0.15709641464858415,0.30937048861767785,0.16321869142128034,-0.22587199115590179,0.10983292353790108,-0.2357605257575837,0.026783444004013456,0.18803669211749566,-0.11862127931217549
-0.11302935771774078,-0.4117637823270653,0.14150777592386263,0.003916895422677806,0.0926430159758626,0.10491561338628266,-0.1771302615966578,0.39385129003108726,0.018436455211370866,-0.04160903095690617
0.24733005632489063,-0.003627686704301711,-0.15484599361048543,0.14679948330221793,-0.23155579365902473,-0.035160180090495353,-0.2700566149987045,0.47518596871128393,0.24563490682979364,-0.3978658049724997
-0.13270257510394784,0.053880691357265274,-0.09942968892065945,0.13237284368291377,-0.3165614672431038,-0.037378732692361145,-0.05904839014541144,-0.11475241660109423,0.3630016224992909,0.2014903602560306
0.32650159831199493,0.020204328838854268,0.0594622421014222,0.14399884152158524,-0.4514826208472935,-0.12895411453861846,-0.4773147877309098,0.3003424278179303,-0.20600434834639395,0.4210841340410211
0.30035880724437813,-0.035181909945108274,0.04410393211795227,0.09558331246079829,-0.20522632901956994,-0.1532681649899922,-0.5926823242326615,0.48834266274529087,-0.13023901630835402,0.16103974497307239
0.6659885893157875,-0.45626441981489146,-0.14444747410223066,0.17185329613787564,-0.5491005295699651,0.019251912033849353,-0.4066373841522235,0.18619183094199737,0.3021709938829783,0.215558636183302
0.2718557059759242,0.22085011399282775,0.14927561036320008,0.009434064080160183,-0.24950462417955793,-0.014863158690916495,-0.2506946120924972,0.08555250923247609,-0.14054168236167322,-0.05221018136866166
0.17192013257648237,-0.19605244857164653,-0.3764142214655277,0.4200261142546925,-0.007749178188277095,-0.08210726992421663,-0.7756309922325535,0.4943421717283925,0.1878267006870686,0.17449551526411822
-0.13401642377770373,-0.046174305685238365,0.3679149086024888,0.08516382958655185,-0.23160984801914097,0.1530138478554913,-0.5304661123769069,0.08037787266138012,0.2681067472913558,-0.011608272796318687
0.24362030296429726,-0.2992196847835544,0.15314050003155646,0.08146836211112694,-0.12693960125814072,0.3634552830822492,-0.4649763086388311,0.3172563590672138,0.05847419473193648,-0.25754715559078034
0.24081787193972523,-0.3339480158148984,-0.15246469617445493,0.028022343299727158,0.07884424235148799,0.10890954400223755,-0.2625123251537036,-0.20919069281087194,0.15676446630989435,0.3316076996644975
0.18221207587893012,-0.23737261584277689,0.02829472879737663,0.47642677342186107,-0.3771300367620041,0.02566453394949617,-0.4344535681189754,0.2730352374821369,0.11051404363976958,-0.06290320618936947
0.5188633535726538,-0.6310045993813239,0.08982755577534574,-0.6848512435867292,0.20886930850130167,0.7462275038191459,-0.6021072444754403,0.21575904253880315,0.26720185753095366,-0.12411822491308847
0.2642899088781312,-0.7847535120720935,-0.7453723976606293,-0.599081931451168,0.19790362555826194,1.4084498614751575,-0.46193925491567245,-0.1456779051731756,0.9345966690325687,-0.0736481488883895
-0.6043877717640036,-0.3414785908836726,-0.2682957099751829,-0.11664786384241711,0.4272363664196205,1.1223338204448938,-0.36756262923234256,-0.1701916598474607,0.49402081260277914,-0.1542155360021445
-0.24712098096736543,-0.043539118260719295,-0.054679741517004506,0.0012217147927686617,-0.0386834494176198,0.30230655983519766,-0.19713592209321693,-0.022534144045585704,0.3613294300377671,-0.07921074362354946
-0.01781551577612009,-0.010471945036015664,-0.016282874885142035,-0.004488298970486903,-0.01399376813448599,-0.03185426342543355,-0.029829833173920923,-0.004023822681356055,0.11066439431731748,-0.00041784550938409
0.0055241193318726935,-0.021854097791122424,-0.004045687881962797,0.008595474583577751,-0.015746983064151357,-0.0035874797982168583,-0.00784365439347383,0.0021456774795078223,-0.0002654127865300141,-0.00895726345374172
-0.0060305023919655565,-0.01176536106439653,-0.01547624009512543,0.006543433911796988,-0.023362183405602564,0.0019337578789717551,-0.007933654835254262,0.12548532411418165,-0.006873099907533177,-0.066284220799885
0.01224687194074948,-0.05366580898882692,-0.08193333472890177,0.07886952852498012,0.03781634049248362,-0.018778497868657755,-0.03216156658877841,0.20791899389137738,-0.01830475526729648,-0.12952193031572723
0.08697997761820002,-0.01726177028438367,0.06048870735005319,0.3250537817008672,-0.21944235503614337,-0.31449341248283263,-0.11177838143574706,0.49930979004301057,-0.00457272707188301,-0.31947675194078023
-0.06251761807118551,-0.15536659763155386,0.2239846569550613,0.7669337629991858,-0.29485408723204043,-0.660285169358365,0.15868101935116383,0.42938928041048935,-0.02709520954607711,-0.39323227661123833
-0.04987776469901455,-0.514281460296102,0.5197051048675704,0.18712241393935664,0.02765268642060401,-0.3161776871870012,-0.2486013030310976,0.2599324456658904,0.06740708663126307,0.02462970606026975
-0.1862975909832487,-0.42643772253417506,-0.3556249195397745,0.19282220956922008,-0.04882811264629169,0.06190444373864322,-0.2869955580844811,0.3715574716401499,0.28407387321887695,0.4115961937068372
-0.22360000284696768,-0.08384061042258818,-0.16372504183577777,0.24556450846769717,-0.035101286428643415,-0.051732016327907214,-0.04193367839551558,0.16266225762607447,0.03817200103306436,0.08345128688163303
-0.24407236141957803,-0.13023325421665946,-0.1575361628885622,0.22444945544784864,-0.004326126306128988,0.07386874121264256,-0.26362833147209236,0.17207164207234252,0.2722892303262415,0.052906061241640344
0.034333849027089566,-0.3198236694383066,0.16397408386007054,0.17457649443917705,-0.0786470235064023,-0.17199229796297488,-0.30374227709090507,0.25345491247874946,0.21219426354431747,0.015438098332603536
0.3218400316382313,-0.1128363949249095,0.24080892872805973,-0.03034512276187647,-0.2743911285064794,0.07503486329059635,-0.44352675005651176,-0.09355158704904074,0.017797254741425704,0.293998413084374
-0.09757458723837253,-0.05694744394877857,-0.24366524900392253,-0.4483865185910176,0.015539413671843763,0.40569483181941335,-0.13872420910144098,0.1845532091338822,0.19662456858949648,0.15190788453108478
-0.04093495553350523,-0.1227946765939107,-0.018714283238857946,-0.18695146355887454,-0.2284089957325729,0.16823834892354209,-0.19286406951683724,0.7118278823387245,-0.234444175176761,0.12244181123518424
0.5024978130531036,0.028626129603752316,-0.010256728943691664,-0.21088875155491976,-0.020394002453437348,-0.08602409266447536,-0.5014076929231797,0.0636739885346036,0.07280458350948835,0.12297794422505987
-0.002983183771536916,0.052743567028701935,0.046446313734308735,0.3344070499367852,-0.6889241893683877,-0.23934869492033925,-0.22368550739156945,0.7126739806029325,-0.17961461842001894,0.14033141640817884
-0.518276508278105,0.5462682935381835,0.27892820644726063,0.4947627197421806,-0.2864400401299988,-0.47271459098518687,-0.4305013976389352,0.39928183279903223,-0.5085207815186478,0.5070836271195183
0.15532402649119612,0.15340733431050946,0.17626318646343525,0.33079791712897816,0.14790928659892466,-0.48155431181074426,-0.6124247024579325,0.2744242742418138,-0.0652860520339574,-0.06353998731939092
0.24859825442413241,-0.07667222211315974,-0.08627202250971384,0.12221731498414665,-0.16659597041065158,-0.13463486698338675,-0.9370855948919598,0.7576835416495799,0.16140946662814804,0.12438521768135552
0.2909867978134784,-0.16457276772246424,0.10007044008922607,0.01746948018020813,0.12583573751400748,0.02588381725616216,-0.7073440712620844,0.33219206030565135,-0.20508702767320378,0.14825133592047107
0.46409852771223203,-0.3734697521731015,-0.010637947514688866,0.3033776436494441,-0.08196168323231871,-0.13534237536588367,-0.5210873159933243,0.3133529755643966,0.07081703442903055,0.0018889582747541305
0.2797736145725408,-0.4477737585085505,-0.04005645891712067,0.4075413038921512,0.09666220501579545,-0.031611158343651344,-0.32420472440181164,-0.11183070793724084,0.011551304996153007,0.14097776254623315
-0.23813228057702332,-0.25562224043736526,-0.22419733697395616,0.14400792500041984,0.011996515116127178,0.5185709799041007,-0.027653494940124465,0.2868673576146699,0.1886574486320327,-0.3691712112515627
-0.3177892124575218,-0.32654911309540685,0.0342819331941558,0.5374579631271234,-0.04177859866916907,0.30625386568866475,-0.4375116952572604,0.2649686040085786,0.04986683293227851,-0.010179088001505002
0.49767960430745883,-0.5933004270945492,-0.03733647688872049,-0.288278837347586,0.16839358253593786,0.4308193002962227,-0.3652877485662051,0.09179379467443652,0.37608563733320155,-0.254192416112749
0.6552330591028853,-0.4294327194250589,-0.6709683489945334,-0.7074649348698943,-0.29162804359989564,1.5910205617983952,-0.4104457366084208,-0.03338715456679569,0.49998660163200603,-0.16605645263437804
-0.4735766414948692,-0.24489151267138798,-0.2092664684506348,-0.07784599691864252,-0.15412338362949488,1.359847537225028,-0.5654077343552549,-0.07571567493141397,0.6575342931103606,-0.2140894551466363
-0.21769057376808618,-0.016652892236428133,-0.006005332860356465,-0.025602434387022706,-0.1265491268468999,0.3215621479270973,-0.2704651735649875,0.03943747117475478,0.3856721381863834,-0.0987821537242871
-0.023557854409371984,0.0010209107981550846,0.0022423647296020465,0.01042970336920906,-0.005102296489677242,0.013570812438324928,-0.021245755843411318,0.11520625473999231,-0.08242777751102733,0.002301432494760586
0.016356189337261302,-0.010913886079012263,-0.009422797127472729,-0.0042749246647448445,0.002603860271083719,-0.005256742848249367,-0.007987737428082753,0.0017814084052445293,0.008326299218540462,-0.007008093588056352
-0.012027828357220889,0.009073204161717403,0.003269300370858088,0.004368413748997723,-0.022109994701935014,-0.0017834241017156951,-0.0016582935762376478,0.11278486184034549,-0.004003334512463497,-0.07090095069307993
0.07388223790052216,-8.09038139885712e-05,-0.07947332541765628,0.016217146051764955,-0.09608327661925742,-0.01832368131571782,-0.06650446647149298,0.4086729083734685,-0.021018673380523854,-0.18810904704691708
0.06867025786805553,-0.09618628480791203,0.10435063557254315,0.49513032171610255,-0.23567663182165033,-0.2864993130120158,-0.09883974688497264,0.47818162403860615,-0.1703156176099681,-0.2862938101762482
0.02066258626135382,-0.22419530329151613,-0.12407363006581341,0.32297273319008774,-0.24499238897251913,-0.17227859930795827,-0.06253568650396915,0.4131432168884457,0.34839102110882797,-0.26294769446877736
0.22218644005763605,-0.4809178997707118,0.5409932464745677,-0.09359407201964293,-0.31749184187306984,-0.13448194828728408,-0.25144093663536454,0.3608808261660657,0.0020199090527966484,0.14731277619690167
-0.07430843062253167,-0.6404340415875843,0.5966835383174112,0.1688138096796154,-0.34673461794593513,-0.2165566765563116,-0.2098092289447123,0.295291484637004,0.1586420004958924,0.30649592127194303
-0.15139967412345826,-0.3978040412579989,-0.01891597196505033,0.005586205388117911,-0.07590391947778907,0.3143180091972989,0.05139703272272672,0.08042092878706342,0.1825569751931462,-0.021284677366347992
-0.14219167116070225,-0.14712920682529207,0.06527703137666026,-0.20654986344928922,-0.03704256602570159,0.40615125189084567,0.019979874306999792,-0.14319759737336932,0.08751604754952182,0.10308139354957503
0.22831498989259758,-0.3110152441948048,-0.1710092081956777,-0.6405427095393461,0.15598606843775192,0.4682848651714503,-0.27056129895032865,0.2697721869363265,0.21476329297619415,0.08414997237152305
-0.22808941636622612,0.03460696386539064,0.04941317450962632,-0.44507701614965717,-0.0851841987410185,0.3371782024761386,-0.08176434396033866,-0.0587635905258114,0.40451937668488774,0.08839510161198172
0.22593998502789525,0.16717437472806349,0.14533366341035162,-0.40941058288128296,-0.01948264198252758,0.17717676367621965,-0.27128108901214587,-0.2693134069113132,0.19414316811311053,0.02329829375985349
-0.04728455099095604,-0.07727008140425713,0.14971048565143735,-0.5611739365592822,0.2864788551453426,0.416858651078784,-0.3337075784311489,-0.4004779212501377,0.43977434646456,0.12100144795022628
0.20205187975595545,0.3644851061001396,-0.21961657219897623,0.16066605563615696,-0.3691338611310813,0.16759876110399846,-0.13797006865112238,0.30856338614094886,-0.07147684485059345,-0.4369074921860829
0.28766972325339085,0.5667026198158008,0.13077893013783545,0.06949326697110074,-0.9650454690328608,0.06810387822587398,-0.3534055132676294,0.25743722713297146,0.015801423714241238,-0.04640994462361817
-0.1303717155805093,0.9035929794684617,-0.19488452036609036,0.032896049524192554,0.09461790963489318,-0.055272426013718914,-0.5767568110939463,0.503117849396932,-0.47466782316263456,-0.09816631460571544
0.1799156143713951,0.31326560977234635,-0.004203968972143545,0.2846221493051652,-0.45339904482965854,-0.26827846249923815,-0.49033051676644746,0.8041059487661707,-0.34568098966241706,-0.0019657696959836774
0.54065037541781,0.1913160189614968,0.34096503698826885,0.1674226599659407,0.01838157382134187,-0.5044891123055923,-0.46511643706321454,0.11012990974122935,-0.23748285196380228,-0.1924722524970007
0.40396644181321895,-0.27907603504971235,0.01778946547208633,0.20032172856866212,-0.03568312314914837,-0.44811280436246237,-0.44274977180762487,0.2395189028123955,0.2895425708671228,0.07935977316641038
-0.163305904675543,-0.15004034074883044,-0.21158990161372643,0.14563883034999503,0.21208295125664275,-0.39151689189008443,-0.49450566746049146,0.46126609152452497,0.39636234854857894,0.16879095161512725
0.11891455756515296,-0.5218060410556363,-0.03211553133478696,0.23322026360934012,-0.1591060757788643,-0.26929177582453423,-0.2829270119482488,0.6163537402984925,0.2050605476273338,0.0012701533053517827
0.10274302554493776,-0.16743189075173465,-0.05735133844016735,-0.1247859657000687,0.08165183120205717,-0.009501765517368355,-0.3628540481222592,0.3546701057975115,0.24005928797624035,-0.07988510054056187
0.32167477667367683,-0.42810585997639955,-0.1777953252998303,0.3447208971041542,0.06353207242614277,-0.11848365415657997,-0.615824810916983,0.3340138339745072,0.3049636366331902,0.0010365396515744551
0.5571703578044157,-0.48060131233088915,-0.1966170792221033,0.10516740864071794,-0.5623938257513011,0.641628392717183,-0.09491682177844714,-0.12295045196834352,0.294915448182421,-0.12469303613744755
0.5706710796579124,-0.43743031514960223,-0.6255307656565366,-0.48727268640171206,-0.31286550181615913,2.1064298833502986,-0.1601053014869649,-0.2074693422245012,-0.03885598246438826,-0.3993205553145578
-0.46942817833726225,-0.1270072525815923,-0.10547113543953947,-0.01984129695323333,-0.24871394957595247,1.850726051372348,-0.6421596138928194,-0.0036958010436491918,-0.11914177998832391,-0.09290591314601439
-0.24393071320671464,-0.04141492655597929,0.0792208166601559,-0.009490409617674172,-0.17101815324127426,0.5963566029659458,-0.28465931783928367,0.03200389298834401,0.13981005981919914,-0.09425932629715428
-0.009459595715362092,-0.0015222425110778574,-0.00703457645889292,-0.006855571626346429,-0.010438346725258644,0.019581789557894146,-0.026371360392840187,0.025726495112028586,0.019723102074993892,-0.014451188284968422
-0.007218161508085725,-0.006171409050584088,-0.0038616312752036766,0.00301724901802416,0.004893382983469325,0.016540505445475986,0.008101369946062375,-0.007865140915707221,-0.012168852299919352,0.0016186005640919955
0.02029777806372882,0.01353641093600661,0.001677925555043059,-0.010893027675828023,-0.042800026354612435,-0.015757758242766536,-0.013586885615454335,0.15298033294985933,-0.020575998770233948,-0.10125705052541628
0.004290099125204596,0.00788533135191713,-0.023323070775561346,0.00649068406679584,-0.21075617278251857,-0.028436799277048234,-0.000783559900519379,0.6325320886986157,-0.02093050235699968,-0.36049975558303216
0.07354610609051868,-0.08350254452763038,-0.07398664986724775,0.5624616912025803,-0.1454081938272206,-0.38024998579383984,-0.10690896050748139,0.5502781321702798,-0.01497504428379359,-0.36825031543684855
-0.24408550724212605,-0.15654106991273958,-0.16041476560999846,0.4313145732700413,-0.31322023663878745,-0.0748599854000221,-0.04368370888287026,0.4830113154833823,0.1697698950789982,-0.1091264214143447
-0.2091794469597954,-0.2461518360624122,0.2266179314530723,-0.23373692643381666,0.05350603399386146,-0.05818665106487586,0.008194661747781589,0.08236978120515369,0.2578721330653023,0.1505331650010513
0.1264606991642197,-0.5507916527639939,0.21203211997173035,-0.21914634806112876,0.22596873847300428,0.18815265167980688,-0.14684792942313116,-0.027890382664520187,0.0702462293638722,0.11192542342865429
0.10998813732806623,-0.4217138245194888,-0.15321156627894286,-0.649145919904815,0.021783460263261917,0.0806803549218935,0.1737439764833201,0.1603121583159882,0.5621640102555368,0.12228934847997769
0.07809902572443687,-0.3583293036135868,-0.5483012510971357,-0.4090370544687748,0.19211272054532122,0.21923354529953734,-0.056104866592907296,-0.19607774575953793,0.41311712462491357,0.688461898222771
-0.32367788029482625,-0.40061600998663455,-0.559654196185008,-0.45008055281257564,0.5270156574791247,0.058024494633292255,0.334127323788134,0.24807260158977337,0.3804374930508913,0.23886459465303211
-0.08342195385334808,-0.2002566778448262,-0.9215381997914446,-0.4758886488960501,0.5916065791900783,0.009297587513006154,-0.01680355091951657,0.4876225991546492,0.21834547280378916,0.39441398042703474
0.1010905539457375,-0.10254378629869448,-0.6385026426988272,-0.1482557116504767,-0.01641393529973905,0.17194408425412666,-0.18274275315889493,0.30293704120199105,0.15069924153405273,0.38341907993056096
-0.5531635314380694,-0.2255066403913684,-0.7655883653526632,-0.033616022059977615,0.7573910313194316,0.13440739008003405,0.1783063066912325,-0.00643728160293912,0.17297295146693778,0.31985265718101874
-0.05302239129248806,0.41973674020787394,-1.085356278235883,0.1600531949644674,-0.9506129262033424,0.5614254619245532,0.2402998790380336,0.23032027177620995,0.28254959299319216,0.1632725805525569
-0.4563817909420083,0.6611852595393296,-0.6087633645146481,0.22481294607483845,-0.9672689634053446,0.04044911017377483,-0.16452354587209345,0.6060838374415187,0.6833807693526885,0.012679000041431026
-0.8019936498052938,0.7187102155451881,-0.45599671387344337,0.26696142118768423,0.4967725201416996,-0.2696692679500481,-0.7774801803345743,0.4572419562626012,-0.008201456703768773,0.34254638585463976
-0.7272703626068028,0.233379013175785,-0.14837871375198572,-0.1776399231432815,0.4658675967460384,-0.1785778388169201,-0.01869136728450259,0.377650093234553,-0.13364612407737284,0.3232216126107857
0.09151866856083679,-0.1973404786137223,-0.506573982026403,0.41774262047840616,0.29617297000980386,-0.21103608984641217,-0.509524724506709,0.35658602828124725,-0.22925428108529333,0.5447493683744408
-0.3866864450421954,0.05984048813156179,-0.030982328979160836,0.034113914991767635,0.055139569335976135,-0.05162228860405469,-0.37110111260769435,0.6802621476323193,-0.2775136303970317,0.3273177965189139
0.01777603884270864,-0.229821664928922,0.38777347196986844,0.07446512138677032,0.024942414147462344,-0.35716544164111463,-0.05035639709118519,0.1684820339287884,-0.09660959026277743,0.04408963993326329
0.2286185210418354,-0.15628759036886747,-0.1921951697402323,0.3894884016231441,-0.27112342108275345,-0.7956944362500412,-0.17520152449711743,0.43237332090682423,-0.09798750199257938,0.698238606484767
0.5730670883971966,-0.2577193070839742,0.12338099981603345,-0.13219515682454147,-0.3234756360535367,-0.5393019976991078,0.015015917457031899,0.23105643403456388,-0.053448655996192675,0.3622549883450467
0.33514742428436467,-0.31374686085165066,-0.059962983941621396,0.21076599448133368,-0.19926152158473473,-0.7621471905214418,-0.2704248453222165,0.41230733410760934,0.2607583504991512,0.38180455278814074
0.23530863597743512,-0.26897375604934437,-0.16801413051761147,-0.17721075989960053,-0.6156499362869076,0.434718206269624,0.42518075973499325,-0.236869262747467,0.4523854345279123,-0.08139789968422914
0.43959236471289626,-0.28600861087370266,-0.19592225555515563,-0.36403701011618617,-0.6539204061299901,1.2492553569767444,0.055499408337102374,-0.3511905912165276,0.506370643407567,-0.3553621468588361
-0.31267308970915747,-0.11337917824296377,0.19134191392197133,0.037618793284480805,-0.3445308460911647,1.579122892329657,-0.7390892635786823,-0.143144753268509,0.0021855437817853503,-0.16978394033816205
-0.18632065952377933,-0.059937748880520475,0.05225234105821964,0.0027283242104315267,-0.08315261749353482,0.4453652209079013,-0.49115190936776953,-0.0345448066961689,0.36240729014122536,-0.04047842336376413
0.0011499700821366197,0.0014966195821264645,-0.01724191340176997,0.0008547975278956542,-0.0008401250348456329,0.015509181315492752,-0.010535204453170396,0.0207891633799858,0.024647902207161933,-0.0006487164787283793
0.009954348709404834,0.001259912859401621,-0.012212352085237048,0.010845006604317902,-0.0043996313681164065,-0.004019907402984784,-0.0016747404854087133,-0.00964239573931751,0.005364560098166728,-0.007291131555134339
-0.003015680147916634,0.00472478706518631,0.03156506193380402,-0.009049081375801685,-0.057741201374099965,-0.032920196292327314,0.0006214089573899672,0.1243860102357661,-0.003557320996612989,-0.06165957206047718
0.0039714426710688,-0.0229869767881854,0.007598459180877237,-0.025523499735949154,-0.22572904323173745,-0.036122550994617704,-0.0007058253063441658,0.6235650868765151,-0.026473762415029835,-0.3063238759699559
0.009765289025823996,-0.014066071403628123,-0.2795517446480049,0.12800752365023793,-0.29509830542739096,-0.1734189603902021,-0.09380966468585404,0.8197637957937048,0.16779193383681582,-0.3008388904844824
-0.12149672562130326,0.0210945966752236,-0.3458354573091013,-0.011373981909359766,-0.537903810105943,0.017868742339815554,-0.09242809748802508,0.6089907842950985,0.090301069812371,0.3527481881426784
-0.050377998039781574,-0.10946978621311095,-0.5429763611833438,-0.24879029200111227,0.025621539393761373,-0.013221834740996117,-0.06636956140757534,0.1267576061278773,0.4750520795216191,0.37999785937869407
0.4035858720857725,-0.06820327803955965,-0.9861885919260542,-0.4320766478793673,0.11762728681424509,0.4668754874592592,0.11118051490112603,-0.08287997662732674,-0.13850693492017385,0.563842387599685
-0.028159886105431964,-0.06925763557075912,-1.3314035189974667,-0.2868790889111059,0.5059274625329739,0.06683420008793117,0.3358053111709658,0.40994828918035026,0.1664905819584606,0.2153523099251886
-0.12619128321093678,-0.23507103870655097,-0.4681482041940448,-0.4821799606038444,0.4479001346043728,-0.06856584200661542,0.2598912979685954,0.7607177873324601,-0.23473971147283332,0.15244038373102706
-0.09975073040921227,-0.08007132767742431,-0.42153619554941385,-0.13698662775364248,0.09191146099264398,-0.10509571481462958,0.2346543914766678,-0.0945701500426317,0.18303012853796566,0.40772126636710937
-0.008167454882879921,-0.36684339572606833,-0.5285021449623695,0.24254309964279094,0.5203556981356484,0.3840166257365748,-0.010710782235442903,-0.2658540590213752,-0.18228866703213759,0.23680175040305937
-0.007747950005848775,-0.4775666243180654,-0.6761653262834071,-0.2513814676591772,0.45370990966486796,0.1212642253526753,0.45911967123615444,0.15877955821265877,-0.05632433323277778,0.27728289578686915
0.15800517507616593,0.04737233687578452,-0.5208210426705456,0.15306478483749403,1.0292923492851573,0.1320124019731351,0.10531298504736343,-0.776085502325647,0.06368488085355486,-0.3679658875552809
0.16745747859012675,0.2104794408643885,-0.31523591610971513,-0.05150942081849982,0.20401652930142578,0.32168749183861284,0.19395421863736662,-1.1490329727644548,0.4076292978272627,0.02591346913537408
-0.5181032703620058,1.032726469251297,-0.42683000208232547,0.5536014009535045,-0.6217260994394503,-0.1487544232969538,-0.2558431186779604,0.00481826769967607,0.20865059794808613,0.1886905574063263
-0.9003678503324538,0.477003585907645,-0.5162898293693023,0.09789867879835164,0.12332125039274691,0.11285396363347898,-0.46252881631168047,0.5385022518896082,0.07975792869770094,0.4224266788050033
-0.6539610394671727,0.16832839054971652,-0.27969759780421316,0.19078444432514743,0.3292002938438821,-0.3439986622621123,-0.041593268350230424,0.48696817269604,-0.07183493447895263,0.20609420889458052
0.0022972949718593197,0.051369754472508244,-0.27953361923646364,-0.09293957717914349,-0.0515368791201232,-0.4715798236853266,-0.09255028396006086,0.48246531645845414,0.16397649684419163,0.3165963333100105
-0.07448957406081552,2.632058778727663e-05,-0.39068540483158887,0.22083780713535425,-0.06897258996969823,-0.3007730056896957,-0.23034849784652214,0.5120693181644909,-0.0673481296100253,0.41124303653734384
0.20483632095292031,-0.3594983091260385,0.26250544218230887,-0.06321117593425941,0.1639500158986524,-0.4218162297678187,-0.5543272456623382,-0.010756251927463309,0.36876140457131096,0.42007448137298736
0.1765955327323403,-0.21350429050408062,-0.03624367994512059,0.07958710033805502,0.14747214537988831,-0.2361989950211324,-0.21952045951673008,-0.040208763750446026,0.16524104406120602,0.1963571527848453
0.06061256911750215,-0.10847259708747026,-0.05265855276993334,-0.6768497506076003,0.43991135702854994,-0.9366913032998597,0.11696812416491933,0.07728615905166528,0.4979635739316425,0.5231442289003584
0.25017950256045596,-0.11176456307659335,-0.09763479835509739,-0.5355480436521315,0.10824190924601643,-1.3490959729640009,0.48262599011330193,0.42467183791347357,0.33100005108392005,0.45892646112654645
0.4276442732758527,-0.057239941752122624,-0.4759126520588623,-0.40979862833916925,-0.2334952837573934,-1.5024577077407635,1.0101871249274088,-0.27776571355155816,0.8988246375928374,0.6381457779576691
0.8479947791438333,-0.09495054081393635,0.27814727968008507,-0.18488119135983525,-0.033152055843067116,-1.5778200386422374,0.5286724308046233,-0.3747185168274852,1.0550770399467981,-0.4215588179258298
-0.04532740604617543,-0.0747171049441817,0.6556169519608026,0.06562704724532997,-0.1671773048657886,0.07958191718855333,-0.41168951267978376,0.03431951867846777,0.12687379248975394,-0.2652733650320111
-0.1284465969139539,-0.0931236774661681,0.43898729607406944,-0.010673791060839495,-0.12624038731955686,0.3661219970493965,-0.54701392365645,0.0760743461131642,0.061452795609366076,-0.05465167403552029
0.0027785969840455576,-0.007584648148563534,0.032940975638507446,-0.017359967262353598,-0.056822660877236586,-0.01205538480927524,-0.03511574267774708,0.03765319858189468,0.0009954875135368766,-0.004090966029889713
0.008987042192585188,0.015935635659212105,0.0033892515516573915,0.018107949838235268,-0.004588040169966952,-0.008729613047909385,0.0060285099812002795,0.007777895247966715,-0.020973864254746268,0.012199623137226926
0.01906916875897674,-0.01042403050934951,-0.009400007192257741,-0.015983052644353724,-0.05156404186504042,-0.008663994357206281,0.004707746525748029,0.09639388330808983,-0.012257418482486323,-0.02440152125288563
0.010125535066237062,-0.000781933832477182,0.0012365510664618664,-0.008586990877196022,-0.15066900436601535,-0.010650329707126316,-0.004004528555937026,0.37037013096310434,0.008208140536202219,-0.19798771851188107
0.0004613135499313967,0.019382226842279603,-0.2566847596953566,0.08588038234144607,-0.2811068378090649,-0.042689029364830364,-0.10918916278374521,0.6325607662505686,0.08168168213016254,-0.15700006951149295
0.18015615883152622,0.09105991241906745,-0.9938342976715246,-0.2895577544552003,-0.11595461493041737,0.11609177188185642,-0.1317196183240898,0.4448291559219845,-0.16921391220258122,0.8652907462130507
-0.07411120517456249,-0.04937217060200828,-1.1072731539870417,-0.22973483802237157,0.19260681411881053,0.30394352548397086,0.2388273223668721,0.16621690336313646,0.13005581602246724,0.4505659589804224
0.4146797820646055,-0.008244012784513595,-1.2421174537518496,-0.27261606989557835,0.39663764492196985,-0.25238522841721545,0.5930687889811966,0.4185875499428583,-0.011596193616266579,0.012834888182064684
0.28119376837470794,-0.14501367617242786,-0.9077454683653823,-0.28028716175778695,0.30411147734863075,0.2584216741567809,0.0022062879684447726,0.052528240468655625,0.0862258022695862,0.4046094152137345
0.13340213473462237,0.07474055454975151,-0.3266167466828844,-0.21174189909484278,0.3521298124689191,-0.03507340239551828,-0.1201090545395112,-0.18777097946384336,0.008010698441916127,0.2761327907841834
0.07274101596606866,-0.02751388583492416,-0.31211147278186324,-0.14829989330424748,0.47416089560731534,0.10570918380450008,0.013837577696601757,-0.24373014732859855,0.14297977648245414,-0.07857162404381221
0.35414012575990933,-0.874748602894137,-0.2144549646969928,-0.1846024348636724,0.5822272360702909,0.06594971252898243,0.3190970576478617,0.027143224748054168,-0.23648394702889658,0.1377835653969011
0.01884141691642387,-0.6672700408703267,0.16816375318516974,-0.17799656839036182,0.5518345917046477,0.2744893525965495,-0.20434159735634017,-0.0744498926749118,0.12411535746775333,-0.01081160375755972
0.07205913745175312,0.06891586511921714,-0.12109570463396309,0.08126896745943148,0.5170812196758218,0.552301557603087,0.12241615641488036,-1.2273425647418652,0.2612669819775492,-0.3352013038824944
-0.6635138972923393,0.27848035583464675,0.2216571976173379,0.3863368784665058,-0.4121113770400741,0.32005056398706433,0.21838185131791163,-1.0892955690560902,0.5930742677868678,0.15271833527709244
-0.740764263753238,0.515749454159481,0.05093941409533463,0.3343315611563656,-0.008426109130545749,-0.1235334915697424,-0.2513790239604836,0.08370134646523567,-0.1349978796109181,0.2563951974695086
-0.9204332038310868,0.430475579213101,-0.3385220967441688,-0.2326107253709987,0.4831410913236193,-0.2915060912521682,0.060780116465604495,0.015870138681800136,0.5005343192003323,0.34314527174484555
-0.5739133401402403,0.1679047508648499,-0.19715067940516856,0.14666957656516078,0.17739063130322072,-0.5150557589276427,-0.04253809460121609,0.2666850864502109,0.12309278102471348,0.472140295440706
-0.19292984106594419,0.531803732886797,-0.056824921269935026,0.008851167038005463,0.22192578098568388,-0.15493342939222257,-0.3394948146747504,-0.0031378799115815096,-0.2750094993009778,0.29085048519128687
0.029388587507920325,-0.30978039470723384,-0.2387759464199283,0.2352245741493999,0.3384439882096157,-0.07269943397211535,-0.10234195137267338,-0.11458560778142071,0.03507409668039352,0.23221484904029774
-0.044004298130029866,-0.4471498408476233,-0.16919114020911316,-0.0024865215762779748,0.10121306984472357,0.1283558289843477,0.15878080492251953,-0.3286271476243512,0.08490983175845582,0.5636336327901007
-0.46185684907415553,-0.22723636588442706,-0.26328713170267115,-0.3964469618335285,0.40580212969447993,0.02670547620585931,-0.15058635935931672,0.3137152801240988,0.40443678496084473,0.3463665027995059
-0.2082369661314796,-0.14957373825765685,0.023206751336616333,-0.6095153218011596,0.5013161255378685,-0.2576622692104496,0.35159114805657876,0.291577587952734,-0.266920151160533,0.36242730594982914
0.21650333384011528,-0.1998262224440561,0.03435278756853186,-0.9010233182128604,0.3492934891206386,-0.20138430180662492,0.2718080307942847,0.032188977755463,0.1554761168497599,0.25287261245828035
0.4825529648397493,-0.20911106616988254,0.06313260709862414,-0.3787368664623489,-0.0923579724262406,-0.8608872278421257,1.060968366115122,-0.26223377190205766,0.486879874715695,-0.28577686284321313
0.6020312373362434,-0.20409163522596194,0.9055976091765209,-0.10897852120996918,-0.3501620135073518,-1.2348636392242307,0.6002599917921528,0.043848973317087266,0.41496748112660886,-0.7034782779500889
0.21449399828878354,-0.142983138458301,1.0271482299815162,0.035755237628079146,-0.054714954371982955,-0.43624536155768906,-0.4643972507643241,0.06270499736117008,0.1418759083499407,-0.41182636360169317
-0.05183010484624584,-0.06356883631149522,0.8809606106533628,-0.01869011602064916,-0.06513321520226859,-0.041947925022414054,-0.5168622744190035,0.031798506542584745,-0.0440409338944076,-0.11292043814913996
0.0014855200072500863,0.002623598131336096,0.2966885395850899,-0.005026269149216423,-0.08029152483834964,-0.07784508406140074,-0.08565411606297033,-0.016058850433904107,-0.02897205591471981,0.0014827095740606304
-0.0019355868938421463,0.021773408383479163,-0.0010283733223948504,0.006891627317805315,-0.00903672995944309,0.023655191961461524,0.001562980267446063,0.010376971851646079,-0.0033768365503467914,-0.007042406659885624
-0.0019080458504768393,0.006173474636938329,-0.04022149023292873,0.01982573143646772,-0.020714202432531047,0.014909628963478945,-0.006516447476734201,0.06407470605094473,0.0012978155606191896,-0.030828127923337466
-0.0007285979957915374,-0.014078818641438494,-0.0003444088501024213,0.012319453325382665,-0.07866988340806667,-0.0018639620175559968,-0.012085984867874948,0.21230033232204745,-0.002914364473726477,-0.12746436552375437
-0.19728807262808146,0.03992068984199916,-0.188743854460103,0.08490302640590455,-0.03155911292956581,0.012003042172784096,-0.06517407889384515,0.32560649340549636,-0.016949162666227455,0.03135541753762208
-0.05333835798244417,0.0800022748847948,-0.5289396491783259,-0.19223413197526343,0.663269770063013,0.12577527114854578,-0.41744604782070693,0.2740865522441638,-0.3609125105093315,0.487428449492098
0.3727628397488451,-0.03987667034008399,-0.8132466091652616,-0.5111578923072649,0.6395068660506439,-0.12624650329801354,0.19012431519063458,0.28109772276892336,0.024898008691121885,-0.018085273028162246
0.16367425094204494,-0.13612982354888686,-0.22323896233019616,-0.4598626180765815,0.2826297298679685,-0.15245346535495916,0.23642652279055204,-0.10879031349723235,0.07344849679515109,0.36492914622649425
0.6259390252790676,-0.2834270379677998,0.27294067567565305,-0.3877253524959421,0.40291279049865036,-0.010303220653958552,-0.01618837534288031,-0.11470292981868535,-0.5759848583215017,0.08108799321720368
0.14854272849392763,0.08682435620282385,-0.14983575925108616,-0.09773688934686914,0.22677596115744048,0.006909544696762195,0.22659232247471695,0.024308074120713417,-0.3405069924489747,-0.10093923230607403
0.29710084172124823,-0.20506179612958467,-0.22481571881917004,0.000874121331159018,0.2053597354629018,0.10897123667437152,0.36385071479879755,-0.26886441092752056,-0.31602455595133144,0.03908718586289958
-0.10105871252298801,-0.837475596046064,-7.088545062107824e-05,-0.07531591238678655,0.17978746573348778,0.40962129330593766,0.422128949442981,-0.1231032887764005,0.04312781911589386,0.0647081237726
0.17703533494618828,-0.6095964536667058,-0.0002775266375491868,-0.26243441781785526,0.3596469573070022,-0.041027844901517674,0.5524188744341247,-0.48161508291484173,0.3364354491117548,-0.03695568664257893
0.39976230108332683,0.056058740111053315,-0.12107040607907026,0.22119762557070843,0.4844940517702119,0.08612412023642974,0.12057529251107171,-1.2268711376662795,0.18382002886376367,-0.17671223002419978
-0.0020237384162274928,0.2355162244785991,0.190705355893694,0.010095603510914486,-0.3648326511613191,-0.0488154571420139,-0.10262275690593756,-0.4940324732460477,0.41386638756392796,0.18742210891014272
-0.9571667294459637,0.5908480306027334,0.10345293478548706,0.15539630791946382,0.10422328520417769,-0.01101480304673495,-0.145821027339375,-0.14269056005805553,0.2775227829053195,0.02495205371736665
-0.6470351634353951,0.4488449860543664,-0.13976203252588765,0.04712843199003601,0.18079641173435237,-0.10043070525926281,0.08329048068437421,-0.19977673275643418,0.1037932732450317,0.22562319262528033
-0.9810057998092584,0.14553197915962668,-0.04654033700375732,-0.04920740805185626,0.4173141374911639,-0.27460462385032475,0.236186141139153,0.1839165361773206,0.05142008499452402,0.33366629066924924
-0.09017061433499378,-0.04131186823963333,-0.3431417704838399,0.01269137833740292,0.5777811971203026,-0.35054980196512353,-0.4508635218205999,0.26878344884377486,0.09733483429036428,0.3540697980764297
-0.08382180511929581,-0.6155337823379775,0.21488618364384546,0.12785719263465264,0.12701182244598483,-0.26829352594602757,-0.07223392771221593,0.5035922910350314,-0.16127547247898988,0.22363749473163527
-0.17381312731822263,-0.5499571557422301,-0.09863931899296027,-0.3414652816475015,0.6366822363623538,-0.4503458290512615,-0.012167134913686612,0.9175304093887249,0.013214192442411473,0.08138921543628616
0.11192298063054215,-0.2962274260312573,0.15178219804223197,-0.26761347626146453,0.12767081163611135,-0.03434040963868021,-0.14125101253549985,0.4119776410977768,-0.40107065290475225,0.2904389624417177
0.2996262417324803,-0.2276051504354466,-0.21469629646313246,0.09309109047510969,0.08291159725517327,-0.16755803444647197,0.2051525074268823,-0.11025610235021664,-0.037313076677770646,0.1731051426203292
0.04571496678367018,-0.13520100308286662,-0.11743425062002479,-0.3295653529704106,0.22690191763751996,0.2747006211676442,0.32821333011980636,0.1871791654759854,-0.5686076348198414,0.10699802101049972
0.44376087734381486,-0.11619393234816998,0.23864604178964327,-0.13102239592362136,-0.18266031278585024,0.14050834101435017,0.40102085035936574,0.4277290592069656,-0.5072736014002134,-0.7061932158621662
0.6981789673689606,-0.048301235756427634,0.3977551248867838,-0.006109549190620552,-0.32576675803810207,0.04397781871581599,0.41898877716913036,-0.09901044627867123,-0.2701241786411751,-0.8074582358677351
0.20788768790881643,-0.03243241557490587,0.6367690832794253,-0.04957710231829354,-0.0993963694556341,-0.5701468425863458,0.05954818357811588,-0.15125060663787937,0.16631582073662726,-0.21050322774031882
-0.00729201392764553,-0.0028883830234409723,0.6924952101314983,-0.02110916525863512,-0.17088842461098228,-0.0637465551098811,-0.34458723452050893,-0.02047542454172783,-0.025797909553662613,-0.031580493843477525
0.011643232553361063,-0.007341460536069149,-0.0021970335622465073,0.0011766262129799172,-0.011359687127370928,0.002594696475492756,-0.012212087167600763,0.004519824074349728,-0.017696995687951387,-0.01578555260945344
0.0064003923003854435,0.00588771831544911,-0.010720591045092086,-0.01425078155286206,0.0019320575683573857,0.022830603901364654,0.0007438080000170344,-0.006319699091682246,0.02034547914943096,-0.003780272213307044
-0.0023384533706122907,-0.0007526395074674933,-0.03516803105803232,0.0656710434015697,0.011211315044129982,-0.014084720606901989,0.005486341230898056,0.011778154597024066,-0.013579492793006088,0.011609902904929713
0.013366527773270768,0.019126001705088068,-0.033012526644304284,0.07313343157482055,0.03787983706267156,-0.01342149049065339,-0.009272027826057943,0.04661487915234476,-0.0112783314977145,-0.14276802984889075
-0.17827458872507818,0.0029041054535037,0.10919292443147151,0.018472579850223575,0.08738279515947237,-0.06029874580519706,-0.12379793300700753,0.23506372375353135,-0.025755075744202365,-0.018250533154047902
0.22546174285984424,0.0030723042469051236,0.24857739284306815,-0.03634116802365829,0.4130221626041203,-0.032305810899159834,-0.6805922888914927,-0.03973116492375309,-0.27774472260664734,0.1792829379006374
0.5064197981650869,-0.18344848120891297,0.5726755483411378,-0.11040246555843336,0.14872688337088397,-0.28284779918982744,-0.1803367823356785,-0.10854203607521953,-0.4802934507907352,0.1424389328421258
-0.3509841931135147,-0.28864128845212117,0.41595434940701886,-0.04145382315281175,0.2758074251656935,-0.031760973134650344,0.21381634523040108,-0.04311515395704673,-0.27847537819023477,0.1016988337530993
0.5749871588458686,-0.17458306124652703,-0.13447160228938385,-0.27488433044467186,0.34313887634777795,-0.2780968419671487,0.3156494741265564,-0.24095432945006143,-0.14966151082271123,0.021724092337798956
0.31744041385973676,0.09507896071248846,0.04865608928580365,-0.4401355928337497,0.2861824188907513,-0.025862488596716703,0.30047192579385684,-0.4154428676696252,-0.2280408421525389,0.1281026106142494
0.27663586789394595,-0.3252063162751027,0.1374024310946232,-0.2890347810784463,0.4213914837187511,0.21090124041017788,0.03236786465982732,-0.43179568956292674,0.0763815224175673,-0.10460361594858898
0.3906900240389272,-0.5693618993102053,0.00506003154112473,-0.25884388548017245,0.31719698136355307,0.11363943115767987,0.1451490117088634,-0.020168704373695376,-0.16642963292456822,0.10829974140401599
-0.12183871049331428,-0.0848141719982059,0.10557158971978384,-0.02180153205129637,0.4485562075329293,-0.011556181683656658,0.2544500606887462,-0.550277943580131,-0.10317588180481783,0.10149282054344747
0.13741933170825565,0.24072149476876062,-0.16129820737239395,0.04362312228768506,0.15789956962069063,0.13758042631516432,0.2785877935857711,-0.7478697543978564,0.1664619206308161,-0.24223206244928705
-0.5098647239624589,0.47456688372729505,0.2132667176432708,-0.030775900590242048,-0.37730055895548414,-0.04771125153926348,0.22990309528298178,-0.22515316799195453,0.3257339222514555,-0.059780116625766155
-1.216436952444745,0.8783577120696016,0.0839588794370413,0.22964635206363562,0.12001248542303823,-0.2842622788782211,0.3925961789911069,-0.4967301367208061,0.5628288666582248,-0.265804188579329
-0.5664443210959316,-0.03639481195458398,0.07211132397861923,0.18075960142466344,0.20338441696356943,-0.33847113455234645,-0.04158303919468474,0.26693818646826817,0.015474481031991833,0.2526480456338883
-0.5871381768081937,0.5807736887382073,-0.032312044304771984,0.027421352105269504,0.5644158436489314,-0.0845859905307378,-0.10350910554299977,-0.519275244724671,-0.11218436331273787,0.24476304240730964
-0.3461416564794547,-0.5017849460524415,-0.2517250216760163,-0.06400343056217725,0.4804293092314757,-0.30727204735343666,-0.004812038819260888,0.8363093401794865,-0.21732371704330616,0.4225083102187039
-0.009309630056529556,-0.6793064635902185,-0.20800733863318413,-0.2807042003846704,0.07390602244184549,0.4845809496928841,-0.04669527964587149,0.5442279278850531,0.09617255049229807,0.07308928224293276
-0.16300122081983298,-0.7499431245645661,0.11225929072768921,0.07676144728244276,0.29923777798320467,0.052052567198050265,-0.0462141829305426,0.16841715468237292,0.04924092066894885,0.22440793523364294
0.37748573781355604,-0.49946247438027647,-0.3632930318301246,0.4633537660443106,-0.2798618156924922,-0.0573075375367548,0.13003991705704335,0.4210794777208605,-0.3182966811830701,0.13842177038349948
0.04263148343196358,-0.2822495831971465,-0.09446257000852731,0.21772127172749262,-0.19060547298788919,0.08301614504471982,0.24371730715465348,0.36530653282780745,-0.1990322346496975,-0.17570426053891144
0.10261927240951174,-0.20903430506141493,-0.4733866046259634,0.3254462783719892,0.4907640921097012,-0.46902146663366556,-0.15752873256294303,0.5239388764204121,-0.1317341313178954,-0.019373747971048134
0.40033302697991857,-0.19050945518690274,-0.2608735396573726,0.5176689313555739,-0.12302799128463485,0.20419722772290055,0.05680413872075434,0.26277066287513245,-0.34401724438306813,-0.5559267957310902
0.5944093233057908,-0.08690176700237731,0.7191000578313028,0.369221568654272,-0.8168332173806476,0.4899564534625036,0.15767798550276485,-0.2662162526345934,-0.4276247415356218,-0.7132157088564576
0.0651731330539106,-0.046741016557173554,0.7539027096492393,-0.11801579962647964,-0.2919610359094305,-0.2567696171061872,0.43862192934624566,-0.35955037481560037,0.05315214091450996,-0.22092364874353948
-0.02305155339737726,-0.04316469570278039,0.7049446927853578,-0.001390370630665181,0.04486520169435015,-0.12089249636463253,-0.3525571245600856,-0.0849447724765912,-0.06431947602643108,-0.06849223272359588
-0.011682475076069954,-0.0033225732506177866,0.11931267377349017,0.0009792613348082997,-0.018034386669767477,-0.0528557996183321,-0.03670129750392913,0.00273274051540698,0.002228582342230591,-0.0197617594264988
0.012754133616472202,0.009787432563886683,0.0006850057450836915,-0.005469626143769259,0.00446219799052675,-0.004383754397347431,-0.01015899797733357,-0.0004361219700114266,0.01203760942357871,-0.0033286103050567755
-0.005478651110179737,-0.003247435999155683,-0.008527933711213232,0.03465369756359273,0.003332430574860669,0.012672785322666379,-0.006139224927284486,-0.00826250926088513,-0.009988010464428241,-0.007028032726791639
-0.012576369202834994,0.01395594351407985,0.004623109532995956,0.16427507154014043,0.002254834620930202,-0.0727886633644225,0.009608887037748707,-0.01467087940055778,-0.009436404123544677,-0.06033693402844134
-0.11594764449396447,-0.002171256824875678,0.607232497914411,0.13542663372245567,-0.23148728536021312,0.0032506544794264534,-0.1775258084002363,-0.12807489201489272,0.005665589077237064,-0.11078977053933897
0.2577879638612323,-0.013838402795657742,0.5174367436909162,0.5317534525722724,-0.52457764233242,-0.16319097653440495,-0.5614535297809656,0.04262612782589219,-0.23960940779244524,0.1543953532981644
0.4972872879543131,-0.19069931121412537,0.24285539258677918,0.22545763931290527,-0.23790163768564607,-0.1695388808843671,0.1577097137916916,-0.2820956434362507,-0.42178870530269164,0.10025353251753436
0.24180860001575472,-0.41445224988074353,0.39045131776450265,-0.17973115328987746,0.014761779465934705,-0.1578733296640426,0.42755704570167774,-0.035467101775326054,-0.10720655782099582,-0.18242732830772548
0.23750967476882318,-0.2813104768728754,0.07796246922770222,-0.3091740723595878,0.4149123663064595,-0.6401399168552746,0.3629735685200371,0.26972325098838884,-0.0032904573820781075,-0.07047496997426413
0.4183553865897072,-0.19565847285868979,-0.28574664894525537,-0.6377974230493856,0.399138295912961,-0.23750826160316774,0.2756998931474862,0.030989481877336002,-0.056033471925346204,0.29605662480952727
0.32105935276525627,0.051329571090728957,0.24742907126049982,0.021124976614548714,0.09744863006613735,-0.5753486655130412,0.4115679638919694,-0.17350080197901024,-0.05288820630426074,-0.30850708127569276
0.16640190632060908,-0.1568206766713482,0.14610961592271932,-0.07532604132885315,-0.06635057908394927,-0.0306147404266222,0.25781857545049275,-0.4617733410157225,0.2309323836633923,0.04256672195511418
0.16255947281261346,-0.11416384765799224,0.17688804173624173,-0.014561537465896772,-0.06747519784193316,-0.15389748117416083,0.9984937641253643,-1.1211416606685185,0.06386157584630534,0.11956290644319661
-0.24677799761634234,-0.2733390725665968,0.3271051876926478,-0.04831219353500849,0.12619815589945577,-0.005798972306605846,-0.12372508132245913,-0.11141875123067714,0.49014339902530485,-0.12250808507536962
-1.140466065330191,0.33533507816239505,0.44115157242331826,0.4722162793702366,-0.0437758688974544,-0.011009535029089156,-0.08452761303206707,0.02604439655421684,0.1699571531116152,-0.23669900727778986
-0.7100641542785477,0.8005451440030333,0.24845410404000512,0.044289609655556623,0.3349438402607605,-0.32079803745729274,0.14374674476665464,-0.6596092675361985,0.18130358851475056,-0.05976393278706977
-0.1871060359661911,-0.384587779680463,-0.15320921335421733,-0.12964463900759424,0.628258412356774,-0.025909351181993688,0.030170407416454444,0.2297135832881942,0.03197957138287319,-0.06438598776597027
-0.3221745850367413,0.22063213392232825,0.1394325928626474,-0.45068983173821037,0.3466845732620709,-0.44776779944650763,0.03653889403798155,-0.021966062544436445,0.20914006314275108,0.24311933227802007
0.05298017374445073,-1.11607356428568,0.6412148869803397,-0.12412798793360244,0.31170733964001857,-0.11159696227102808,-0.3281406200070984,0.3751249659922867,0.06545433534466188,0.22595943019602863
0.08642135784431199,-0.6683780463956979,0.023263477045928162,0.40258251294060626,0.15893201801530424,-0.3481185833862447,0.21356360558801651,0.1349209450584987,-0.11355849818168838,0.15575769229449202
0.03523381495361215,-0.6135925851686453,0.1328352617332079,0.37801223012202173,0.17250180659698988,0.09912089079357304,0.26716845005921824,0.34501353162657517,-0.5136584182922751,-0.26231264769132007
0.27968184365327187,-0.3758848366164018,-0.24091335902410654,0.18056942103544904,0.3970041638071981,0.21323253386181926,-0.14136505383472409,0.26480058694925945,-0.4368712667479308,-0.13238952093232523
0.14896694954416215,-0.21752125318240814,0.5595403496644219,-0.040378552459068885,0.1814728621899887,-0.05721938637446835,0.0997315346127034,0.18711322956204535,-0.46363675011378097,-0.38855413397934646
0.11640852355811333,-0.25604407570196763,0.31501012109878046,0.20034863922321303,-0.10265197383810118,0.38206696479969715,-0.021657313291801226,-0.16203311346512175,-0.5551339669119196,0.08128230030263445
0.10069386646523898,-0.2657297013848194,0.2817823005995113,0.584226857859994,-0.15123434308267494,0.18897252302725415,-0.1001586473420343,-0.2442575135467173,0.1864111660147498,-0.5897290286557696
0.11918487110201421,-0.009697259404170004,0.6439879473647553,0.7577823503241905,-0.39278811724981233,0.026329781105885287,0.15511380538287856,-0.3438299528384558,-0.2283618354496347,-0.705357173368532
-0.17101160907778934,-0.11883548726295066,1.4292391380076968,-0.20838759707084445,-0.2878084179906702,-0.18307766656585345,0.3064955697039405,-0.3531129725142512,-0.17422600967634513,-0.24655634757988948
-0.06743206087261891,-0.06357905693336666,1.094262327289929,-0.030891445566835485,-0.20942921561277458,-0.2023875716273579,-0.30344849203094326,-0.0957557940829661,-0.08378776080918932,-0.06771235101276118
-0.0007349202342897407,-0.014624934629593264,0.2018353174427276,-0.015102731325316405,0.0002072474192079262,-0.09006231184550251,-0.058870290110025036,-0.011618136560482634,-0.014002418598378188,-0.0023232720409457498
-0.021396644418036452,0.0013808126411164257,0.012418433459643557,0.0021774475923573896,-0.007686647963766052,0.010327938936900833,-0.009373752506907349,0.015441425644149572,-0.0013347338941165096,-0.009175344433537345
0.0014082751488410604,-0.006349468533475475,-0.018035539443137898,0.015535730938619602,-0.01974975708826025,-0.006461295340229033,0.011932190567651043,-0.002292195957268749,-0.0011199417286888932,0.01358928047313823
-0.01956943513321939,-0.003018003566879943,0.12752581880473937,0.11448469213613219,0.03141299110353996,-0.09934103665368345,-0.011983544914247118,-0.0236892533794791,-0.018560531349243434,-0.0949683761086126
-0.03800040363891856,0.004592284376422806,0.48030404083673767,0.48596649094361666,-0.4652453018126456,0.08773295106769831,-0.13832877805445098,-0.16678899325426652,-0.045066462866367035,-0.1926979722996201
0.19047521087367045,-0.02940628371865682,0.3730080868853098,0.6448901217972123,-0.29478296866141906,0.10808496124875955,-0.6843208553589903,0.18747769661614164,-0.14638563652252579,-0.36030371413915063
0.39210760947310763,-0.34601991337765703,0.2813119783111433,0.09135445291968035,-0.2200119692613696,0.2280540458127048,0.059254448911547845,0.07692390415938623,-0.30553989134359216,-0.24375371721129577
