0.011209504709657871,0.009949285738828887,0.01006148270205967,0.0051319241743746765,-0.013649509877233946,0.013056092630746086,-0.02310736246550495,0.0033347552588915384,-0.005473317551276005,0.005666817451983884
-0.011548390369738601,0.012035431624794047,0.001436028990895987,-0.0038678711646681157,0.006332451763897486,-0.014983901334028318,-0.0029968780150259277,-0.009077419494886238,-0.013977565633323401,0.0004322618835093955
0.015068708835707845,0.021296456034145362,0.019630633162025676,0.0061940724345709375,-0.005923856392062116,0.020478849875955826,-0.0016819093940828604,0.0052060718718441295,-0.008255188595657263,0.010101688200754804
-0.018574905001294092,-0.003550404667741651,-0.02647877555828803,0.019961794796936935,-0.004551771860442165,-0.0006854022783979695,0.013952070857751799,-0.008291042049287082,-0.0026997735525385795,0.011439533392441541
-0.00939228530485855,0.0030302826480140726,-0.01570976770712481,0.0011549207059606023,0.004099521598237912,0.003480024206824208,-0.02103914966277695,0.02504048840502049,-0.007328796754023569,0.003119944447180042
-0.006628642204660595,0.007065264859164929,0.009237173924003243,0.005697536251998876,-0.004949661542463509,0.009343546452674212,0.008330736334149335,-0.0048376070871804355,0.0016778563235019719,-0.006783092415543398
-0.004634094967449104,0.01340226350067837,0.01415277813625989,-0.008887764849715898,0.001480934199447526,-0.0008590363001333401,-0.009432104854873277,0.008411867934095789,0.0012290378689945424,-0.0022443859999094155
0.011210932258583047,0.018419524960164253,-0.008164082212072415,0.005740835877273272,0.000280688984231531,0.006889005511686064,-0.011681359021363974,-0.014204298389834868,-0.008368049585663822,-0.018098538770189968
0.001343312010297384,0.001998401607408222,-0.0032957294876799392,-0.018566130739509516,-0.02196999796948173,0.0036900102463258205,-0.0017467938490694707,-0.0014818321177493886,-0.0065445932476694765,0.0008625676233960074
0.008769277885390916,-0.0031225650234108756,0.009248092853280467,0.0011845889480889332,-0.00891592145978097,-0.0026173543356561037,-0.01352953411105614,0.00703494787383115,-5.37928290484111e-05,-0.0012543737901710716
0.0020418935626651405,0.012810333026859314,0.002110295149544683,0.0008948023389121093,0.01255909315282567,-0.009821856586182632,-0.0049391588639733554,-0.004683099307690646,0.015584839896902162,-0.017126783896612638
0.007183496192838987,0.0027439161339069445,-0.008558136323446082,0.013879281515415665,-0.009059575488995613,0.002908156747026425,-0.0013459984423830488,0.0014938946281546606,0.009258407238992395,0.008600078923131133
0.0026611233244935887,0.0008058399569665356,0.003768289675901348,0.03048442102401795,-0.0008491006823061973,0.005684665771052633,0.0191824634304243,0.004346444772977218,0.0005592760680243913,-0.013325040717261292
0.0017472188728924363,-0.014364732957064561,-0.002958375278647017,-0.004881069449632852,-0.0256842843655199,-0.025261903256204025,0.022970805108600032,0.002057802361376487,-0.002292507668226393,0.020557300104373157
0.0010744366964679113,-0.0008961659344703369,0.0023232450226511885,-0.0030709701180207847,-0.008267834303813112,-0.0063428482787624,-0.005489291304208056,-0.0029867350485603596,-0.015370358202467392,0.010456739684628015
0.00304029911596971,0.005491674489946955,-0.00043840934551925157,-0.00554403579443651,-0.0046589296739839815,-0.017594995702703203,-0.00307419311613265,-0.0008816544507366098,-0.005552642195225323,0.005737028390104429
0.009176258024231113,0.0033699603485090376,0.004705982412930876,-0.00575637491776835,-0.00928066741163075,0.008059025482780605,0.0039055241695499917,-0.007361121675094324,0.0006647249871613817,-0.017337286672924078
-0.009865272365939062,0.001727210307509493,0.0014433520263846186,-0.011430901995183818,-0.004766041637279799,0.017383486926740823,0.00450252053789284,-0.008987237799974176,-0.01012143164287386,0.007500429769277398
0.019238650701735735,-0.001080408122370194,-0.005523965140696275,0.002802843574464269,-0.0026822842641583,-0.002803265426085322,-0.0013370223076679289,-0.009175987932247309,0.006961226776677566,0.005091662508227528
-0.01433058005777468,-0.0064140533744990085,0.01073749340428705,-0.006791578451062847,0.01329276242907787,-0.008016791254752596,0.005964107829175252,-0.00950599921760243,-0.010174779193743046,0.015624882278634978
-0.0031361207543647816,-0.018180539285194416,-0.010062041756476686,-0.006119313618181353,0.019217209682020724,0.017295346160237084,0.002258667692412454,-0.012786094591743041,0.009068271325314108,-0.008077141899280407
0.017493683303325108,-0.0011356146306756687,-0.0005125186926746634,-0.022316802901982926,-0.005653383663105403,0.0053219925694755815,0.006439809456228719,0.015039400190634617,0.00849395931407278,-0.028194445851739258
-0.009631873695133682,-0.00430710267200071,0.012490814842651299,-0.004144474003081837,-0.008548477772964717,-0.00019953676767509515,0.0020448358902334296,-0.0008471126061138421,0.019625818453303003,-0.0006259821450469922
-0.0018997186924882442,-0.0011364449178280912,0.008498519171012738,0.01713840716942476,-0.0033271480317366444,0.006228182993665975,0.007300354865326326,-0.003300706435902906,-0.0035944123527737156,0.009825274431765814
-0.015011176831603822,0.017893857615312894,0.007348476065517143,0.006310081302749189,-0.00024028432455167154,0.0007696166183172347,-0.0018867238422675928,-0.005499343335084641,-0.002405072580070148,-0.009872751383739537
0.019406404985059567,0.008601652782254937,0.00031287093429279133,-0.00983976461940807,0.0031693543981080375,0.026326568897772913,-0.003450286008034102,0.018002997769718743,0.014603470097331346,-0.013959669902653462
0.005246898912813044,-0.004147075369320289,-0.0029538755387357395,-0.005239054213688655,-0.00796729552065702,-0.01358200383180884,0.005621490989856558,0.004839015637030584,-0.012020320363880713,0.013488586415111999
-0.007884447375400004,-0.007132002355020198,-0.006103829869113087,0.013901800330615008,0.014658713600812666,-0.013562412782159677,-0.011430987144534643,-0.000488421111585136,0.014609176680360575,-0.012003399717728978
0.0057322781631827194,-0.015300070260887342,0.001099006220253738,-0.007448037856823806,-0.0008160311953072191,-0.005996385648894594,0.0011747179094771653,0.010239988354945077,-0.011120912002267972,0.012573681097943486
0.014842704038588922,0.01298900696556745,-5.975019767033727e-06,0.008513416512182865,0.005485404833519531,-0.0024764732091554116,0.0006789673253639337,0.00684025121360321,-2.329973113907952e-05,0.0035856202636737377
-0.013536246642293035,0.01636734264216109,-0.012242757609608065,-0.004123865322570619,0.019683570599407632,-0.002800649348116463,0.0014037858898111528,-0.005156889321795488,0.010412705518160535,0.018867391459430657
0.015582935800713207,-0.006577544817683692,0.008344706020448718,0.0032406826033420984,0.012405047096561187,0.0035695179124517313,0.008891782787505957,0.0061238051569096775,-0.0012670321572255314,-0.011117671841549959
0.022712217618846755,0.011316190408783436,0.003768477116751458,0.0017226090203118231,-0.001957745857723328,0.012913093362365624,0.024544407856051102,0.009039071290665272,0.00986024665433048,0.013967928173911813
0.0017102643829411588,-0.0005781591082214812,-0.017691080026025985,0.004387137600042098,5.0871866481455645e-05,-0.00781759295689075,-0.022747872203184458,-0.010348512391366896,-0.010813971483071972,0.011233296835353384
0.02099191914201042,-0.0013202644631825741,0.0021580743387779435,-0.00056956935141237,-0.2084495982039051,0.00224913261074465,0.23081522261398674,0.00573175116889644,0.007969726228350434,-0.002929164888310849
0.007631703366246344,-0.0015671663314895845,-0.020116312500967445,-0.0026052503841684795,-0.22211594829697304,0.0050469068112524535,0.23397989885881235,0.000798900742513689,0.0164474289054117,0.015621764206737037
0.015225089500193856,-0.0021991692230229503,-0.058462123643509466,0.008340090045661863,-0.1464125582229602,-0.011641690305548824,0.20513850401495298,-0.012657083548566395,0.0036963318468154586,0.003896732318053413
-0.004133747460851919,-0.010216543323860506,-0.04064026350731293,0.002347593227989117,-0.1903325157430992,0.00979178560736629,0.2447238001852596,-0.03435304226329582,-0.01468581644896184,-0.0025548296150638646
-0.00013289976244223743,0.003214820982071548,-0.03283199563298348,-0.004405440146442642,-0.12204822301933432,-0.007134931753650386,0.18493339384928603,-0.01994079166208135,0.002165689380381501,-0.00754225922181655
0.10767063101627881,0.004692224373869289,-0.041022524898313095,-0.0057511998716469025,-0.2085958602256344,-0.01149339256183988,0.2085156242164772,-0.03987956528226289,0.002960869396370493,-0.04333833297381042
0.09731314528504943,-0.001460749500256909,-0.12320367861247,-0.015425268559860475,-0.23738354721388571,-0.010382265261946072,0.3250771221691452,-0.03341272748050814,-0.0010713201231510447,-0.04140383754722273
0.08600164662159569,-0.004439953716109153,-0.07119935899831716,-0.005731881638909864,-0.19606976451841499,-0.03711454313332974,0.22758095402380146,-0.015129798584311436,-0.00659571109513564,-0.016894543503544943
-0.005080088863361754,0.09055299773807174,-0.041115425749746616,-0.010581210107220037,-0.08526486815837896,0.007350648653251592,0.07215433682036863,-0.0007851555017616754,-0.017993183101370096,-0.012886798829672098
0.16145507181075858,0.029890917942997045,0.1276321537055765,-0.015147377299797283,-0.2797305544327431,-0.02739330604553329,0.06175095677676877,-0.00253984089479266,-0.005027422038615552,-0.07689852547434325
0.14564573508613538,-0.0925986116324404,0.2825739972289227,-0.004967265388062408,-0.26849026647177127,-0.008922688253180029,-0.011399659703724793,0.005702752999786257,-0.018149374156130087,-0.07472605438705934
0.12704598296993025,-0.022337671163725,-0.003760241061920957,0.004250381046250399,-0.16544920195831453,-0.004242784495092234,0.12571798053426808,-0.009087057567633929,0.013498718016283353,-0.1081092027416803
-0.004531022580335531,-0.004083193272604124,-0.022558610553081088,0.004644995314866135,-0.06264421025378829,0.007279245683105917,0.09516961984352218,-0.015473239803207306,-0.006419559537431201,-0.019602320452525076
0.014013383030039177,-0.020240757671313288,-0.03574543446655965,0.00023918329926012286,-0.04975210658015152,-0.010242197807976392,0.11432273418878927,-0.008669655114427731,-0.00597805198030292,-0.01423719115377032
-0.012167132204393093,-0.002980732769922171,-0.012997107030795506,0.009196802383687214,-0.13424532900097674,-0.007479592713959656,0.16367844802939874,0.0015551527366980675,-0.004500248863640307,-0.015011227385664858
0.005728065951486808,-1.8030292362880675e-05,-0.01715230547168966,0.00130319611073251,-0.07904964266171383,0.0020857402410598075,0.09766950681603245,-0.0040215449741644255,-0.0013139069437663395,0.007664278926027751
0.0008216843001130146,-0.008811173175796017,0.008778957681320679,0.00857801211827768,-0.10722242726247097,-0.0007487767209589373,0.11418250857539325,0.0035051052431970607,0.015113163533921486,-0.0037189399321805256
-0.0030526187941995065,-0.007769725896140268,-0.004601020595000719,0.006298556798167868,-0.055056227162512905,-0.015515357234164593,0.02261862034736352,-0.012908745576908668,-0.004278293411517836,0.01605721841638912
-0.004584237166800166,0.0046839797878012466,-0.003138686422051895,0.0032750023642492115,-0.0025165353809405754,0.013945015009581174,-0.017293636085122875,-0.0055804712207343276,0.005904736915893775,-0.012530111169196232
-0.011168508673817627,0.00021308948262497085,0.01188221478486351,-0.0014473533830083995,0.004208604327139076,-0.020386818335352178,-0.009453327818367342,-0.016732732161196754,-0.010969547289300257,-0.00983778419436824
0.005398905148664765,-0.004042695585312629,-0.01857208041060908,-0.0007749711078253765,-0.008868240621460147,-0.001237474558172421,0.008773657680696335,0.007691178330179428,-0.0015832302379732955,-0.004814246876360138
0.009499228790153033,0.0005815348986946587,-0.0017252792963759033,-0.010773342400251573,0.0009479623483739196,0.012282040370395016,-0.013614817913591665,0.0063810424182678925,-0.0023660456609700133,-0.00011246378885174361
0.002114713249755075,-0.01180014299110708,-0.001634164772981318,0.009233577735043826,-0.011345331668679999,-0.003176786380483535,-0.003378278945681415,0.011601325140521828,-0.0023787242069766134,-0.004466108392901997
0.000997666295206161,0.01700483176405348,-0.00639080865427054,-0.005296871364665633,-0.0031856260408648796,-0.023561851435344,-0.005842593311075196,-0.006209261270561648,0.0032179023342387217,0.008916678211829591
-0.010234377950487804,0.011627438439563157,-0.003758601155695825,-0.006613880089489394,-0.010789375414333037,0.0006739763115570222,0.006131766744059602,-0.0049611716062465385,0.007549296962157636,0.01493115730853565
0.0010608550543348655,0.00577177778418322,-0.0009703208999729541,-0.0014551222226508362,-0.011375567421621872,-0.0023711962101254512,-0.006178230183890722,0.004268935439298534,-0.0026635396328349597,-0.00832643807966969
-0.009908358498344334,-0.0017329053811779187,0.0031115883488377345,0.016643715265503532,-0.009986756586932861,0.009922943858233824,-0.0017446092220026947,-0.007015187442348869,-0.0026944361590382935,0.00825474437211472
-0.009710585221732008,0.0059022075667297955,0.0023713122279294045,-0.008337808743304842,-0.00870099626943123,0.009444914680113301,0.00668203944608279,-0.004434238587411851,-0.0027442621536303796,0.00542340722090626
-0.030290005090368652,0.020498013022252938,-0.01066629855083521,0.009400601654096875,-0.15334144404465172,-0.0017402662810011547,0.18946600604837205,-0.002901508495033925,0.014415507652817003,0.0010239593344667627
-0.03329706852404756,0.010153321993577985,0.01293342360989075,-0.006118101283522971,-0.27883437045308757,-0.012257013268279092,0.3515384542837193,-0.004580445277636007,0.00715368576529124,-0.005403262238933441
-0.04867072092896521,-0.08413744548215651,0.14734409142632876,-0.027267437556123313,-0.43229108098696134,0.006068705170577127,0.5070812923056086,-0.027861861112724703,-0.004864484668991084,-0.01659339392184997
-0.04308916753011461,-0.06068159725902416,0.2004406486956075,-0.025849054610466535,-0.27273101225110025,-0.01965341452987734,0.32862279305802317,-0.0468753847750891,0.012364257810303815,-0.003858362542490604
-0.033849357951116175,-0.0615000627718409,0.11484204980383945,0.04533747958431861,-0.5197841306667162,-0.1560836631176462,0.6838240391495243,-0.035087772483721996,-0.03152193245952722,-0.01905931167213916
-0.03809913708452802,-0.0921561733682767,0.09759304487868667,0.1772715159289984,-0.4777492321212945,-0.19697939353439115,0.6259000521957805,-0.05270825093863642,-0.04957549541313816,-0.04720105540132508
-0.12955187581750655,-0.06480540043259952,0.3735795831812066,0.14996979936282545,-0.5273932109251358,-0.2435276635657268,0.6454786074641828,-0.08471349375352538,-0.09771363024114674,-0.052674312045317716
-0.13360108060073092,0.1252104792924272,0.2721839760931703,0.04598891591525696,-0.31347213959790016,-0.2252989332659344,0.3892273334689424,-0.042311327059820165,-0.12162168159958299,-0.05556040293312255
-0.2052991843987896,0.35796109887214284,-0.002174982868062417,0.028045517261018702,-0.17320091432923426,-0.3396016982202236,0.567060649022627,-0.03399943430370823,-0.11661654400446916,-0.045158338747154386
-0.2859296614779611,0.4869395088335868,0.029721775055892533,0.0243271622445491,-0.2929877599155439,-0.024478453243862556,0.30744897867846227,-0.03407036852221388,-0.13356389827298973,-0.06732038561153349
-0.16192133191208333,0.4956414685088717,0.337238756473509,-0.1934313972549046,-0.3904529886794335,0.07400040203613344,0.09997074877642585,-0.022760164768129074,-0.17109886426259277,-0.08622843689829049
-0.17772333715009486,-0.05130719918761553,-0.13726416314819398,-0.12265059295687902,-0.20235351264996043,0.41131726364957916,0.36011700286336173,0.0008869931736787178,-0.007785310794700859,-0.04930416363106669
-0.07994221890189716,0.07135858417942348,-0.14981728958074814,-0.12718589438140238,-0.21560114571882014,0.22787525911592696,0.3594537540597656,0.01051359270659372,0.007946401053750439,-0.07619332107344069
-0.0500732454645235,0.052320838389590583,-0.12440885714361738,-0.09799908473347607,-0.29160196498145796,0.11265821359817392,0.5533946748846276,-0.008171382553079413,-0.12068125569943414,-0.04746525202455587
-0.0510599313471609,0.09089696285355249,-0.2697687691019732,-0.028108776711935804,-0.3208352366410382,0.0890648974616231,0.5275580967551096,-0.01407286393965615,-0.01980818042539452,-0.006003756061346729
-0.035794576473344386,-0.04670067014197875,-0.006423620892258908,-0.02441042468382936,-0.1743608392883972,-0.1185825265003255,0.4447697343772667,-0.013386573360265013,-0.022771220392774395,-0.006248096731628769
-0.01169061829126268,-0.006411565869971192,-0.09251499753833563,-0.02743907084906075,-0.1709175857771779,-0.03830311024982807,0.36658915585086604,-0.001922854063135125,-0.03708062172831415,-0.021900621446667785
-0.008256748650371983,-0.011545019168676268,-0.036415800884479044,0.007041368526316758,-0.1701582323081795,-0.02134618826183501,0.2965574053051872,0.005236082956500177,-0.013960268095997935,-0.010276807052421982
-0.004315788143655716,-0.011540543110994343,0.016709394657094503,0.010937222614272869,-0.019778676313252364,-0.0438000690136066,0.045099599850064384,0.013743446317244355,-0.004103641296758968,0.001998620227374142
0.005486667359336253,-0.001801280873824964,0.03231612561962553,0.00711956611660853,0.0018492998916892014,-0.02006284920797324,-0.007856622419447514,-0.0010851910293592645,0.016928173071844653,-0.005785294603639124
-0.010323658480559652,0.01857256541844145,-0.004304749576721144,0.0009865954361379288,-0.02070231485849654,0.006354622896862119,0.014220969559336051,0.01094330399135294,-0.0070840150458337785,0.008364241453870635
-0.006924495165350386,-0.007753173123245837,-0.0003749414706374532,0.003942414295942707,0.006602742549671066,0.006499313566284013,0.006065313348258355,-0.0038635113872705646,0.00018480263352807058,0.0004006877526927011
-0.0038330049044303324,0.017475512704076483,-0.013158569361836464,-0.010336389201222628,-0.0011796718276299656,0.012019728539457635,-0.0050606305559656815,0.0038455407758431503,-0.0014555532712342853,0.011578554283514867
0.0014257867073462782,-0.005423618552300728,-0.0032888530071324114,0.01737628224571388,0.011043391913036913,0.005499599885744832,-0.0015004328072161805,-0.017638686771586486,-0.0030551069016741977,-0.019864781457678532
-0.015205231375368585,0.00360420145164106,0.0058197386729623435,-0.003229445790021101,0.01078249534976663,0.015128464965088413,0.006972159472000187,0.013560151422055954,-0.007596744757876975,-0.02263024247494208
0.042769295844986205,-0.012851077943709823,0.023801608797697337,-0.00964591077783131,-0.050338217933114805,0.005080169557966837,0.07332367119478432,-0.0016682549543410074,-0.021630455736488953,-0.041194799260651054
-0.036772798749087045,0.0013584317153214765,-0.02624917373260856,-0.01584894695653325,-0.04706140814112802,0.13399964558262242,-0.026597593429214784,-0.007590442597721202,0.00307650776889375,0.004639964730096819
-0.1407137520245021,-0.031939915646154,0.025372866321307967,0.17231034049259375,-0.03496135814209091,-0.09784536556485655,0.07511514148723795,-0.0028411473048484195,-0.01296213349221488,-0.00024576374582965506
-0.12013212376937223,-0.028288872714534886,0.03834005669130828,0.16376669463875176,-0.20890816708783336,-0.09848222655847207,0.302536706100835,-0.010539051198920934,-0.009519509388341082,0.005413068264671743
-0.1055253145610321,-0.04126673659423174,0.2816088390209601,0.10485452217107097,-0.24403067947419582,-0.08594144730594912,0.19049829417124642,-0.026524353302443758,-0.06633238309974744,0.012914602430693319
-0.15089433729153243,-0.15381837278127342,0.11442464463865762,0.5219822054675297,-0.5831430691573481,-0.11216096929166149,0.4891745703376581,-0.11543605511060327,0.008719902598768823,-0.02271668531354374
-0.0031900426513469483,-0.14546896387857003,0.33996952460728674,0.5884324480064281,-0.558790823611865,-0.03701220392740216,-0.005386951638756311,-0.1364676561547331,-0.01381008899464207,-0.04434675986493377
0.10043902372476703,-0.2994683205414814,0.36959268968829195,0.29067062639561037,-0.38947578959887974,-0.19756280560452935,0.18801616880293395,-0.2170938489410866,0.22123488540340686,-0.08047984833558315
0.050327214093230196,-0.7836646101611046,0.4592133004020279,0.6653983985271237,-0.5321175591838861,0.21512776674079145,0.3962681813105529,-0.34783023460768014,0.04505677184448527,-0.1430328375267354
-0.040246925794474094,-0.14512784389183755,0.23823439981432748,0.6941907393328689,-0.8899186903370702,0.07097775479622294,0.2061641370002449,-0.22210123922290947,0.30123957234075255,-0.20385653589429586
-0.043201856430935444,0.28051907669164594,0.5127709912738704,0.30956067139975785,-1.021544141074536,-0.11995207761533733,0.4936276642048482,-0.3561815634960523,0.2874474529739459,-0.31465184349156566
0.28658812520028415,0.05042097997897065,0.4939006718720918,0.39185651878508715,-0.496212957422669,-0.19238621458093008,0.2475371174293381,-0.2382232371653579,-0.12180632775056834,-0.4287890731507314
0.22469244177706588,-0.1995564463714489,0.22618837733340103,0.42107839601588903,-0.5221865798162395,0.5284954116763934,0.17402318421859034,-0.33884787339877614,0.008079025106151638,-0.4880352024830012
0.04564553443732773,0.23238162404427384,0.16500379016329064,0.38416569272100815,-0.577625314140045,-0.04456890621478213,-0.035250517993720164,-0.20081977722180627,0.3710397453566142,-0.3713971976336702
-0.08584974727361333,-0.14090820241535312,0.440636645870636,0.6081875452592811,-0.2468396697070214,-0.2898932788965322,0.14861642290712127,-0.09371136868801552,-0.11298937343715147,-0.2652405850515862
-0.07169416791111793,-0.33373658313767274,-0.15178114300211298,0.2282886871866826,-0.3454028200396921,0.4387115718656498,0.017610512465845538,-0.07089274063064746,0.3006353046247992,-0.03131679175520343
-0.2878922973352,-0.11228240264183371,0.12688696856027729,0.23684528742649547,-0.2985335489175042,0.15445607462913488,0.10747164864035089,-0.035922839280832695,0.25178008327142365,-0.17086688547071274
-0.023661879165528824,0.01178613341730294,-0.25772902652621615,0.5756156280519265,-0.10543039870704099,-0.08195794857093974,0.06777407925561794,-0.039841887280858364,-0.00016174098233462996,-0.16393411478926959
-0.23209477332321277,-0.12190179825165089,-0.20829238298322814,-0.21393495419858571,0.05794659317958915,0.5658565494668617,0.09181294758316028,-0.04397841540085999,0.16685688350394579,-0.11485391339753008
-0.22068636821248921,-0.20430708172632134,-0.2095501201931347,-0.2752602667378177,0.1408961580767726,0.3547692818570375,0.16767758593434898,-0.006957579955662399,0.3094074426145482,-0.002954608183050987
-0.06320765943108549,-0.11389486115844849,-0.2874126698964342,-0.18081465001735106,-0.11185453308096521,-0.3152735533825733,0.732508356543782,0.002595475475185665,0.326666460597483,-0.002648638747605615
-0.059002369243037395,-0.10581336773092466,-0.1201441586887869,-0.10472768857578442,-0.11920480464910181,0.27212930710128636,0.21985816247294462,0.004350779893653492,0.05081463479537949,0.008931734323994066
0.006177148361683733,-0.07479943836459978,0.0370799102176505,0.00802983077458251,-0.0026856036560939014,-0.006154881001874526,0.10737027203246641,0.005557252739731022,-0.028480887316949446,-0.004882892379253246
-0.003850809467070992,-0.08737714639665761,-0.0009471153226522782,-0.011532398297322504,0.017005629532885917,-0.021969580355809072,0.1319083791147508,0.013100262919089596,-0.008525295288368566,-0.0008086455152655696
-0.016273106121139823,0.0065147459045007,-0.005515454313272379,0.003349103377367888,-0.022845045145927886,-0.009594576648831683,0.0031903138565520335,-0.0003391325636502861,-0.006950399868816008,0.009134777228222124
-0.006721538381266124,0.01154237252549682,0.012238233659028888,0.002170357057091755,-0.0019686178437708043,8.773819312742918e-05,0.006340270614073161,-0.00453792053990022,0.012171955341592012,-0.001460754915088535
0.0157575976678126,0.011419468595684394,0.0019396745846180915,-0.005773773090223554,0.002593833842892414,-0.0167241888766609,0.00775999942483501,-0.0038903692214963554,4.7294169426489356e-05,-0.01600539464984551
-0.0067469529339248616,0.03346980544596963,-0.004086204750889869,-0.0050944120258055794,0.00110164736110127,-0.01746844296909733,-0.015870628803288146,0.013310548266384973,-0.015541987530589073,0.008722701774695203
0.0010650862942618452,0.0031483981739814934,-0.05758480655913349,0.03924939354873497,-0.015063109192931393,0.0020528826293270807,0.08910546269154657,0.0039044853026410234,-0.013119553174915578,-0.005707193182707243
-0.0070523284224224625,-0.022167380693372884,-0.10377066181513081,0.17137802508123223,0.05127042853146055,-0.10491546888241426,0.04156279228937628,-0.0003949402716205521,0.003770431436200825,-0.011398962963263726
-0.16611127457834673,-0.030255337126893773,0.16901457536603365,0.447354524238768,0.017598718840382815,-0.30707016869074333,0.0439511449023667,-0.14424054825513924,-0.03976471107665912,-0.02860004462347573
-0.1788730021267212,0.03948222110026671,0.48247759950604996,0.3415677008630761,-0.1332225655950344,-0.26374451705513974,0.09779293112295909,-0.19462192763663952,-0.15095772870666924,-0.010577430742816234
0.1972078611814316,0.011582183757221205,0.2610990347921576,0.4557245051844328,0.0430902578569332,-0.04259037240508724,-0.4076271650619323,-0.1729067017199308,-0.2664505399643033,-0.03210914241301173
-0.11317669641618285,0.1954578859002551,0.3028771435213489,0.30645570297324176,-0.11330336281775184,-0.45191174976246434,0.021514837556629144,-0.3434419659476103,0.3311064148526977,-0.13713575428368843
0.11858818962083038,-0.36804650440278175,0.6665866693468249,0.11914688783942881,-0.2596307441309881,-0.04723859763259902,0.21586623716857561,-0.5131083116611502,0.3412317264540997,-0.30398445032961924
-0.025405797203567816,0.23933130719061232,-0.2331640229291853,0.46386411782592174,-0.1101909858307538,0.29626166584625185,0.10098284576461111,-0.7693800237858818,0.1366398788810784,-0.08327816860075445
0.14737664407162465,-0.041288040888673515,0.32248408353026775,0.5379394171773402,-0.4187486963030317,0.10771442432254198,-0.27470585582636037,-0.5318946310987148,0.19050865473839212,-0.04925083746223381
0.022969232373945964,-0.08999839655597634,0.45209643682903117,0.39892318846944136,-0.1450514182651264,0.18843956824478225,-0.30599623380700486,-0.49312028559709686,0.29543435355178116,-0.30075479316716386
0.3290519690705423,0.1751710275613633,0.06583665492671363,0.10299436945986863,0.23254717032462668,-0.0639751463893507,-0.3962912221692241,-0.4366196409750236,0.2625764567833236,-0.2697416587341533
-0.15436130460136252,-0.004028114604930036,0.3936765207554261,0.4851788368356562,-0.37658410057761904,0.0028352915468754032,0.08297966336875848,-0.5275141918980255,0.40451162139460395,-0.2774895285603068
0.05790854002696428,0.04429093792013853,0.009717163871397759,0.14648378039545848,0.14900114829236963,0.08063471283218755,-0.19753119693852375,-0.5141518912295994,0.24755270271511312,-0.01862880863984795
0.16122261925806122,0.1715431134684244,0.2599242108364084,0.4546467777470415,-0.2249512593114607,0.14232940431741153,0.18757911890335724,-0.5246655824252162,0.11044163224643323,-0.7007013150959182
-0.0791212672322509,-0.11758122143469048,0.21487610480229513,0.0792646799464743,-0.12075470740852995,0.5754500747731568,0.13075958763049153,-0.5292670279557569,0.3214564272160301,-0.4973895403673986
0.17144794810412964,0.10182745084188337,0.02070301596016542,0.2121975963179543,0.18851332299795193,0.07666070217549967,-0.17608662928286678,-0.3947972640498548,0.1534104410679042,-0.33761552145590246
-0.03367745327353853,0.08249835577281858,-0.030917227873834774,0.07338566985121185,0.26801905496286055,0.195543776005742,0.2578122625612468,-0.22979853074407347,0.0641276584289149,-0.6727097749181484
-0.05891405968796673,-0.046504407729514106,-0.12189558971542222,-0.4647088187844693,0.717916862142426,-0.02864057388579926,0.20015571740610477,-0.19084309021589882,0.23410385941750458,-0.22418419156387356
-0.13497764746461727,-0.013481534116519969,-0.2494367539220041,-0.04439076541080511,0.24085691954157784,0.1489066912400263,0.4901883880735059,-0.11496611982705693,0.03997603153023249,-0.3953014513344049
0.07237175251278087,-0.19946668604998202,-0.35083465068377756,0.12561833835935257,0.6972405675611082,-0.023065333331343897,-0.10283096789398327,-0.14680212466185302,0.145502279844065,-0.22604760103339144
-0.14523694011828436,-0.16943884472498513,-0.31548179523862496,-0.4937184979368256,0.5220147471189436,0.4165171309900124,0.39413105785241753,-0.05032767820828616,-0.14710129223770602,-0.09058076122226227
-0.011671319965318297,-0.4254736724079154,-0.3136844393544032,-0.1021204179371242,0.0810288516048138,0.6441415477318037,-0.3622721391354263,-0.01368523441773238,0.5356272831244009,-0.03376321503873027
-0.09191790873424514,-0.24302153674482116,-0.03089185292752428,0.012234794275031751,-0.06422948509381052,0.28263480143078057,0.006389933610491978,-0.0022289412569819473,0.15440942964109153,-0.015608173997764728
0.009781336438182896,-0.08241926360802848,-0.03577188462417409,-0.014259140308703757,-0.12187161967211099,0.04277437766805884,0.028404922561954354,-0.010537122990857253,0.15125130493028618,-0.01379222410308415
0.002770394996178805,-0.09835013435592573,-0.03950880749707518,-0.005855478177234609,-0.014738228227814062,-0.02614010421046896,0.1477297505820789,-0.015019643240647633,-0.003948485804886769,0.013067675617806286
-0.0015653342752654856,0.007894459795042545,0.0035332927836368338,0.003322731709038665,-0.0004378623927108412,-0.005508648643706168,-0.02269805151189577,0.013932795557827421,-0.01780324988436104,-0.004801540949958923
-0.006213220736302001,-0.003996427466037369,-0.006118552178732765,0.006352070994039937,-0.009650551211226847,0.00033113231090939327,-0.007538250939105009,0.020671001740570377,-0.0076723558719254325,-0.015243875490465944
-0.0035436582671643235,-0.013692740299132583,0.012673844539052773,0.00486030724987839,-0.020525062177909555,-0.018623508245618755,-0.006145982191834418,-0.004552685817605772,-0.014216309496144771,0.006403510842582447
-0.02911783239547124,0.0670569287925388,-0.0016048091676018079,0.24582498292880767,-0.02255678279623958,-0.043577008414838754,-0.1470115042232539,-0.05347196030940273,-0.05425979061528063,0.00704234053003277
-0.10297211379585096,0.008550774723448553,0.1762754501394125,0.3703770384496346,0.14145435750177382,-0.2781221151850904,0.11816328486265906,-0.31539479290940364,-0.08920941979368871,-0.034827075612931316
-0.2298904542138638,0.25362761903902825,-0.09418982213876675,0.7216122410979101,0.2009699776212146,-0.27849936184107366,-0.31784469447091196,0.17694207560617975,-0.36131824443417637,-0.05704706744947535
0.018176661779086868,0.23741574578266966,0.04388459757127774,0.21488504435212383,0.19609092223651156,-0.34429957356647267,-0.276291194524589,-0.026057266390383263,0.09030622411361654,-0.179426092101877
-0.17157706894984462,-0.12247500042576298,-0.013278168890902643,0.27797083037507625,-0.23648963040656337,0.034364339396379284,0.04588619629240494,0.25770812698368273,-0.005232658361644511,-0.12036007463050917
-0.10637401605204755,-0.5966844099940567,-0.08894793204712599,0.30886073345726506,0.08605653477715776,0.19320766261047936,-0.02689584678306114,0.6608654647480526,-0.34012407466089056,-0.04950034572977667
0.18165981674458467,-0.12276686319338648,0.27066802765324677,0.03881474099302876,0.24134896842706632,-0.18637081383448018,-0.009874332253967168,-0.03787313852966351,0.10816229364612706,-0.5204987007160332
0.5243808096321602,-0.5741460886447537,0.3844748039268592,0.04017213502986981,-0.19205981751820664,0.01177560567489755,0.09901248428731604,-0.0005735432896531283,0.02856842576446248,-0.3414191588893087
-0.023166490640543633,-0.17134355845491334,0.10770189917991327,0.18097663335447287,-0.07364961959033263,-0.0007268918004457506,-0.3945574248417673,-0.23972789336260467,0.12266514068611221,0.4860959936228665
-0.26816483840580396,-0.3687188479630478,-0.022312069273216276,0.22233664371948494,0.18308998772741136,0.015708034792940296,-0.2869988884017211,-0.11584220979866743,0.44753072546349965,0.1862729300827656
0.381442762776817,-0.12405683970366904,0.4679296079281233,0.10817542182813471,-0.4125520085459938,-0.07765368488530715,-0.16297058421789934,-0.2849770903311813,-0.05165987192611871,0.0996774113522115
0.4943152324960361,-0.04600134685745092,-0.07778436062323518,0.1254597310525667,0.16860083073108748,-0.08432793546379033,-0.22949352586515315,-0.05402169265195329,0.060757438384519406,-0.38043445031711765
-0.09940473375973174,0.34314126139273143,0.2518094966758197,0.11928706102953246,-0.2116709308661441,-0.11250455301949933,-0.21494343983556916,-0.27354391490697927,0.07662221444433773,0.1270357478651351
0.10015191443346287,-0.2211911671764711,0.3672070614378891,0.30861634013428146,0.18420485181583213,0.006476697246649106,-0.42534382068292115,-0.29004968443306645,0.3005492314048536,-0.37857258835687924
0.33943009322773854,-0.053160793966526475,0.08281519280906359,0.0302308526860889,-0.05972619419826872,-0.026183837697713874,0.24569634854105074,-0.31924467198665846,0.1622448420378429,-0.36597294265200153
0.32710841027828014,-0.49952532569878455,-0.12192933254170196,-0.02425465298506921,0.3188723990177963,0.2618761660632474,0.13518516764167582,-0.5117258658027456,0.06506911946311277,0.0445514276720593
0.24583153878997183,0.16127799750739572,0.15487362559138823,0.15856577736783567,-0.1129706752673119,0.1276925176636069,0.16197258861959007,-0.5453870165044276,-0.09854213571782419,-0.25325899559980636
-0.32156030558806664,-0.1353334974870407,-0.03489247289975932,0.3643175771782797,0.2604910734001016,0.16018911005245332,0.10614340284260607,-0.5864082071864696,0.24791444800154316,-0.07160511525579501
-0.025117143969109006,0.45256024134689915,0.1598796754980813,-0.14389316382799394,0.10144671148066649,0.12621447156682966,0.12617446037473112,-0.6242010501859545,0.1536647716801781,-0.3458231955987542
0.2662442385767809,0.11966314787431824,0.10268789969425267,0.12869408571891777,-0.036349081154810677,0.3598814159967925,-0.39116474292195985,-0.37616996995890556,0.154315848775592,-0.29567944596377316
-0.19762011229967807,0.03567990303190574,-0.1855630951200804,-0.290749857488734,0.7893075832544428,0.1002892964031258,0.680834272646955,-0.21049379980079733,-0.3309145152015895,-0.3586602360410659
-0.43568416462264176,-0.06064253741044864,-0.3857218622167191,0.007911537015038808,0.21187973595638837,0.39836066862850333,0.45928797636636215,-0.054865371699982755,-0.015893889758376606,-0.18159239965562435
-0.29464302239280765,-0.49684631251958233,-0.10033498959239372,-0.047800517245096645,0.13881448277968841,0.49029512688606625,-0.18841016533499852,-0.04358824038411237,0.5770762349417076,-0.044412628041596125
-0.08089801443708465,-0.09440383879865835,-0.03441748244536632,-0.023179627046912905,-0.10546429210561707,0.21290044542712955,0.06246539673037559,-0.019251115549447848,0.051042890611970274,-0.02292291657701754
-0.05138164842238644,-0.10481803584183304,-0.02749696256257762,-0.009590527122089472,0.006105351104618454,0.01535749414327089,0.13364657398775553,0.0037599249773593935,-0.02642046504372359,-0.01128922184987592
-0.0013396565041777567,0.0036754767635534735,-0.010694797330064652,0.004032932724602894,0.013011064480967779,-0.007302391161423528,0.0038673938010504423,-0.00516492584651853,-0.007515069671328996,0.01552349838176772
0.007970279055484345,-0.010071806418382307,0.008845759367111,0.0032804470412045217,0.01819260302089611,-0.007645323116905186,0.010173869875851053,-0.011550337771952371,0.0048907422379327655,-0.005211224945233968
-0.007474216938902479,-0.06278656093260039,-0.02659810689545893,0.008658191009947743,-0.008603937665245646,0.07395031142622673,-0.002208753927518607,0.09485792230360858,-0.03013377319677639,-0.0049621554392795175
0.006675886500096721,-0.01531150999298048,0.06834467194868425,0.25985546857360586,-0.06612394131591486,-0.295710136464523,-0.09470832500104737,0.23347599139423325,-0.058797345205277886,-0.03635884008312167
-0.14091854532578474,0.057169485027497385,0.37987405308831856,0.11736234378894635,0.21442880886179583,-0.17811330632419217,-0.0370816441726517,0.007320427169333548,-0.13933097878268758,-0.2601818197756304
0.015164158369448118,-0.0697454597825967,-0.14974386756993552,0.10841516919218669,0.19625784834012208,0.19157605978858674,-0.04834302794439365,0.6494550175319689,-0.17145427310238248,-0.6620664952262231
-0.1080308541288798,0.25560723686667547,0.1658356141845678,0.22806047390397446,0.010357847818429399,-0.12363010658316764,-0.3750579837510599,0.13954704765804465,-0.2659663883750042,0.04943868372012597
0.004619376092360986,-0.34514796782406626,0.19884685342601274,0.28368159150233485,0.24113659882126612,-0.18825867833557913,-0.06743812413627086,0.3719357370467105,0.2003878884894255,-0.6788319663996729
0.019490533099799805,-0.12081461438255793,0.21386743772808262,0.08356899157086985,0.0296667780796377,-0.04205455886866096,-0.09527966014764194,0.07572687539514611,-0.08779605012468662,-0.035769946820327116
-0.34904460315768254,-0.349370211861035,-0.05759980174831994,0.39642180583303244,0.25510702713574546,-0.0950566599599575,-0.3053475353624731,0.3920314187861897,-0.1658173125213993,0.3056362073057132
-0.2969823870125731,0.12300752410872841,0.09878920596321741,0.2461359220213785,-0.16546036395980257,0.05667588391567919,-0.3118610211112381,0.24567398375123933,-0.01170820985711117,0.023942328096635643
0.10972894183242865,-0.15543993870811154,-0.06486281785325462,0.1604330056031969,-0.05681695415118024,-0.05515671814804706,-0.1546739059215209,0.2705193201686153,-0.14909292141632205,0.09964025955936368
-0.44934541428518016,-0.34258510637772077,-0.03924175113944242,0.11349314242248919,-0.38873087515085,0.15945041245082173,-0.13201804682463034,0.37357338614425273,0.42653170405436697,0.25545231769799104
0.18404055941118164,-0.5011680925249837,-0.2045286958573877,0.20663553937687537,-0.05248478533639911,-0.11452531848204388,-0.11301776901002532,0.12906391251610547,0.00792969822380339,0.42457642363753
0.1386976184336927,-0.1802990428000431,-0.04875169605230126,-0.01954857538262745,-0.5043078391138418,0.14581617397610688,-0.19607405293977512,0.07127812097747376,0.21643390170033142,0.3512301230862764
-0.23200437212206643,-0.5261736064773268,0.0738291060628967,0.026971668778944913,-0.17820808332281127,-0.10992578558647766,0.03575494322446516,0.03801466020406467,0.3413462499271427,0.46816178621475507
0.28325992956038837,-0.26864536522600435,0.07864629354715359,0.22424486768782897,-0.2711540393242435,-0.10095655164682389,-0.1483409951089367,-0.032303040897823536,0.08621350581060136,0.14325508771832798
0.15184693184948228,-0.4487916574650974,-0.08436927459270102,0.059962972143661905,-0.39536396996048134,0.13642476946072923,-0.4656579078297566,0.4329856070524722,0.1733914170560968,0.40695925044229164
-0.09369164903847567,-0.05906308819131092,0.048219284126649394,0.08604963148944733,-0.13528587606075734,-0.053046484847264395,-0.28876572432084285,-0.1543099376227552,0.18124595922600623,0.4824429684982981
0.044660209261774914,-0.08824560535468895,-0.0423900440082275,0.05896194467868462,-0.3570291789833797,0.1097224002986516,-0.15766999101777524,0.33872672633274675,0.06936345795780809,-0.000735272252639345
0.17561399402299946,-0.04222653762602709,-0.14177571495979854,-0.09083787004280096,-0.024990285785642757,0.4540111055434865,-0.32272037801175124,-0.22944825734109792,0.14016041534819282,0.08394253620747975
0.18782181603767267,-0.0032796025566770638,-0.07415547381792231,-0.011852836378651683,-0.24536758333329764,-0.017068963382586084,0.05830561958859802,0.20878077018015306,0.025352701277947188,-0.11761904223248763
0.4537168929374179,0.09134182064221924,-0.2450159992961688,-0.11753504820077079,0.09133795068993368,0.024414859199830545,0.00574657875240767,-0.10392224309239363,-0.05742005608697348,-0.15847625596713877
0.22572906841001497,-0.17262345823280906,-0.31493187655468924,-0.11515735630469355,0.6059125203597939,0.18309109230935505,-0.1279179879005631,-0.3564152048401666,0.06353499682025426,-0.010295971652567024
-0.6749439787596963,0.0024124747390684115,-0.5403934863973274,0.08175239706654211,0.3253848735516856,0.7160659555133452,0.1761202637945948,-0.2570440230795203,0.35799275314853823,-0.20768842074264776
-0.6106151095270957,-0.23300590580209143,0.0018068424683713852,-0.10625100066043414,-0.1126633682190393,0.2937078932965001,0.2518068223162161,-0.11490893341871992,0.6867111040241084,-0.05738920367593492
-0.23992793478621774,-0.022088379093430255,-0.026321832521663185,0.005872147255512292,0.027969811058027268,0.2262874841422474,-0.08174753339329034,-0.02163280537498236,0.18164772355194464,-0.026981087284600483
-0.055595060393957084,-0.010989943362257955,-0.009731701422350511,0.01088698287681239,-0.011472538638311333,0.014927148386337451,0.092786974880155,-0.006504032560348984,0.004831096187011924,-0.001674569221017378
-0.01213007145772386,0.005998295084043259,-0.008302064339954795,0.009247642982697028,-0.0019052344822258363,0.012173052364315132,0.0052478090362453505,0.010658941898262555,-0.007838011741887332,0.010351730551940013
-0.016544202136248284,0.00615485111482916,-0.01265497909551459,0.12449083826099862,-0.004087556180988283,-0.0038946498030142116,0.0073621098807662155,0.0024575703369536903,-0.02682418583441252,-0.0792077138358153
-0.0005982472920268593,-0.14990540983066605,0.10282724859174952,-0.1477482377742351,-0.013748031378837379,0.04829162804505805,0.0015020800827348609,0.21372990787064516,-0.04149153541813782,-0.03215854044924401
-0.005939123722994961,-0.06004332431676122,0.026165087615093358,0.2534501381500345,0.0321235082667469,-0.31402423582547323,-0.15019124182207047,0.4136750342989551,-0.043227232728244296,-0.1180391731106623
-0.21549823087037726,0.03750258788382212,0.4572976603094438,0.551982766848448,0.3605787197245282,-0.9252590246405004,-0.039740356457733106,0.1807354102390236,0.055098180060707304,-0.4829186286117598
0.08769103890725324,-0.4726914900207971,0.3565344937381129,0.4663347803764516,0.49786119658365807,-0.06458714941928662,-0.08382884851180897,-0.04570128348381083,-0.09252079285282759,-0.6746706558701532
0.2582426585970885,-0.4739363287969734,0.3862823147334555,0.33540257351987707,-0.08683626422920768,-0.1002610247950493,-0.6275367805074534,0.702394079870869,-0.06773317102941419,-0.3062366895950279
-0.17993559755099728,-0.04128807959367092,-0.016438577918749673,0.060948438405012184,-0.09364558411942375,0.2912188523721986,0.1751027933598751,-0.10179593486392163,0.13377020232712752,-0.2017059400021632
-0.36952001764600745,-0.6758756124937435,0.049062006153263414,0.16297588435878843,0.13771463558274696,0.2777622256698524,-0.25539249603898007,0.35827046847737165,0.15927448617942716,0.1486618264104038
0.19701931947652793,-0.2247338279740388,0.0008253350064794789,0.1850559929053066,0.00482806088469777,0.062348165060491824,-0.19061853046432983,0.1916333877194149,0.08204400357547177,-0.3132010289240405
0.09010239922501065,-0.6219536760016301,0.20066220081934444,0.06699952338859479,-0.2577761228023818,0.34357687463566067,-0.29956631630846137,0.18725002964124435,0.11732136400472132,0.15166475627940304
0.24449886596467157,-0.24275538736328348,0.03505559864074389,0.12016461574602234,0.021982938673958747,-0.06702242375801942,-0.1675518169918543,0.1795009032497142,-0.2459193184647885,0.11468713356780595
-0.12355524731515169,0.34019215649041296,-0.07000500559752793,0.1028817463780008,-0.40011228284629224,-0.04828909971440944,-0.3439531349825778,0.3577567231081234,0.05584617422085079,0.1230252265907454
0.19425636878252628,-0.24752921040061682,0.20820243521055745,0.09813782255702119,-0.24577563968013316,-0.16606979064382135,-0.29867759702376484,0.08870679521963666,-0.0922999552943732,0.527280049094856
0.2027331824068426,-0.22118839460501563,0.15354257784096254,0.18237698722540846,-0.30479483297912724,0.10139025550695306,-0.2746743793290834,-0.09000562227919294,-0.07621102187564707,0.3670818169514363
0.0775002104985615,-0.20478946184925595,-0.16988234244378195,0.17895613525777773,-0.38676497413468824,-0.1352063926247028,-0.254086536604621,0.1611536340442843,0.23792189063915734,0.5365068300278175
-0.2227018222548955,-0.15340582353795645,0.1004236586494892,0.2228128409815477,-0.3315647286859702,-0.04471426274388819,-0.4489751241154597,0.18373159936040143,0.06728149327085577,0.6156853219750511
0.2446859935154461,-0.1359440439202413,-0.32498463021495677,-0.15511301611157058,0.051130276266353566,0.04830532960454714,-0.1577812609406545,0.3838264270539498,-0.17073828390730653,0.26669864290304124
0.1907804248642308,-0.10274542072121214,-0.2090023032252694,-0.05389809225548418,0.09593646148400112,0.023015268917176673,-0.41776591120972434,0.3950044864385366,0.04302653230006743,0.03975610148997779
0.13505209561138617,-0.10692336570974068,0.042343573766295724,0.03366749417661829,-0.10862471889596995,0.08602873723352901,-0.3580493671834885,0.08031242097007742,0.10936599297505263,0.1224629066004665
0.23551123844300922,0.02534100576383015,-0.2703187357547756,-0.10726349777387635,0.18283813231956142,-0.01200569028221899,-0.45199702202076303,0.2431117530625149,0.00695077399868943,0.11146575471545882
-0.25794992088022545,-0.16186407065566635,-0.024157063876812192,-0.037746413958009914,0.14752875729085466,0.044153791891072054,-0.2069788872161946,0.154007010761965,0.1871616819072743,0.17158714931442517
-0.043475748385015466,-0.06826496694328184,0.09663475057069919,-0.37203291905715397,0.23414217235946544,0.4248866530751571,-0.15791017963974927,0.02143650420685839,0.08710013420104072,-0.21078270207235306
0.1260855997159362,-0.29470740193404105,-0.48831228506294666,0.06895949038829575,0.1405521207760933,0.21354682244213055,-0.19218768764613323,0.23081522966354145,0.5364486869941342,-0.27086696786148184
0.04422279137619034,-0.44314927987912683,-0.46003093881830315,-0.30680166430958217,0.24116694013763626,0.7407288308111111,0.4335976846352471,-0.059401001631277865,0.15613063403000063,-0.3312021289192266
-0.4105058368859963,-0.3779809675579209,-0.0342711556087466,-0.11096909704579183,0.013179590425954795,0.8880764708631059,0.08399683637087137,-0.14027368073291235,-0.009636278119230632,0.07438133886408604
-0.27867962671973207,-0.021213267563291918,-0.020773794887438152,-0.01889773589397023,0.39216206063282844,0.1268482673193927,-0.005056777121352328,-0.022171332809215676,-0.030142261601919216,-0.08888549234961342
-0.024922413230164055,-0.006030309564245307,0.004090698670348257,0.0026910593685021693,-0.024734870113288475,-0.007628536375609043,0.09986900347252653,-0.0012960263595555392,-0.03782410655155585,0.009927247890848414
0.16851707042862854,-0.00989658793559773,-0.010370835629127316,0.021686620522231876,-0.008325191058776651,-0.00798081093633242,0.005726609083611881,-0.07234157755226553,0.0017101497684300908,-0.06638961024541394
0.007479529264582205,0.003604080764885736,0.052357632528030384,-0.022118199671348072,-0.041798938648328635,-0.007431271828808331,-0.003805744511488117,0.11316889837755918,0.0036857328990054076,-0.08923058933830269
-0.0021855250952607483,-0.08873376683793643,0.04027160302594816,-0.11144450542239241,0.09640728211997611,-0.024840690857012904,-0.02636816477842387,0.19876709938937479,-0.012209121770651222,-0.08050165801611998
0.13803439031521716,0.007351090515302369,0.14117268517912,0.15347558708247955,-0.11957737021458555,-0.37679596776696117,-0.2018468419894382,0.6322288490670395,-0.006096725050371292,-0.35952384017183786
-0.055027531656916095,0.02323769672903914,0.2223117251887165,0.3454335046579018,0.1352639094246415,-1.0210391969978212,0.09866607177563885,0.37846571904726206,0.3158210627812243,-0.41856471625713
-0.15781247491311565,-0.18373230229388765,-0.02650631899356453,0.2779513105399772,0.08470940938483328,0.25450040247868905,-0.4184358309205533,0.1856300345924758,0.13900675981166105,-0.13948729299679816
-0.009850371656090972,-0.34799672680846966,-0.26237697364697316,-0.07773024655197779,0.16698740594539715,-0.23152155202465402,-0.07436453001235632,0.4423131404574649,0.20813406845358953,0.1855021261511541
-0.26714796973799415,-0.07798745867539243,0.34015665294879543,0.20991077166683975,0.1077522595683383,-0.11515550439137845,-0.3094758667402791,0.3875287436543258,-0.008506831913722328,-0.29174127508358766
-0.0674549261738441,-0.23744533631616194,-0.2271485953728646,-0.1940829423832649,-0.24868137553430958,0.16584780580664557,-0.09198916959685764,0.5162085535491827,0.23405111082634691,0.11640517226665158
-0.06815141910764895,-0.13678897192779252,-0.04851673378578364,-0.0029865697895036345,0.11846882842627349,0.04646948675436482,-0.12361210955259745,0.08990829481344036,0.0865677246474712,0.02570738943146313
-0.014120143144123647,0.05490232380680308,0.2737576060792721,-0.09295370857230265,0.015220450814076608,-0.036935200834975916,-0.0721321357573377,-0.02888939810369022,0.12702512291055804,-0.23251923579929734
-0.1842366467708172,-0.22442108560526808,-0.1024184583436189,0.08991764680888174,0.0017394670570153516,0.240508212782085,0.019387697107169914,0.12659039628650326,0.07429376735827782,0.03392051364875641
0.017762683826059163,0.04722961049391116,0.1360679302803392,0.0599667159363666,-0.12298530531046176,0.15669409881736046,-0.40572017870020244,0.1460652399278487,0.02146332740988573,-0.05243583695165391
-0.050809119286924186,0.08067551860696526,0.06873986028042871,0.04829523257296561,-0.23899172021149717,-0.053748021738714506,-0.15488874160078797,0.0982754492398213,0.11323418827599951,0.08172945875822293
0.23413700440772114,0.0408737712125658,0.03419026447960134,0.17709354748993283,-0.3734170621945313,-0.12647479189432903,-0.1981612253464362,0.15784673321435957,-0.24592509488438544,0.2992857350151306
0.26375846021338817,-0.2127276662359489,0.0004003201244489,0.19262567502129194,-0.26884380573631617,-0.11229454653902657,-0.20396222017077606,0.25369395525248906,-0.17845853207410928,0.2080427661976341
0.4850258571894343,-0.25746239325648457,-0.05610081940294575,0.1685917846379882,-0.34397929283245643,-0.05181932159274079,-0.3624672004944675,0.10251618677133091,0.13892698132021278,0.19924106218310178
0.6982199868853375,0.0919134341293275,-0.08071977929905313,0.08141484953840201,-0.4670184915233715,-0.004094293450235387,-0.22222267486830583,0.056449273239711426,-0.012351748120998568,-0.15451251622051032
0.27571903673834663,-0.3452689075648057,-0.032053124721741454,0.25403882488719337,-0.11689275579568353,0.024969687850157025,-0.3097136622568285,0.05127679459276876,0.025389933758924305,0.1834377585872448
-0.07119807110323965,0.2160103570075751,0.14281869706482944,0.2608938930550663,-0.14698485060158753,0.012974696338534713,-0.6112409798949485,-0.03416329176264888,0.2549319776762699,-0.029202908095177043
0.06705089644520006,-0.2519236038564959,0.14237117761799906,-0.1452503977036803,0.0908550922869098,0.1588885741144931,0.06176337360832605,0.14553243931494075,-0.03948040019848399,-0.2520697011994681
0.12883363940623557,-0.3726691291778716,0.029036844813078413,-0.014517814007629843,-0.05660935040314239,0.1024093229401965,-0.21805681417162132,0.2549937330973893,-0.018174743042592312,0.25563567331304626
0.2568004850435612,-0.07235704802675333,-0.05986053650362986,0.1994070788446073,0.016700762750025216,0.07990864223583904,-0.45144283323518936,-0.0467994727922069,0.21136371038749752,-0.09291750954999549
0.09013643213670393,-0.28536172166128587,0.011506121946109855,-0.10531769696840995,0.2241950095338322,0.5120899468317137,-0.30901803529817456,-0.1435618693538421,-0.015154045545258017,-0.010219585630419104
0.7659811345676188,-0.6669097704446151,-0.6329037213222521,-0.5366122494558823,0.15846446712024867,0.8942525299619756,-0.6501546616658737,-0.12849635428379888,0.8396233987629392,-0.04723345170183845
-0.5398483406948315,-0.26094828744004056,-0.3251014616519171,-0.12406550932115844,0.3952375215192226,0.7757368179205757,-0.19295349212430013,-0.1705779054139863,0.588862916640085,-0.10858477229448045
-0.2779220989591236,0.007677366119100593,-0.016363117092251935,-0.005898349015295883,-0.03685419566903037,0.25895099669428867,-0.1714861449750375,-0.03428862878124915,0.40027604365573144,-0.08977963845775287
-0.01032422822521194,0.007247343755895526,-0.004872481813792164,-0.007203399628718842,-0.05874801101990579,-0.043122065129551156,-0.03725689047240205,0.0073465529866493,0.16102486440966043,0.009050990673465865
0.0003259927760367337,0.00242407116706267,-0.0008470049880557294,-0.0038149618540375134,-0.0024452732787524044,-0.01559282218001308,-0.0009078212281673566,0.005405634773214168,-0.014816378420246412,-0.006583171276614891
-0.004328702611511601,-0.10407489077609564,0.004527891533518906,-0.028221066934878712,-0.020493516888180623,0.006023756633653433,0.0032345496602684516,0.1898467283654773,-7.021373465415008e-05,-0.046099958227413355
-0.0029597083727153093,-0.073461678090016,-0.12324470743742481,0.07448316121885754,0.08925490919611209,0.008122985099379476,-0.014370597587889099,0.2704641842020818,-0.06911146753371049,-0.14866523762793707
0.09515678603459737,-0.0005968787279182635,0.12770685318954156,0.2934835912079022,-0.3111224443854724,-0.3116570381877432,-0.1133476090840381,0.4858243790583787,-0.014365705659806376,-0.27940960515787877
0.03246428166050446,-0.288535548834987,0.26006617650559005,0.8950097165500395,-0.27887776841861384,-0.8116598544550009,-0.04584626794927551,0.32210903109254196,0.0075107849086208395,-0.11720956542554242
-0.2212459518461325,-0.4637173371115368,0.5465832351408608,-0.31290198196240837,0.16169349644679393,-0.05545412479297628,-0.23609327735583752,-0.032102664381936735,0.24203855983248668,0.3540166234891995
-0.20538576521447807,-0.4675465009141083,0.0023612963390561162,0.44186645721484363,-0.07796865872604014,-0.30342308163226045,-0.32861122825913064,0.4033972464665164,0.30814253682467546,0.23604963250188388
-0.11051750749113505,-0.1990899802625028,-0.1405819326346536,-0.07589116667751154,0.2255775543025158,-0.007763977185532399,0.10128733180239359,0.038530308921699064,0.13485183625722208,0.04290130148317387
-0.09399099525887859,-0.27554383506320884,-0.07448624503134331,0.21794923542954225,0.06637162881742731,-0.036541868979698106,-0.24029847924765382,0.27381342997919467,0.03025840063807421,0.0898149316814317
-0.05303137066256637,-0.17162013600307885,0.1432656699609331,0.04450351784417368,-0.1870345765406472,0.0437215265960809,-0.1772344664992447,0.092442433058059,0.22098478643218478,0.06495718956065438
0.2203016602948123,-0.1808168540174314,0.12160015492401656,0.06933704554773425,-0.37034187590085604,0.1928889996398625,-0.4517762982055326,0.14212594219503832,0.09349184815840982,0.11613172012649564
-0.024728555413233714,-0.3220978052369478,-0.09213938784645218,-0.4009005839348759,0.13649452304424958,0.22477389173243162,-0.13348897732935244,0.32195707224836906,0.14186003426819083,0.13685335130805243
0.05781074525275127,-0.081881737648105,-0.02353301048026404,-0.12367174113964183,-0.15205119082126622,0.03403107117862621,-0.10996355777759556,0.2794594457364554,0.09680458483640214,0.05878084367226466
0.4155536042441517,-0.0825615238751045,-0.2422812905325979,0.14345089785273887,-0.10299540095876243,-0.06473474693675725,-0.4446445280858036,0.23917989447245966,0.0334706104361892,0.07748624766752864
-0.03207925125876479,0.1465565989903489,-0.02857684573740809,0.0433135727594265,-0.47804911101297215,-0.19584033531741696,-0.14809024263919446,0.5343648267826218,-0.05625250084255111,0.21431666933348084
-0.28796926455541244,0.3265590381691386,0.3169375403132905,0.25345384639597157,-0.15646189518289275,-0.34703429804262254,-0.56561722064155,0.49191272460990243,-0.2360548383821092,0.19707708288194892
0.2750658287352318,-0.09458138732102352,0.12082758583775623,0.2508710166672194,-0.06453459456658897,-0.27904793931411886,-0.561849779417961,0.3588409160365415,-0.09675110379721215,0.016834598970595128
0.17784925093426437,-0.07080396293031489,0.2943436626503203,0.2394509299407772,0.07176828585980785,-0.23921281013739998,-0.9678892715237182,0.38772081104700973,0.08841016717586106,0.025949452801995475
-0.042717714001236695,-0.07290884831821036,-0.003731714103727101,0.04502180179826789,0.09820999419638697,-0.07333351695912903,-0.5651650901346806,0.5197078400830841,-0.06641997594355438,0.14245056996073613
0.565994373679294,-0.4701321838407707,-0.25263452729667235,0.14071104684034474,0.16665521643318912,0.049471833881428146,-0.6318349628981671,0.28715994041498316,0.12189267979065516,0.0862024211287713
0.07057983064181833,-0.42555827110045635,0.12670970931656914,0.3997027981044701,-0.3261765693601923,-0.0036335024740853615,-0.17290433192715557,0.13992027645863864,0.15303529412240624,0.02726436202860667
0.1518618624732475,-0.27282769476100144,-0.06957432565054539,0.2215983927557939,-0.045498034871158034,0.2202341261071396,0.07186086306187466,-0.08168152894446677,0.1888717931491154,-0.405220586142167
0.006473593619873281,-0.32548451666802003,0.09326566083837459,0.13905676601912392,-0.2019239761724765,0.036380615654464016,-0.2688176574996507,0.4144530170203116,0.05021308152009903,0.0357028559971184
0.3588124736475354,-0.6321901146288996,0.03238235756546536,0.3647809895062677,-0.0496350754362991,0.8147019119240967,-0.470843333479498,-0.09862769072771763,-0.04025099683184892,-0.30606660978957584
0.4159016709424267,-0.44682592000913884,-0.8659136507127171,-0.8959138123334754,-0.030333579699480622,1.2784792467740715,-0.04954191365525798,0.09854962978550587,0.750670945311521,-0.24343210533822257
-0.32699246889564254,-0.3637255092810641,-0.3269779072881384,0.020074432676349806,-0.038660307407721334,1.2294443301043034,-0.41696799577841953,0.010867486069742091,0.2889878443235737,-0.09599892205465459
-0.4051420248630999,-0.004607577394005969,0.09572410616236818,0.0032496797114859657,-0.21492256984396463,0.4741938417741961,-0.3786461620842406,0.026542574279553564,0.5913775654231105,-0.18308168698270816
-0.00454157550076782,0.005345742645223924,0.0029927685496215443,0.002851036349228101,-0.018357483561386365,-0.013220680188046108,-0.023101001492718338,0.13557174688122534,-0.120016308724159,0.003607738437465531
0.0050992306769062044,-0.00045304279583405856,-0.00665455154255885,-0.0025372656665173837,0.00831160331792729,0.017773056664791762,-0.012642480748082599,0.013880755897882482,0.00639494068535117,0.0020060614789290895
-0.011336729903533146,0.012191315324222286,0.0011226716759849696,-0.03598099198253692,-0.007324053990899478,-0.002736675860213313,0.008928290641765577,0.058003107048602495,-0.002689855494429523,-0.028800525220782965
0.15771950047488584,-0.07731907489430655,1.652498148810131e-05,0.04056265431365188,-0.10615968081165268,-0.011244224029406065,-0.14658789140928508,0.36054755010779804,-0.051760669648469364,-0.16929028031358517
0.23368207367105853,-0.16995346082172924,0.20117716349210693,0.6726910646005629,-0.3915441315659713,-0.38086507856324825,-0.25414698821196763,0.6193145713071994,-0.3794767984075924,-0.20238348394161162
0.10335383571609229,-0.20252392335810043,-0.2174579947962999,0.17589999812081586,-0.11636198968442583,0.04675258464726251,-0.17006636092703298,0.4369236403302365,0.2975043287186451,-0.3413853582566332
0.18817932277464147,-0.42062296026240625,0.4546264694550982,0.2613541452674905,-0.6921039866997933,-0.13604923444817282,-0.06910053257125397,0.6945872971511499,-0.3354631835867819,0.07699150490245586
-0.07614750171341451,-0.5543850424587954,0.37952008042342494,0.5392425691617058,-0.531537979253832,0.14483557730289287,-0.36669522209532185,0.09545089750493552,0.11177408533821051,0.23697691085497363
0.28038557169219136,-0.09601472881660664,-0.03172512082596726,-0.14702491508470225,-0.015051535530057805,0.1520900464860125,-0.011838666194834533,-0.09216251483780033,0.037707906891434884,-0.0643684554247212
-0.02944211362725286,-0.09783945741789993,0.07653946234633235,-0.08377824328415132,-0.15258854804949568,0.2936176120418378,0.0641355901257451,-0.20372928218069086,0.13965509118162903,0.02675442689034848
0.3691162809082418,-0.5769608224603862,-0.11896178145367561,-0.6302467374543411,0.2464671167184457,0.2956427076992356,0.09844453979811901,0.03476593673224779,0.2642074190032991,0.015038816730770278
-0.13506920528687455,0.059450612272028906,-0.07307166447435802,-0.21446631571903563,0.018711004522041358,0.18378363800852776,-0.19572344556665952,0.05772186414763289,0.22600518443396098,0.07632383156174487
0.02269325649270636,0.19405872297205085,-0.056791607592829425,-0.40396472440632547,-0.1595322945492833,0.18302873696099603,-0.245834318563005,0.0046384337187815585,0.297534940366123,0.21720193913022048
-0.07125358045539906,-0.22140563236589414,-0.12465030788805286,-0.24056193503161835,0.43942345761585583,0.2935093074270648,-0.043811578754219864,-0.13613475028411795,0.17130832765276546,-0.057217234546938396
0.04415822560405998,0.22081258467692452,-0.18255662187312288,-0.09832048326309921,-0.1775110717603953,0.18629863204553188,-0.2585480494007352,0.1800337908379404,0.08615718316899225,0.030604387760495896
0.12909106383238725,0.6230214803203404,0.24987053877825335,0.1762808765935436,-0.5710231527692783,-0.1954169673158848,-0.36404391292308,0.23853526140555253,-0.17681861517968345,-0.14407688214622558
-0.3161629864157468,0.7049432380749419,-0.24464818559326654,0.17053529309475737,-0.14647668367193206,0.09052585890867511,-0.28611503279018546,0.332506844861759,-0.2925289036231449,-0.0578551185726566
-0.014242057447525144,0.7128807391414602,-0.1126126276522699,0.1947665402001564,-0.05436177223445774,-0.4056578075478281,-0.2993200186732628,0.4316335430782881,-0.3782470151737891,-0.07641371540508454
0.5931881162877048,-0.07276553460466417,-0.1498802081617833,0.051139422212483125,-0.04456824720242143,-0.3701128860836092,-0.20007522433472757,0.2700783656697265,-0.10299076102200237,0.05346669172346388
0.205224233882144,-0.29828479981251577,0.20178755120180408,0.1032330277746502,0.029589087540902805,-0.22663098824513522,-0.40627932336477685,0.21602116788720438,0.12442274369993257,0.04987748255046133
0.18779066529212676,-0.05781044735947675,0.06296287227725353,0.17802402429772288,0.027822262899061454,-0.3903293754553361,-0.2466638016546215,0.3080662278367246,0.05844670438175831,-0.0630507573676333
-0.14114607102740961,-0.1538376402382902,-0.06826089076515088,0.13052529006131097,0.24786817667301778,-0.3986370164777688,-0.3524792293827504,0.34409695583156924,0.18382622465548817,0.1414900977293264
0.16178211492727146,-0.3066953505155603,0.004004652699171803,0.06621418925198948,-0.11886680243605027,-0.04603404797413872,-0.3165659615620209,0.27697611664302185,0.19429329286581593,0.12725516441285786
-0.17547961270794285,-0.03830090172824678,-0.243697566436346,-0.10994960903472191,0.4578165104951101,-0.0679069969834713,-0.5037070596483153,0.19225208920232492,0.440956132103995,0.04278278202615927
0.4931730555076722,-0.4328081370937923,0.13823412375841262,0.13161083825305728,-0.18055568780455522,-0.09974300226655333,-0.1458424779752977,0.08301693137028787,0.14609557530492506,-0.11172827702117612
0.48098320065963945,-0.6053339636372823,-0.770057108395171,-0.5741881779668532,-0.3611826310974586,2.0795062213446416,0.22843534843286367,-0.2549145757155289,0.3097186304654982,-0.4893922162516211
-0.4871459424548631,-0.15138681753726532,-0.3055038866165214,0.11229685247367464,-0.04071232821028551,1.2512094209132172,-0.3353186596661897,0.0033892114090124594,0.10421875723167526,-0.11994190799316846
-0.33018326870118997,-0.12939244199520908,0.1532595981099551,-0.005463546446418172,-0.207692146558893,1.0627097390586393,-0.4075753985724164,0.058262689974421696,-0.04932242192825941,-0.16105391493332297
0.023354316176305165,0.00744176286949642,-0.003085085130059351,-0.004758463540391162,-0.021311553808025477,-0.01104314641551058,-0.10719039180507249,0.15301580599026474,0.017017409023851036,-0.01412427634969113
0.0053613296467382365,0.005591482314379667,0.006421043954890668,-0.005189203858602148,-0.0010983689713203132,-0.008179575562020348,-0.011468191689147367,0.011764118694065856,0.0007710477701603773,0.014099584924119614
0.013112261125879368,-0.002767866970591761,0.00583370438530389,-0.002239925083642017,-0.09400782124712885,-0.05954751508102328,0.0020440364802163835,0.2390930776858128,-0.01858049108534721,-0.09054053204400689
-0.009569064207869103,0.002288259322970603,-0.04036391622955111,0.04986977637953541,-0.25244326368143893,-0.07335207990837117,0.00916715196971635,0.5873882395761942,-0.03072174399829302,-0.2533624112929533
0.07015696306055169,-0.150693976557564,-0.17985413188272065,0.7604273922686556,0.016679112770320772,-0.5239462198867729,-0.2013230091539139,0.3321557558113874,-0.11664902613165391,-0.05000550364278403
-0.5256778581418078,-0.1392375524923534,0.1808719577682799,0.34539410909990764,-0.3247615024530717,0.40021080421916694,-0.0864546943449327,0.26962506625546334,0.12441322813414463,-0.18551547216300324
-0.18279726932700674,-0.1255808802258875,0.0977827340685742,-0.5542711313020576,0.5299283639772858,-0.2418787442571646,0.37967238081675164,-0.45901504629398043,0.1282659185510196,0.36583014777271317
0.22244635821714143,-0.6692899886073806,0.13065440178411658,-0.15078340614508753,0.16180426859904762,0.42140775854962126,-0.6553352532299275,0.07360490937760182,0.456628591985821,0.044481804395885456
0.08340863077877839,-0.1898909379222504,-0.3976967632838756,-0.4928930055444386,-0.14568308010668385,0.17972973366230569,0.2634229174320805,0.19004277036750422,0.36964066135614787,0.21088328384277402
-0.15285710709807512,-0.714494185315388,-0.24310012756906013,-0.05877836328163121,0.34563832916901877,0.2597538149975345,-0.22709348375700358,0.02126293316447827,0.3680529161203265,0.3716271959728946
-0.20738391705576636,-0.1047248624393553,-0.44047405266980294,-0.1328071515653362,0.2798955972886615,-0.0001655187139520119,0.1931261823507445,0.08456691657711773,0.16970724780802537,0.2108557249849744
-0.15261529787235212,-0.05007838192525154,-0.45084217181072866,-0.5239320800854288,0.3477419105954462,0.10962239971704074,0.28873485474075594,-0.02220149052310647,0.18505721663377192,0.23842988379256166
0.31771768483382234,-0.15999971540820698,-0.2875225963540056,-0.036123271743537716,0.04512254150493701,0.0838410693978864,-0.38534968851557966,0.11164338460423114,0.06894031730619654,0.24258033755592354
-0.38545978610005066,0.05320456657503426,-0.33555460125462766,-0.1784429682010688,0.4900885567528926,0.20846394934299275,0.006390159648518373,-0.3156077468055463,0.2680193826728043,0.19424525413143096
0.19108263649176133,0.133852772057576,-1.001703819779215,0.18118893656294952,-0.4729778533060473,0.4176103705411142,0.28686729174382236,0.17646041921962824,0.1626851653417807,-0.10007896951427597
-6.860461784119465e-05,0.7007790330874868,-0.5542264094786723,0.24351104376351024,-0.8273891474002121,-0.02780827195997304,-0.26636547915443193,0.3217315167449651,0.47777055975427124,-0.031766547531120175
-0.913953475735126,0.3934011846046231,-0.1636738535105882,0.060623268047313036,0.16098813074056875,-0.1467356450988803,-0.5332510429922914,0.587220798625314,0.2714462042721596,0.28921488748223956
-0.08010755523475625,-0.11428387452157819,-0.2427975893170236,0.09730331676052384,0.4950206227910861,-0.15491600382695625,-0.6038333812213906,0.5699648559523978,-0.22422622914367657,0.2786416435213617
-0.21134539820594583,-0.031787163286331854,0.003597424092704389,0.11221315837448144,0.13855208771853875,-0.306398924281976,-0.40386725840173665,0.3836348885617986,-0.03498786348054613,0.33143646608420496
-0.25479093960776233,-0.08815447043229015,-0.267143791301509,0.1914281051647818,0.0193036754212216,-0.1827770472821414,-0.27069867227493766,0.590713076450399,-0.03848226851097191,0.30560151318528095
0.0691479301395294,-0.2490753213665503,-0.008246558127421262,0.09342830318244269,-0.02591244806151708,-0.17610281574110895,-0.12083644488632932,0.03290735607180194,0.09800551435997726,0.24396829371405793
0.08318434963388878,-0.023342235042140624,0.02717948539058698,0.25367952844194436,-0.26290641480900095,-0.4761845767754171,-0.30765048671035833,0.21424906228531287,0.023773802581821143,0.44915067894393174
0.26090146612387216,-0.3169559754203047,-0.0008619586248265739,0.17632169670000167,-0.27394372653414506,-0.3686173043941583,0.3390674601349394,0.20293850059104973,-0.10517854775422006,0.0971974702505346
0.5080213235111386,-0.12135095603526629,-0.10254114052169581,0.13491235388587883,-0.2035575989898898,-0.6484290919787208,-0.34147773656875985,0.15222531855639668,0.07862751668524376,0.5179337530389377
0.42302140541268823,-0.19764233843024837,0.02460167937916374,-0.1515639502924779,-0.5575601553190923,-0.33280638413457025,0.437081568586488,-0.036852711479739446,0.37307346577192,0.022702594542364948
0.6031878463968788,-0.26595871856145165,0.24882383237314515,-0.4793622764835299,-0.49328474201169437,1.1465590501048843,0.0007319607176495204,-0.5442810896977605,0.20811084059815435,-0.41729474576360304
-0.2912474257444621,-0.001412512845818207,0.354335281018687,0.10579715570077938,-0.5602681482725639,1.517886966639219,-0.6500399978691012,-0.2053765565109209,-0.05070058205603402,-0.19840041146795703
-0.3921280219311343,-0.007099660544830684,0.03533777750274102,-0.01634692513559266,-0.10181132513107315,0.5117882894224627,-0.5485999728508545,-0.025173854656947096,0.6437087823219557,-0.07735569338690731
0.012326477220457497,0.014902601766561293,-0.014609691347797025,-0.008986175925602925,-0.0015305386196944406,-0.009326150822167244,-0.10216655028248807,0.005186713408907216,0.10883604661475055,0.009904237884117704
0.006543437035278083,0.018289195557627196,-0.0020926898913291186,0.005575867557273196,0.0025723670128116423,0.006601502463958595,-0.013708816019860797,0.003459728706858854,0.009860100349024386,-0.016699336400043882
0.000415700904815173,0.002067389195112439,0.00808461051069475,-0.0542605724493502,-0.03445461802044393,-0.03252155636417373,0.007621707568028307,0.21026943646174662,0.00423070580248703,-0.08030651395795757
0.009349487526800059,-0.014800004411611764,-0.006931259386184094,-0.0667374978804953,-0.21613126738108496,-0.06445589808227756,0.011674070679060216,0.6750862649358718,-0.007816854758500944,-0.3344074638189759
0.01979113283070196,-0.015888659820243473,-0.4439454441076249,0.14550336538707498,-0.25638005940980324,0.03387768208394677,-0.20391753385817823,0.6374467377877678,0.1886438134460228,-0.15545292160749666
-0.07851928516457188,0.08547383910717105,-0.1861205941075277,0.23062223351566322,-0.834103048517131,-0.14847294536187144,-0.13741539531801847,0.6941189292985745,0.09658039861795648,0.26628328035494947
-0.12808645873451333,-0.23324850227286112,-0.2932950479489414,-0.046069012744001755,-0.1356375670419898,0.03522006733790995,0.0869964389268789,0.2310567261364896,0.31827037956701365,0.2005861888664995
0.08071419557265949,-0.14770533591651547,-1.189047257400149,-0.4357164172709935,0.16817288727127708,0.4404648294150383,0.2717851434748827,0.17369059849734605,0.028895452460975392,0.5899901412214834
-0.06995559808510676,-0.155673226031966,-0.8627618322902773,-0.34444636186754174,0.4880048062063918,-0.058048938578844196,-0.14752086639762887,0.46865811112338207,0.17794031614134245,0.5258622234953537
-0.2017650144566917,-0.03371615397306077,-0.33891666221455835,-0.45516355274700127,0.20732319255866288,-0.10169335492118735,0.3521416364457579,0.2942785019664899,0.05580551993288054,0.21418281398947323
0.179978500173574,0.03251884010246297,-0.6100924540670063,-0.1860322585942093,0.1446932361327306,0.028084475521127715,-0.15300967476370866,0.04107932063117114,0.17074305771581907,0.3618631398610607
-0.24248854682150958,-0.46850921714120575,-0.5701269686067064,0.01181123955567826,0.6291616141337195,0.1789124670912331,-0.053400080083094666,0.14671086197253638,-0.020006759990973726,0.39958982400304643
0.12586159118001855,-0.5095641333621967,-0.6177576632833289,-0.17049150266209573,0.32244202139592826,0.19184176234924666,0.3673690201772762,0.15745556830913005,-0.025011815137857267,0.13565898017274855
-0.17641712972922713,-0.07803080217339992,-0.36629305436197535,0.0440483720736277,0.5814177215212637,0.24004923864741848,0.2986391633403595,-0.634919499606598,0.11984124149262715,-0.03467362677996353
0.016161322592831574,0.08166525276766494,-0.483231552106506,-0.13670672555481397,0.0845161781502686,0.14387106879881031,0.1584568980556345,-0.3443867198760392,0.4071095425431926,0.11421509248361697
-0.5103499608353993,0.5721269435007236,-0.1667667130616802,0.4482232630331587,-0.12002964954142621,-0.1255506823473133,-0.33597613697849815,-0.12766963177890386,0.040521005789100555,0.30010694148635875
-0.6577045694392978,0.7867451703208257,-0.3114436178865389,0.2920353007890352,0.009730597752562005,0.10766568028587034,-0.43469325753244786,0.0357755756088948,0.09124851977895926,0.06579800559547701
-0.49409851599498267,0.10414171676303084,-0.4229746336287558,-0.1317405479079353,0.31458034443635957,-0.281549612216322,0.3545433718518088,0.3548796853228762,0.002304076439223416,0.25253081040009145
-0.3106803647179505,-0.14999744824759167,-0.21721762729854646,0.16790805583291002,0.13751063382350864,-0.11418578021028482,-0.2435748703217815,0.34616075872365126,0.15385283172014333,0.24379475240130552
0.33620841634108295,-0.04887605325301265,-0.1503907585936807,0.02635104660567542,-0.10716177618964116,-0.32018601316758655,-0.024770237095744586,0.1328366151601912,-0.2323811014420183,0.3626031231374337
0.0041644888287033065,-0.3903013490918418,0.25770983700219136,-0.15437399932612464,0.23287956418462144,-0.27594326642570577,-0.5190165176459429,0.30563136361993054,0.1366582541796272,0.3646243542110568
0.37333294029548136,-0.39499078540576255,-0.19737810795236244,-0.10061784257271995,0.23390817582202877,-0.19841911891349992,-0.03836179130194617,-0.09094392886063846,0.1598982089164937,0.3096294097660884
0.3401448355312885,-0.007224905813486201,-0.06603288649151237,-0.601039411200298,0.15114854899990487,-0.6979067577981656,0.125246470198623,0.14127567507538077,0.3330813148850268,0.2343392716964807
-0.017239998407572135,0.034349683558972666,-0.2202511370087964,-0.5972495136595598,0.44111566678764647,-1.0182815127474003,0.407355752296083,0.5199786866574597,0.3368300177259726,0.1454858598012373
0.19303328106056772,0.040320606185890465,-0.5548619297018504,-0.4090020992755169,-0.313407837468928,-0.4272384164986966,0.7995709291204173,-0.3743198791842852,0.4779492147125313,0.5547202822637343
0.6879779028308951,-0.07325180198862892,0.21374362202926928,-0.1656039165444934,0.04574849346417945,-1.17240562258258,0.3017634645310225,-0.4580794510035227,0.8842494288602265,-0.27882327607144414
-0.18975299245929256,-0.02496532225100622,0.5129005976194552,0.17461151341132938,-0.0884076816296825,0.18333527447583167,-0.2836767130383352,0.10389923090410223,0.13304227138873476,-0.48585207374535855
-0.31711692411334713,-0.0725777580736488,0.47250311398165057,-0.001169856828212758,-0.22455276661168821,0.5857867905056033,-0.4786111232546903,0.1181245221576622,-0.06432931363334381,-0.06763132506207574
0.00867673077932703,-0.002374578894762257,0.14211431688447929,-0.011187297021831733,-0.1401442877644661,0.001935597753141859,-0.13993155089624607,0.15453101402325656,-0.020957505047220576,-0.014673080973228362
-0.006952107646288734,-0.0019822544166911236,0.004681817892796571,0.02296170921789056,0.002047107636150253,-0.011270772710253212,-0.0012866585158293022,0.007950958767374757,-0.022714583029133463,0.004888307844148459
0.004043998938152363,0.006961892146010666,-0.018380082324180716,-0.05417275454278316,-0.028055061219849662,0.002101850162956462,-0.012069044154832854,0.11843480982358523,-0.0036078654675174796,-0.05460577125838061
-0.009725125709477655,-0.015522613268833202,-0.013463786363634368,-0.03324972996322224,-0.17358948792752876,0.008939019761566214,-0.002290042545770338,0.5107555834240629,-0.0030363460147708006,-0.2703370145699174
-0.11201617301855869,0.06038233998153412,-0.5354227239243786,0.15963330743127782,-0.15489411963030664,0.1658684651280806,-0.23186103049968929,0.5761353377985452,0.0609176517411074,0.030790288138175755
0.27318070200878714,0.17483412200729537,-1.2736378679003726,-0.2742270360453828,-0.3073296408077664,-0.021045278168559257,-0.09203820931217137,0.09862929557841132,0.3151057612916552,1.0588847691661307
0.2048766856792424,-0.018249491393901113,-0.6063158770622611,-0.3582126120592758,0.268475144042854,0.083626273490857,-0.009537862562618708,0.17799607069462411,0.08350240978725808,0.11658023641440576
0.31046817768673707,-0.0824307849371021,-0.8364026996979658,-0.5368255451986319,0.4673282738729335,-0.49337308484500125,0.8175021968316328,0.17332582233917437,-0.00936312719003686,0.23387231544866344
0.4111388378716786,-0.15830423545645902,-0.10765296750377217,0.12850632532052575,-0.10431101672390289,0.1795580864368192,-0.0642984925030572,-0.041504796881960695,-0.05494336498330626,-0.19246891785683107
-0.04010274256097739,0.35651373525361335,-0.40711204934096973,-0.17516343985026017,0.4174744175647232,-0.010703620510351244,-0.3564936203134974,-0.021486869127455392,-0.12922543912360965,0.38355935385100787
-0.1068881477824577,0.10986793400604962,-0.21589159824494944,-0.007995547123912875,0.28837161728199184,-0.026103370627573143,0.1622441745711145,-0.09324695542194601,-0.08007731420747201,-0.025652190393810552
0.4134470694858648,-1.176082639119094,-0.091536668344789,0.1019724519639149,0.4479441021885,0.19511345824697554,0.3333606013979295,-0.11767632286054351,-0.18924108293236047,0.08102822793267059
-0.07135585487438562,-0.04612280756990231,-0.026125924706157568,-0.1721874431066684,0.37857989991396274,0.15847227737191943,-0.1304538025535235,-0.21744397593954454,0.09816669054019626,-0.03876226980452889
-0.034349157085566046,0.2630615236940095,-0.00042883078030977106,0.28689906214280175,0.44549372294109507,0.23881501715488018,-0.2409639869698476,-1.0242197463886993,0.1934216750986507,-0.09887563980464092
-0.25554976570028304,0.2894064816969385,-0.024348646643429332,0.27149926308085626,-0.2776978127339414,0.3814300880344479,0.10789070238543859,-0.8796321799007808,0.4764525469224193,-0.1087150500657068
-0.8062499290537847,0.6279284040440254,-0.09032935937514099,0.2066089322767954,0.0024075809512280545,-0.12257589769964292,0.05560526781270216,0.017070446322933055,-0.12544185079495015,0.22874188427977385
-0.7867466707014743,0.28755665681548415,-0.3531264776819289,-0.04499513009707088,0.25269758146362475,-0.26227758133640183,-0.09873511795605709,0.20008860297622863,0.3249961013566677,0.47242841749537456
-0.5185729279717987,0.23654759186783916,-0.19148659557975176,0.020443609840369664,0.33447886115965597,-0.4730203326829534,-0.21158306929196477,0.3791820974387617,0.12207631869452035,0.283321813722996
-0.2566350970388905,0.5250930251644342,0.004649618232659896,0.1489616746552462,0.035329996542110984,-0.36604102178028275,-0.13864478210780237,0.02999267892179293,-0.06876553414199586,0.05396184842530021
-0.09050432802421947,0.05794115742787227,-0.11641821391109022,-0.0874434972376704,0.18911193221449807,-0.07129257806379687,-0.2532651620410409,0.22326377644719558,0.0265289782666332,0.1843410168302318
-0.1499125483029867,-0.7050678183274129,-0.03919824551347541,0.3711530043451142,0.25245651014629983,-0.0662880427351932,0.2340730576200077,-0.2422317727541143,0.05611513146987368,0.26506471384846064
-0.47118417194881207,-0.39405932420615714,-0.1700481452617117,-0.41668376670879903,0.43818175677714555,-0.06297619480908873,-0.0033826123355868223,0.4016261444277134,0.3064687947218577,0.36014267425297625
-0.18060225072669117,-0.2628471141952517,0.29760286440027506,-0.27309519397420684,0.4183095307532321,-0.3581118943432692,0.12343345767445298,0.035340910995451696,-0.07403698937882137,0.25473488584796167
0.17486682517849383,-0.10490372828760215,-0.03892948978866342,-1.004728648583538,0.06273393888069007,-0.13545225358634108,0.5061641314678019,0.06810516807827627,0.14277401050363958,0.28013573424477034
0.5560427579086664,-0.22613692651612705,0.016996491759097804,0.08946709888274973,0.06049771660762591,-0.9756370736332876,0.8023778923584951,-0.6200607244415465,0.34306005278701956,-0.03169285170002066
0.4138483079154114,-0.26303806328115326,0.9621318919863345,-0.11894312174039529,-0.422012148639406,-1.3755353459357003,0.9791555762094643,-0.05616748844350931,0.4873998813146851,-0.6435394882668869
0.3778240885936028,-0.18231148223655194,0.9259700692184197,0.10289167825452486,-0.28187097309906917,-0.6606101375836642,-0.38030898978887767,0.18471782190387662,0.30560177009289863,-0.40659776404846487
-0.016571683359165954,-0.1946283803023287,1.3053152331137698,-0.002440265329178515,-0.41334893282206525,-0.05324625564829765,-0.5277540722159074,0.07199597770155727,-0.04460568414063849,-0.16999475887899776
0.009638166331567622,0.004089758322687008,0.24883308897579673,0.0035214645556234433,-0.0703818599363604,-0.02415139322632384,-0.12142840316491572,-0.023026250759286344,0.0026579481895956103,0.001971926446653696
-0.0010335123369489016,-0.0005505899608543777,0.013509265525945027,-0.00643004657927636,0.012195226938245228,0.038858868711438725,0.005049302918304874,-0.009189714479646793,0.013322238536655128,-0.037977363648070576
-0.0066262323803764995,0.017139057362437055,-0.057077112626441114,0.021739948951445,0.0068347918423144315,-0.0035368398577779177,0.01735332710634947,0.09518627723910554,-0.00839471422929625,-0.01176925013564981
-0.009908541333211106,0.00014417999820442076,-0.07700821805126093,0.02064065806694072,-0.08618619810176703,-0.0012953620290487343,0.007644570225975705,0.4004956006015151,-0.0037034583893547236,-0.2776970312160422
-0.2622583819625287,0.06644340374111586,-0.43257514526937674,-0.0215163613123728,0.07818912852695666,0.08804581648234147,-0.08812322702245727,0.39467661704398216,0.0726719623065062,0.0032418868296971116
-0.0643620018714028,0.22711225475480618,-0.4938937054945454,-0.15607663823336743,1.0135085807125035,0.11094600244475432,-0.46427267189331045,0.14442048874697902,-0.6034045140795476,0.3419761598993588
0.3581149873366198,0.006613236730366674,-0.8386526735621125,-0.15192098164216203,0.13983944305532164,-0.114810864912425,0.11355633248909364,0.2764024974829788,-0.03547533037319545,0.22105233470110716
0.10188674968969137,0.012092944731257813,-0.3492296075776997,-0.08439117465819465,0.1444440571575292,0.34196317009642696,0.051869464067813405,-0.041810039670713464,-0.06509452407897583,-0.08311798856320543
0.4144643681458341,-0.12137003355741696,-0.07019509051736438,-0.4409930120861657,0.552756339570438,-0.10156596115651564,0.12777969549340334,-0.13562328252526998,-0.5450916525143299,0.30088220839732654
0.18123377259004897,0.06460639726792455,-0.09059410062771811,0.03461997873384484,0.016919222234419756,0.18593472561024874,0.2717981919975533,-0.23938261811665573,-0.07512471320716438,-0.3764085662155812
0.24752149810519547,-0.13797605915123587,-0.07267982616615923,-0.14284940771126264,0.16589997227721903,-0.021223561986995616,0.2077416326028221,-0.12902089937042302,-0.20939832080624457,0.0746290934463069
0.5737493318742314,-0.7848683622499002,0.044704351734369555,-0.194822358574726,0.17094633614490093,0.37237763036822047,0.10153637422004123,-0.28481031446086075,0.14422617465220508,-0.16446704832895398
0.10151537548360462,-0.5490505762273591,-0.18108356005283682,-0.1346100846744408,0.3754866864667869,0.11275302936685823,0.47865362216186064,-0.1944043873107223,0.059877585646349214,-0.07124023011622935
0.11241107123868536,-0.042133316148387064,-0.02692002794490123,0.1231385999872882,0.1678051933912796,-0.018698837494243427,0.24628572708371804,-0.8101180807906894,0.3445042033886331,-0.09205352775959143
0.23467986224961596,0.19043161135366898,0.2001668999980777,-0.009934104889166257,0.003676800757929658,-0.0897610238554442,-0.36438039821298757,-0.5986792295834696,0.36354924978384673,0.04743787755405127
-0.9740565743195397,0.4132765160975076,0.05615403495125266,0.037074352804575716,0.11773150861252007,0.016098960612229193,0.24193461698427227,-0.31770932427605075,0.292515848793552,0.10289143978492858
-0.5722469027500423,0.533157100938108,0.031309804817699134,0.21104987209439893,-0.25916885649803834,-0.18773700115574105,-0.21022462573179498,0.07582189512308066,0.26814772081952526,0.07484549749166985
-0.8509821211202397,0.10485645739354402,-0.2063329876346082,-0.18252648241245092,0.7095716167671564,-0.26680511095161275,0.21456773063638715,0.05245764471869668,-0.031070507291095794,0.403079877371749
0.2507822598623081,-0.14543658529462508,-0.3162019470649931,0.06564248877332769,0.34049677823408925,-0.19848511277850492,-0.26221763556914984,-0.0460122388823251,-0.010289596130755922,0.3169611942444346
-0.35587453486378967,-0.07601733076675554,-0.11153106953965743,0.057878938407812754,0.25087848101785437,-0.034337129973870395,-0.27500489756515234,0.33046042908498763,0.02639416205451995,0.19435109702982575
-0.042724525677193016,-0.6585112089525622,-0.2976391657260914,-0.1490795456390817,0.4170624363150442,-0.255064765020545,-0.04208414160866727,0.6324633123813642,0.03886260361860329,0.3649869961557391
0.07884653719183882,-0.20537593574610502,0.12963588413506064,-0.2042697794582896,0.14006952613529108,-0.036475219415137636,-0.012532099868290193,0.3417169878199097,-0.2701527203125183,0.06158094829427624
0.30287339543431924,-0.08044499892258207,-0.6571754353660695,0.15272734680663763,0.04390976137517223,-0.21107292658217894,-0.09859157367958293,0.20679588209873856,-0.10065863334228795,0.4381911592816931
0.288064681651008,-0.12383641490203708,-0.16279532258247748,-0.24393408143804465,0.1539298408173234,0.03855055030032572,0.19171818406417301,0.4900585998321263,-0.5441974550423013,-0.09461509460628525
0.3332484890967416,-0.21634019340351024,-0.13288124238188198,-0.0016196576403325615,0.16433490310010437,0.2554422568944734,0.47040636144668807,0.180573162100793,-0.3442644468625203,-0.6773608131175917
0.3093951170484487,-0.03276712171548038,0.48279604308772206,-0.09489911436716608,-0.16815402975921134,0.14769552134494532,0.17911702703263638,0.23175719305481834,-0.2742678264102994,-0.7915234499529684
0.42603788283619365,-0.08506227903164316,0.5960630715900165,-0.11355141614345876,-0.048298959402250305,-0.5860646642631794,0.055550424408392016,-0.12396597967401683,0.1436617779912563,-0.2849593619963297
-0.02362359753417623,-0.00572264871764365,0.7312330713587755,-0.017393173391542435,-0.2850629946683761,-0.10572012472626303,-0.27903162448411123,-0.01231803371709309,0.0067522798065689045,-0.02642831467774103
-0.016270420712113518,0.0007038278524065552,0.004422572678705276,-0.019181862436712202,-0.0028886136995570537,-0.005474668851700751,-0.019210211108996577,0.025926869850094684,0.009038640767518697,-0.019609991748275952
0.013209926278387086,0.023032046792022445,-0.006240183462193992,0.0009085016986686297,-0.003862245829333151,0.01853989983150436,-0.005931484365139049,-0.008218818348987684,0.015614565884176002,-0.018541593450058253
-0.0019394217262759755,-0.0021930309711095932,-0.05098450279149335,0.06355267007225336,-0.010027727003996007,0.0033700835744222817,-0.02052899362276891,-0.008691317003632595,-0.007334663949099331,-0.005332525363549892
-0.01026844306923008,0.03867166720926654,-0.050774691905888104,0.0759002968300518,0.030571637238316306,-0.02419700199562998,-0.007926950643355498,0.10756783032776222,0.010511336062378508,-0.18298426408076074
-0.3085369999595464,0.032743003079373244,0.1226381595642951,-0.08837776913334398,0.22220160463123348,0.058880032374165336,-0.1742898580734278,0.05110115570689917,0.04221188089678646,-0.00016332340033677043
0.32387160446204605,-0.01606224809203752,0.5898012687406078,-0.4207113769222106,0.20258402851441484,-0.008139479530397752,-0.5581203184390428,0.13159991817858055,-0.28924530365433937,0.060196832581709124
0.2525716837956772,-0.14071788264099114,0.9341571328336864,0.03980741875915565,0.07693176285407378,-0.45166683599284657,-0.49852811212359216,-0.027773048256762724,-0.2851822357762265,0.1003337394186864
0.02350246926189627,-0.2801211095343375,0.02049541293815601,-0.24728545905660804,0.4064538441503798,-0.02480614556544804,0.1039164035106904,-0.04309715983084255,-0.2542395430963301,0.3645972544684091
0.43589192306640673,0.06570451878075638,-0.1091550897071282,-0.3555213751103855,0.3376877581272061,-0.32288937364278314,0.008991189950274215,0.06948336420181987,-0.0801409605668857,-0.021635911101892176
0.33831651077589997,0.2562308362608111,-0.03951011761074859,-0.44399128334198057,0.15999970699438795,-0.21042221030112157,0.31204063183192504,-0.35500592212952414,-0.26762646978834176,0.23455040047387715
-0.06696341145808514,-0.4744932993566779,-0.0193714835879295,-0.10659532799125412,0.3814368735313615,0.30200410045911125,0.05747490508580542,-0.022088255793162384,-0.135027288796089,0.06878864132585497
-0.14770595159186423,-0.3280767454181248,-0.166612189996486,-0.17422995964869317,0.4046453230060822,-0.02882372438653023,0.48341108480459516,-0.21839866523299004,-0.05235280623395511,0.2276766020793566
-0.054981012553502684,0.18943318809093712,0.20628671366741774,-0.023978890893349446,0.0965616770350148,-0.010770295673136608,0.11236517209052117,-0.3396911289120694,0.019802604638007447,-0.204147241775344
0.07218846014143566,0.3065907633940683,-0.04753756899577423,-0.05789296180310732,0.08594625664441292,0.08916942786398169,0.010877656942054061,-0.7174561283991354,0.2461182075098105,0.025901402901994344
-0.2713216919598765,0.49279172867851045,0.13379074875966884,-0.00810817312738295,-0.3905133309776246,-0.006664423857240381,0.11182325265682419,-0.22806425929196955,0.22808531354447406,-0.06379946335883589
-1.2730977148221472,0.6705366021707118,0.2930184489527587,0.09814485317918421,0.38262064102217686,-0.28715113236885975,0.3839554182430739,-0.4755880883768185,0.30718237974234686,-0.12211148464287924
-0.5638784863552405,0.15699256175833007,-0.17660918008622725,0.19974284636204856,0.30806366839434846,-0.1664311778181949,0.0779350686623715,0.004692786631839339,0.06040327739517451,0.14689887638116464
-0.5260012928735491,0.4319158587653531,0.2743599794635196,-0.13406010906739774,0.26715126222926433,-0.15482805635225583,0.03208639859083611,-0.3249957974592987,0.03603546384930329,0.07937751113532619
-0.3349733635724284,-0.28538018503562873,-0.19198899441120995,-0.08305776925832142,0.6265620253918492,-0.2187474419802396,-0.07871794239692648,0.5104250940126261,-0.2250346481320685,0.2793215659523723
0.17092467951856405,-0.5970169415513883,0.02277136313375196,-0.1282355486561658,0.15651629021585545,-0.08103488528605587,-0.13804144466076626,0.5601141765963428,-0.0462864300750978,0.07423937120731154
0.023778055647868893,-0.8108185568044335,0.06849672403269673,0.13246925550473,0.26357421503182926,-0.08319871527879028,0.2900206524202296,0.261535050026105,-0.2005903456535419,0.016989457590342944
0.07980203232408087,-0.7772743246053372,0.04150219901772142,0.27968509587476525,0.23068284075286372,0.14465439100954722,0.08620221845540794,0.023793763514033863,-0.15002456810089282,0.01000246241564351
0.02571445567613584,-0.09542808248380596,0.14357984929275236,0.3160704777120182,-0.3011115165057354,0.03262969494643273,0.30347867239711795,0.21787183688881326,-0.38679402074094144,-0.22956137519974518
0.10882760981533068,-0.1720540846907023,-0.5133701127778284,0.22628748707462176,0.1166722423925214,0.06590479535533775,0.2009868622143986,0.03810919911836279,-0.14419325893725898,0.0788451481430418
0.08745327895036764,-0.10640638969130274,-0.23528066729767116,-0.06311968289309601,0.28788668636017567,0.251396895470974,-0.11064514191974892,0.514321501441766,-0.36114857772437164,-0.2654255557905963
0.6583322453681293,-0.04963187049441635,0.6209580439895762,0.27886167608514284,-0.6141130537251445,0.24976017593076968,-0.14194147519642497,-0.30897730841682236,-0.11261019338007512,-0.5691998996070718
0.1862313513825485,-0.04929052919526787,0.5427470862585754,-0.1764824317095515,-0.20584184430131147,-0.19014179555812716,0.5561917085768269,-0.4104639927414989,0.014223600569937767,-0.30149772121382157
-0.04128453522902529,-0.009914863316428216,0.747212306121853,0.08708770915263978,-0.029016782525091017,-0.1900467426705181,-0.3477733604611737,-0.06450610864400239,-0.11165921709711395,-0.06702293500543427
-0.026842451751440784,-0.00438200466150633,0.17347594227341748,0.009973527916334763,-0.005632391205416628,-0.09077581278845112,-0.05569563833003263,0.010271202941461536,-0.008894902731734267,-0.004827593967511296
-0.005212661890418459,-0.002335059075342961,0.019571509469166477,0.004843696851682826,0.0027868662183003785,-0.007467995885546044,0.010387461970962962,-0.0010254963144847263,0.011419713224619122,0.016390045652734653
-0.0015369892401181123,-0.010971759283673381,-0.06578191343227865,0.07340752521206859,-0.00791076671181713,-0.0010508703666723689,0.0077332069695944285,-0.015824312629727114,0.003177465318489402,-0.01603151276113724
0.0014964734761083152,0.014136120935642205,0.058579764813918044,0.07493335113187011,-0.004508379352019801,-0.037396270310349235,0.011768820396244137,-0.020250056627420847,-0.03018550419042786,-0.0442440383907024
-0.15575223229799262,-0.00427542933613271,0.5475506981362861,0.5827873343721421,-0.21217794667586873,-0.07738771885193041,-0.25032210903706276,-0.4308034308798492,0.0010658299430096813,0.0014149898834151893
0.023544865072672408,0.00473337111865757,0.22476208178856588,0.445587919362482,-0.4127394749240368,-0.2923416038409683,-0.06707451191423888,0.17775895166147201,-0.4476773050090991,0.32862806783252124
0.21686333137586628,-0.16525489284281147,0.08497136038684383,0.3257485283126068,-0.08747975985376963,0.15441127964638487,0.02467064665535818,-0.2964909734091781,-0.1960865976683199,-0.08690142938392312
0.4044384076129937,-0.4342190798335742,0.1635840067427439,-0.07842459448655698,-0.15385825788904228,-0.20703627575119044,0.45531901445379364,0.2017949451319596,0.02067537584264396,-0.35927889424799403
0.25891631228919143,-0.34901319364200856,-0.01502350527300185,-0.2746159576150657,0.1856376825962988,-0.2941169527949845,0.4917412130426609,-0.07531561002804496,-0.15059697947854694,0.24848035247004524
0.30603165294294427,-0.3500674685919863,-0.18014380795056453,-0.3301607300427823,0.3854977605061668,-0.12837181747942517,0.05864681260645525,0.20477209118256642,-0.012798575361732472,0.024224232745701395
0.6197608090339582,0.009190390429515558,0.17388597773389566,-0.03803056193059356,0.028652445919478672,-0.19573313589268945,0.326335468270015,-0.4640985900813155,-0.03238129136676972,-0.37828950936851696
0.3158744065429466,-0.1813673293108573,0.23584392371977722,-0.1153409303567103,-0.08910065028458501,-0.12163897349526483,0.3073623014516326,-0.30475551075419977,-0.003940837020196364,-0.07946290845437314
0.21297050565012174,-0.18407956136947026,0.2001130682439338,0.04247030396055909,-0.11638203294503359,-0.24119290870514087,0.6459167968369823,-0.7865435569794234,0.19236510513319613,0.03344533532210724
-0.0790614443450789,-0.46400592492844595,-0.10523291164851895,-0.08611181323922018,0.23419556762719754,0.14693666491010796,0.027576172814523285,-0.08684608093712273,0.23711101328748233,0.13103098214397566
-0.9715826168435983,0.4830043771977919,0.45026589591650923,0.3353164122857194,-0.03296717851747151,-0.3581562049533506,0.22467542782819275,-0.16513027857614565,0.2863555802825965,-0.3024944290839982
-0.8797383892587388,0.7096859313541625,0.1992395388481507,0.041951267507653975,0.23891259571758164,-0.03925390826177529,0.058657788790134224,-0.27379304573513896,0.10994768696666174,-0.15259422797221434
0.031115454894332397,-0.40363155045416504,-0.06622837357440899,0.003333553423263364,0.6587447757761378,-0.3068354730360639,-0.016599485854659715,0.08884391206113104,-0.009440363926617847,0.0008340922700635084
-0.313393694236781,0.1403609381253881,-0.0018945146213002763,-0.35197814188987575,0.3302116662397728,-0.29234109041311845,-0.23966240209058737,0.3327896874661263,0.049004992367824345,0.35580105822991703
-0.009124646460877557,-0.5755662948015514,0.122372635325722,0.07861192874321554,0.3062656424779313,-0.15632387158679045,-0.24013373530080462,0.26735015634611115,0.02711944921140977,0.17575316463929153
-0.2699462159189818,-0.7933191564447017,0.166187605952905,0.3920746229897811,0.00821670782923045,0.16334841650607856,0.21600302484822137,0.2665051617212254,-0.1383939826061873,-0.01987002454927301
-0.05946686211963189,-0.5137463204499851,0.13479935813762467,0.20121187624169437,0.16836087077772963,-0.00811736177340654,0.30034191495420653,0.06897616138387995,-0.20021434032290886,-0.05151945131186646
0.3474794811592905,0.037169315945795325,-0.4684279220881738,0.09874960110929977,0.3167605586191735,0.2363980294886416,-0.18069344779168117,0.04268936246201492,-0.36113416720244623,-0.07692769628694993
0.18337873721194997,-0.20812097449964023,0.37569850098184915,-0.11769710580837317,-0.10702994740495736,-0.12263218507831698,-0.025855700239350955,0.530551197554008,-0.20915492723041493,-0.2648751320284889
-0.07441303014041203,-0.035850001613539066,0.4165835420561517,0.2252481844061082,0.18237933101503803,0.09838743289165724,0.0544798079532339,-0.13743312592187493,-0.5317489113587459,-0.21140615971658352
0.2007366216767393,-0.13099616487391158,0.40026159965466235,0.19584861247871985,-0.48848688960661035,-0.10235851088960572,0.0292833744235682,0.021678779057567873,-0.09378340215126967,-0.055129114189088495
0.16567815798104543,0.010461706583533412,0.47397685104286086,0.7428462279294948,-0.3794456563931734,-0.20707073219999003,0.45079934098163477,-0.24229214267068847,-0.28837502691005074,-0.7183018916414758
-0.1522673390436439,-0.03336251251557827,1.245459422403177,-0.27125962860477243,-0.2071949562368304,-0.05894044397409263,0.42830385048766867,-0.5569404779980052,-0.1286649617847522,-0.2724398027692201
-0.09881555046053475,-0.013246702641933273,1.3165424911366623,-0.038362569425100496,-0.42506367769318154,-0.26946169693556543,-0.3565984090831539,-0.03577811701108401,-0.03499891611135598,-0.024880434796234363
-0.005350406101024376,0.0055844949656341505,0.11126913752715813,0.007423905895328182,-0.0018220077580595247,-0.0683309256257,-0.049785152701815855,-0.004647422939139704,-0.006431226338860985,0.005643494633973798
-0.009185640417702833,-0.0009705232160912225,0.0176942255405748,-0.001620555467836661,0.006572450214982702,0.004189549038107831,0.013629997233009582,0.020495519909893525,0.0005852326527073734,0.0017711232703231101
-0.0027498869675869043,-0.0014818526050978638,-0.02036217965250934,0.011498277473892867,0.0012814655397678546,0.009513530407012732,-0.004796141878966334,-0.016114864964768622,-0.001445578053960149,-0.001738346063008572
-0.020615804984920733,0.005766684860001656,0.011498356109307425,0.14761364546605482,0.05601827769647436,-0.045891178246343776,-0.014077461732720549,-0.013760536176372452,-0.010964482779791935,-0.09260142653804658
-0.18457007945059176,0.0031416383022148157,0.2506487281098708,0.643684224841575,-0.569476832670387,0.16462050514703014,-0.10980937330862671,-0.1746328223552978,0.056395299558106106,-0.05465346661083722
0.12174095563024848,-0.046800945223068685,0.08504935729232845,0.585324532764075,-0.3412564478408567,0.17632248986100468,-0.5168140747539596,0.19872992066282702,-0.17625199950142223,-0.07676554374869098
0.43395472243674493,-0.30665777093375574,0.6243725767393014,0.15846674513499948,-0.1936482636118994,0.22958246548370437,-0.2412692011237354,-0.07989154299193155,-0.25499625689749195,-0.3170921656467264
0.12986759222335031,-0.36045656176032664,0.33843993453498167,-0.17539751947813417,0.23458744842570095,0.1913665390722719,0.16157302391579698,-0.19869148661083624,-0.15449541372685996,-0.12036197060468755
